1,0.941714,1.03339,0.412526,0.151332,0.933268,0.437466,0.976713,0.852547,0.946222,1.37038,1.85581,40.6247,0.937613,24.3165,0.732702,2.36766,0.492595,1.00485,-2.77254,1.03339,-3.30173,-3.56292,-2.78099,0.437466,-2.73754,-2.86171,0.946222,1.37038,-1.85845,40.6247,0.937613,24.3165,-2.98155,2.36766,0.492595,1.00485,-6.92715,-3.12122,-7.45634,-7.71753,-2.78099,-3.71714,-6.89215,-2.86171,0.946222,-2.78423,-1.85845,40.6247,0.937613,20.1619,-2.98155,2.36766,0.492595,1.00485,-1.70644,2.09949,-2.23563,-2.49682,-2.78099,-3.71714,-1.67144,-2.86171,0.946222,-2.78423,3.36226,40.6247,0.937613,20.1619,-2.98155,2.36766,0.492595,1.00485,-0.467494,2.09949,-2.23563,-2.49682,-2.78099,-3.71714,-0.432495,-1.62277,2.18517,-2.78423,3.36226,41.8637,0.937613,20.1619,-2.98155,3.60661,0.492595,1.00485,-3.60144,-1.03445,-5.36957,-5.63077,-2.78099,-6.85109,-0.432495,-1.62277,2.18517,-5.91817,0.228317,38.7297,0.937613,17.0279,-6.1155,0.47266,0.492595,1.00485,22859.4
2,-4.542,-1.03445,-6.31014,-6.57133,-3.72155,-6.85109,-1.37306,-1.62277,2.18517,-5.91817,-0.712245,37.7891,-0.00294956,17.0279,-7.05606,-0.467903,-0.447968,1.00485,-6.10261,-1.03445,-7.87074,-8.13193,-5.28215,-6.85109,-2.93366,-3.18337,2.18517,-5.91817,-2.27285,37.7891,-0.00294956,17.0279,-8.61667,-0.467903,-0.447968,1.00485,-8.22401,-3.15586,-9.99214,-10.2533,-5.28215,-8.9725,-5.05506,-3.18337,2.18517,-8.03958,-2.27285,37.7891,-0.00294956,14.9065,-8.61667,-0.467903,-0.447968,1.00485,-2.72661,2.34155,-4.49474,-4.75593,-5.28215,-8.9725,0.442338,-3.18337,2.18517,-8.03958,3.22456,37.7891,-0.00294956,14.9065,-8.61667,-0.467903,-0.447968,1.00485,-1.28432,2.34155,-4.49474,-4.75593,-5.28215,-8.9725,1.88463,-1.74108,3.62746,-8.03958,3.22456,39.2314,-0.00294956,14.9065,-8.61667,0.974388,-0.447968,1.00485,-2.64625,0.979618,-5.85667,-6.11786,-5.28215,-10.3344,1.88463,-1.74108,3.62746,-9.40151,1.86263,37.8695,-0.00294956,13.5446,-9.97859,-0.387541,-0.447968,1.00485,13432.7
3,-3.25162,0.979618,-6.46205,-6.72324,-5.88753,-10.3344,1.27925,-1.74108,3.62746,-9.40151,1.25725,37.2641,-0.608326,13.5446,-10.584,-0.992918,-1.05334,1.00485,-4.8009,0.979618,-8.01132,-8.27252,-7.43681,-10.3344,-0.270026,-3.29036,3.62746,-9.40151,-0.292029,37.2641,-0.608326,13.5446,-12.1332,-0.992918,-1.05334,1.00485,-6.65832,-0.8778,-9.86874,-10.1299,-7.43681,-12.1918,-2.12744,-3.29036,3.62746,-11.2589,-0.292029,37.2641,-0.608326,11.6872,-12.1332,-0.992918,-1.05334,1.00485,-1.66086,4.11966,-4.87128,-5.13248,-7.43681,-12.1918,2.87002,-3.29036,3.62746,-11.2589,4.70543,37.2641,-0.608326,11.6872,-12.1332,-0.992918,-1.05334,1.00485,-0.428496,4.11966,-4.87128,-5.13248,-7.43681,-12.1918,4.10238,-2.05799,4.85982,-11.2589,4.70543,38.4965,-0.608326,11.6872,-12.1332,0.239445,-1.05334,1.00485,-1.1636,3.38455,-5.60639,-5.86758,-7.43681,-12.9269,4.10238,-2.05799,4.85982,-11.994,3.97032,37.7614,-0.608326,10.9521,-12.8684,-0.495662,-1.05334,1.00485,10769.6
4,-1.75994,3.38455,-6.20272,-6.46392,-8.03314,-12.9269,3.50604,-2.05799,4.85982,-11.994,3.37399,37.165,-1.20466,10.9521,-13.4647,-1.092,-1.64968,1.00485,-3.36536,3.38455,-7.80815,-8.06934,-9.63857,-12.9269,1.90062,-3.66342,4.85982,-11.994,1.76857,37.165,-1.20466,10.9521,-15.0701,-1.092,-1.64968,1.00485,-5.14722,1.6027,-9.59,-9.8512,-9.63857,-14.7088,0.118764,-3.66342,4.85982,-13.7759,1.76857,37.165,-1.20466,9.17022,-15.0701,-1.092,-1.64968,1.00485,-0.641751,6.10816,-5.08454,-5.34573,-9.63857,-14.7088,4.62423,-3.66342,4.85982,-13.7759,6.27403,37.165,-1.20466,9.17022,-15.0701,-1.092,-1.64968,1.00485,0.399808,6.10816,-5.08454,-5.34573,-9.63857,-14.7088,5.66579,-2.62186,5.90138,-13.7759,6.27403,38.2066,-1.20466,9.17022,-15.0701,-0.0504371,-1.64968,1.00485,0.0596239,5.76798,-5.42472,-5.68591,-9.63857,-15.049,5.66579,-2.62186,5.90138,-14.1161,5.93385,37.8664,-1.20466,8.83004,-15.4103,-0.390621,-1.64968,1.00485,8932.15
5,-0.502666,5.76798,-5.98701,-6.24821,-10.2009,-15.049,5.1035,-2.62186,5.90138,-14.1161,5.37156,37.3041,-1.76695,8.83004,-15.9726,-0.952911,-2.21197,1.00485,-2.11055,5.76798,-7.59489,-7.85609,-11.8087,-15.049,3.49562,-4.22974,5.90138,-14.1161,3.76368,37.3041,-1.76695,8.83004,-17.5805,-0.952911,-2.21197,1.00485,-3.85316,4.02536,-9.33751,-9.5987,-11.8087,-16.7916,1.753,-4.22974,5.90138,-15.8587,3.76368,37.3041,-1.76695,7.08742,-17.5805,-0.952911,-2.21197,1.00485,0.216134,8.09466,-5.26821,-5.5294,-11.8087,-16.7916,5.8223,-4.22974,5.90138,-15.8587,7.83297,37.3041,-1.76695,7.08742,-17.5805,-0.952911,-2.21197,1.00485,1.10162,8.09466,-5.26821,-5.5294,-11.8087,-16.7916,6.70778,-3.34426,6.78686,-15.8587,7.83297,38.1896,-1.76695,7.08742,-17.5805,-0.0674278,-2.21197,1.00485,1.03437,8.02741,-5.33546,-5.59665,-11.8087,-16.8589,6.70778,-3.34426,6.78686,-15.9259,7.76572,38.1224,-1.76695,7.02017,-17.6477,-0.134677,-2.21197,1.00485,7525.52
6,0.527253,8.02741,-5.84258,-6.10377,-12.3159,-16.8589,6.20067,-3.34426,6.78686,-15.9259,7.25861,37.6153,-2.27407,7.02017,-18.1548,-0.641792,-2.71908,1.00485,-1.04082,8.02741,-7.41064,-7.67184,-13.8839,-16.8589,4.6326,-4.91232,6.78686,-15.9259,5.69054,37.6153,-2.27407,7.02017,-19.7229,-0.641792,-2.71908,1.00485,-2.75038,6.31785,-9.12021,-9.3814,-13.8839,-18.5684,2.92304,-4.91232,6.78686,-17.6355,5.69054,37.6153,-2.27407,5.31061,-19.7229,-0.641792,-2.71908,1.00485,0.934099,10.0023,-5.43573,-5.69692,-13.8839,-18.5684,6.60751,-4.91232,6.78686,-17.6355,9.37501,37.6153,-2.27407,5.31061,-19.7229,-0.641792,-2.71908,1.00485,1.69023,10.0023,-5.43573,-5.69692,-13.8839,-18.5684,7.36365,-4.15619,7.543,-17.6355,9.37501,38.3714,-2.27407,5.31061,-19.7229,0.11434,-2.71908,1.00485,1.81221,10.1243,-5.31375,-5.57495,-13.8839,-18.4464,7.36365,-4.15619,7.543,-17.5135,9.49699,38.4934,-2.27407,5.43259,-19.6009,0.236316,-2.71908,1.00485,6396.64
7,1.36577,10.1243,-5.76019,-6.02138,-14.3304,-18.4464,6.91721,-4.15619,7.543,-17.5135,9.05055,38.0469,-2.7205,5.43259,-20.0474,-0.210118,-3.16552,1.00485,-0.13523,10.1243,-7.26119,-7.52239,-15.8314,-18.4464,5.41621,-5.6572,7.543,-17.5135,7.54955,38.0469,-2.7205,5.43259,-21.5484,-0.210118,-3.16552,1.00485,-1.80714,8.45239,-8.9331,-9.19429,-15.8314,-20.1183,3.7443,-5.6572,7.543,-19.1854,7.54955,38.0469,-2.7205,3.76068,-21.5484,-0.210118,-3.16552,1.00485,1.53666,11.7962,-5.58931,-5.8505,-15.8314,-20.1183,7.0881,-5.6572,7.543,-19.1854,10.8933,38.0469,-2.7205,3.76068,-21.5484,-0.210118,-3.16552,1.00485,2.18402,11.7962,-5.58931,-5.8505,-15.8314,-20.1183,7.73546,-5.00983,8.19036,-19.1854,10.8933,38.6943,-2.7205,3.76068,-21.5484,0.437251,-3.16552,1.00485,2.43548,12.0476,-5.33785,-5.59905,-15.8314,-19.8669,7.73546,-5.00983,8.19036,-18.934,11.1448,38.9457,-2.7205,4.01213,-21.2969,0.688704,-3.16552,1.00485,5463.53
8,2.04664,12.0476,-5.72669,-5.98788,-16.2202,-19.8669,7.34663,-5.00983,8.19036,-18.934,10.756,38.5569,-3.10933,4.01213,-21.6857,0.29987,-3.55435,1.00485,0.628927,12.0476,-7.1444,-7.4056,-17.6379,-19.8669,5.92891,-6.42754,8.19036,-18.934,9.33825,38.5569,-3.10933,4.01213,-23.1035,0.29987,-3.55435,1.00485,-0.997003,10.4217,-8.77033,-9.03153,-17.6379,-21.4928,4.30298,-6.42754,8.19036,-20.5599,9.33825,38.5569,-3.10933,2.3862,-23.1035,0.29987,-3.55435,1.00485,2.04388,13.4626,-5.72945,-5.99064,-17.6379,-21.4928,7.34387,-6.42754,8.19036,-20.5599,12.3791,38.5569,-3.10933,2.3862,-23.1035,0.29987,-3.55435,1.00485,2.59903,13.4626,-5.72945,-5.99064,-17.6379,-21.4928,7.89901,-5.8724,8.74551,-20.5599,12.3791,39.1121,-3.10933,2.3862,-23.1035,0.855017,-3.55435,1.00485,2.93693,13.8005,-5.39155,-5.65274,-17.6379,-21.1549,7.89901,-5.8724,8.74551,-20.222,12.717,39.45,-3.10933,2.72411,-22.7656,1.19292,-3.55435,1.00485,4677.65
9,2.59891,13.8005,-5.72957,-5.99076,-17.9759,-21.1549,7.56099,-5.8724,8.74551,-20.222,12.379,39.1119,-3.44736,2.72411,-23.1036,0.854896,-3.89237,1.00485,1.27298,13.8005,-7.0555,-7.31669,-19.3019,-21.1549,6.23507,-7.19832,8.74551,-20.222,11.0531,39.1119,-3.44736,2.72411,-24.4295,0.854896,-3.89237,1.00485,-0.298326,12.2292,-8.6268,-8.888,-19.3019,-22.7262,4.66376,-7.19832,8.74551,-21.7933,11.0531,39.1119,-3.44736,1.1528,-24.4295,0.854896,-3.89237,1.00485,2.47207,14.9996,-5.85641,-6.1176,-19.3019,-22.7262,7.43415,-7.19832,8.74551,-21.7933,13.8235,39.1119,-3.44736,1.1528,-24.4295,0.854896,-3.89237,1.00485,2.94872,14.9996,-5.85641,-6.1176,-19.3019,-22.7262,7.9108,-6.72167,9.22216,-21.7933,13.8235,39.5886,-3.44736,1.1528,-24.4295,1.33155,-3.89237,1.00485,3.34196,15.3928,-5.46317,-5.72436,-19.3019,-22.333,7.9108,-6.72167,9.22216,-21.4001,14.2167,39.9818,-3.44736,1.54604,-24.0363,1.72479,-3.89237,1.00485,4008.22
10,3.04692,15.3928,-5.75821,-6.0194,-19.5969,-22.333,7.61576,-6.72167,9.22216,-21.4001,13.9217,39.6868,-3.7424,1.54604,-24.3313,1.42975,-4.18742,1.00485,1.81598,15.3928,-6.98915,-7.25034,-20.8278,-22.333,6.38483,-7.95261,9.22216,-21.4001,12.6907,39.6868,-3.7424,1.54604,-25.5622,1.42975,-4.18742,1.00485,0.306699,13.8835,-8.49843,-8.75962,-20.8278,-23.8423,4.87554,-7.95261,9.22216,-22.9094,12.6907,39.6868,-3.7424,0.036754,-25.5622,1.42975,-4.18742,1.00485,2.83456,16.4114,-5.97057,-6.23176,-20.8278,-23.8423,7.4034,-7.95261,9.22216,-22.9094,15.2186,39.6868,-3.7424,0.036754,-25.5622,1.42975,-4.18742,1.00485,3.24434,16.4114,-5.97057,-6.23176,-20.8278,-23.8423,7.81318,-7.54283,9.63194,-22.9094,15.2186,40.0966,-3.7424,0.036754,-25.5622,1.83952,-4.18742,1.00485,3.67039,16.8375,-5.54451,-5.80571,-20.8278,-23.4162,7.81318,-7.54283,9.63194,-22.4833,15.6447,40.5226,-3.7424,0.46281,-25.1362,2.26558,-4.18742,1.00485,3434.42
11,3.41082,16.8375,-5.80409,-6.06528,-21.0874,-23.4162,7.5536,-7.54283,9.63194,-22.4833,15.3851,40.263,-4.00197,0.46281,-25.3958,2.006,-4.44699,1.00485,2.27448,16.8375,-6.94043,-7.20162,-22.2238,-23.4162,6.41726,-8.67917,9.63194,-22.4833,14.2487,40.263,-4.00197,0.46281,-26.5321,2.006,-4.44699,1.00485,0.832785,15.3958,-8.38212,-8.64331,-22.2238,-24.8579,4.97557,-8.67917,9.63194,-23.925,14.2487,40.263,-4.00197,-0.978881,-26.5321,2.006,-4.44699,1.00485,3.14237,17.7054,-6.07253,-6.33373,-22.2238,-24.8579,7.28516,-8.67917,9.63194,-23.925,16.5583,40.263,-4.00197,-0.978881,-26.5321,2.006,-4.44699,1.00485,3.49519,17.7054,-6.07253,-6.33373,-22.2238,-24.8579,7.63797,-8.32636,9.98475,-23.925,16.5583,40.6159,-4.00197,-0.978881,-26.5321,2.35882,-4.44699,1.00485,3.93777,18.1479,-5.62994,-5.89114,-22.2238,-24.4153,7.63797,-8.32636,9.98475,-23.4824,17.0009,41.0585,-4.00197,-0.536292,-26.0895,2.80141,-4.44699,1.00485,2941.12
12,3.70704,18.1479,-5.86068,-6.12187,-22.4545,-24.4153,7.40724,-8.32636,9.98475,-23.4824,16.7702,40.8277,-4.23271,-0.536292,-26.3203,2.57067,-4.67773,1.00485,2.66255,18.1479,-6.90517,-7.16636,-23.499,-24.4153,6.36275,-9.37085,9.98475,-23.4824,15.7257,40.8277,-4.23271,-0.536292,-27.3647,2.57067,-4.67773,1.00485,1.29212,16.7775,-8.2756,-8.53679,-23.499,-25.7857,4.99232,-9.37085,9.98475,-24.8528,15.7257,40.8277,-4.23271,-1.90672,-27.3647,2.57067,-4.67773,1.00485,3.40461,18.89,-6.16311,-6.4243,-23.499,-25.7857,7.10481,-9.37085,9.98475,-24.8528,17.8382,40.8277,-4.23271,-1.90672,-27.3647,2.57067,-4.67773,1.00485,3.70896,18.89,-6.16311,-6.4243,-23.499,-25.7857,7.40916,-9.0665,10.2891,-24.8528,17.8382,41.1321,-4.23271,-1.90672,-27.3647,2.87502,-4.67773,1.00485,4.15636,19.3374,-5.71571,-5.9769,-23.499,-25.3383,7.40916,-9.0665,10.2891,-24.4054,18.2856,41.5795,-4.23271,-1.45932,-26.9173,3.32242,-4.67773,1.00485,2516.65
13,3.94893,19.3374,-5.92313,-6.18433,-23.7064,-25.3383,7.20173,-9.0665,10.2891,-24.4054,18.0782,41.372,-4.44013,-1.45932,-27.1248,3.115,-4.88515,1.00485,2.99206,19.3374,-6.88001,-7.1412,-24.6633,-25.3383,6.24486,-10.0234,10.2891,-24.4054,17.1213,41.372,-4.44013,-1.45932,-28.0816,3.115,-4.88515,1.00485,1.69484,18.0402,-8.17723,-8.43842,-24.6633,-26.6356,4.94764,-10.0234,10.2891,-25.7027,17.1213,41.372,-4.44013,-2.75654,-28.0816,3.115,-4.88515,1.00485,3.62882,19.9742,-6.24325,-6.50444,-24.6633,-26.6356,6.88162,-10.0234,10.2891,-25.7027,19.0553,41.372,-4.44013,-2.75654,-28.0816,3.115,-4.88515,1.00485,3.89198,19.9742,-6.24325,-6.50444,-24.6633,-26.6356,7.14477,-9.76022,10.5523,-25.7027,19.0553,41.6352,-4.44013,-2.75654,-28.0816,3.37815,-4.88515,1.00485,4.33583,20.418,-5.79939,-6.06059,-24.6633,-26.1917,7.14477,-9.76022,10.5523,-25.2588,19.4991,42.0791,-4.44013,-2.31269,-27.6378,3.82201,-4.88515,1.00485,2151.52
14,4.14725,20.418,-5.98798,-6.24917,-24.8519,-26.1917,6.95619,-9.76022,10.5523,-25.2588,19.3105,41.8905,-4.62871,-2.31269,-27.8264,3.63342,-5.07373,1.00485,3.27289,20.418,-6.86233,-7.12352,-25.7262,-26.1917,6.08184,-10.6346,10.5523,-25.2588,18.4362,41.8905,-4.62871,-2.31269,-28.7007,3.63342,-5.07373,1.00485,2.04935,19.1945,-8.08587,-8.34706,-25.7262,-27.4153,4.8583,-10.6346,10.5523,-26.4823,18.4362,41.8905,-4.62871,-3.53623,-28.7007,3.63342,-5.07373,1.00485,3.82128,20.9664,-6.31395,-6.57514,-25.7262,-27.4153,6.63022,-10.6346,10.5523,-26.4823,20.2081,41.8905,-4.62871,-3.53623,-28.7007,3.63342,-5.07373,1.00485,4.04944,20.9664,-6.31395,-6.57514,-25.7262,-27.4153,6.85839,-10.4064,10.7804,-26.4823,20.2081,42.1186,-4.62871,-3.53623,-28.7007,3.86159,-5.07373,1.00485,4.48385,21.4008,-5.87953,-6.14072,-25.7262,-26.9808,6.85839,-10.4064,10.7804,-26.0479,20.6425,42.553,-4.62871,-3.10181,-28.2663,4.296,-5.07373,1.00485,1837.74
15,4.3106,21.4008,-6.05279,-6.31398,-25.8995,-26.9808,6.68513,-10.4064,10.7804,-26.0479,20.4693,42.3798,-4.80197,-3.10181,-28.4396,4.12275,-5.24699,1.00485,3.51322,21.4008,-6.85016,-7.11136,-26.6968,-26.9808,5.88775,-11.2038,10.7804,-26.0479,19.6719,42.3798,-4.80197,-3.10181,-29.2369,4.12275,-5.24699,1.00485,2.36268,20.2503,-8.0007,-8.26189,-26.6968,-28.1314,4.73721,-11.2038,10.7804,-27.1985,19.6719,42.3798,-4.80197,-4.25235,-29.2369,4.12275,-5.24699,1.00485,3.98716,21.8747,-6.37623,-6.63742,-26.6968,-28.1314,6.36169,-11.2038,10.7804,-27.1985,21.2964,42.3798,-4.80197,-4.25235,-29.2369,4.12275,-5.24699,1.00485,4.1856,21.8747,-6.37623,-6.63742,-26.6968,-28.1314,6.56013,-11.0053,10.9789,-27.1985,21.2964,42.5782,-4.80197,-4.25235,-29.2369,4.32119,-5.24699,1.00485,4.60653,22.2957,-5.9553,-6.2165,-26.6968,-27.7105,6.56013,-11.0053,10.9789,-26.7775,21.7173,42.9992,-4.80197,-3.83143,-28.816,4.74211,-5.24699,1.00485,1568.43
16,4.44588,22.2957,-6.11595,-6.37714,-26.8575,-27.7105,6.39949,-11.0053,10.9789,-26.7775,21.5566,42.8385,-4.96261,-3.83143,-28.9767,4.58147,-5.40763,1.00485,3.7198,22.2957,-6.84203,-7.10322,-27.5836,-27.7105,5.67341,-11.7314,10.9789,-26.7775,20.8306,42.8385,-4.96261,-3.83143,-29.7027,4.58147,-5.40763,1.00485,2.64068,21.2166,-7.92115,-8.18234,-27.5836,-28.7896,4.59428,-11.7314,10.9789,-27.8567,20.8306,42.8385,-4.96261,-4.91055,-29.7027,4.58147,-5.40763,1.00485,4.13076,22.7066,-6.43107,-6.69226,-27.5836,-28.7896,6.08436,-11.7314,10.9789,-27.8567,22.3206,42.8385,-4.96261,-4.91055,-29.7027,4.58147,-5.40763,1.00485,4.30395,22.7066,-6.43107,-6.69226,-27.5836,-28.7896,6.25756,-11.5582,11.1521,-27.8567,22.3206,43.0117,-4.96261,-4.91055,-29.7027,4.75466,-5.40763,1.00485,4.70869,23.1114,-6.02633,-6.28753,-27.5836,-28.3848,6.25756,-11.5582,11.1521,-27.4519,22.7254,43.4164,-4.96261,-4.50581,-29.298,5.1594,-5.40763,1.00485,1337.59
17,4.55859,23.1114,-6.17643,-6.43763,-27.7337,-28.3848,6.10746,-11.5582,11.1521,-27.4519,22.5753,43.2663,-5.11271,-4.50581,-29.4481,5.0093,-5.55773,1.00485,3.89818,23.1114,-6.83684,-7.09803,-28.3941,-28.3848,5.44705,-12.2186,11.1521,-27.4519,21.9149,43.2663,-5.11271,-4.50581,-30.1085,5.0093,-5.55773,1.00485,2.88823,22.1014,-7.84679,-8.10798,-28.3941,-29.3948,4.4371,-12.2186,11.1521,-28.4619,21.9149,43.2663,-5.11271,-5.51577,-30.1085,5.0093,-5.55773,1.00485,4.25563,23.4688,-6.47939,-6.74059,-28.3941,-29.3948,5.8045,-12.2186,11.1521,-28.4619,23.2823,43.2663,-5.11271,-5.51577,-30.1085,5.0093,-5.55773,1.00485,4.40734,23.4688,-6.47939,-6.74059,-28.3941,-29.3948,5.95621,-12.0669,11.3038,-28.4619,23.2823,43.4181,-5.11271,-5.51577,-30.1085,5.16101,-5.55773,1.00485,4.7942,23.8557,-6.09254,-6.35373,-28.3941,-29.0079,5.95621,-12.0669,11.3038,-28.075,23.6691,43.8049,-5.11271,-5.12891,-29.7216,5.54787,-5.55773,1.00485,1139.99
18,4.65309,23.8557,-6.23364,-6.49483,-28.5352,-29.0079,5.8151,-12.0669,11.3038,-28.075,23.528,43.6638,-5.25382,-5.12891,-29.8628,5.40676,-5.69884,1.00485,4.05293,23.8557,-6.8338,-7.095,-29.1353,-29.0079,5.21494,-12.6671,11.3038,-28.075,22.9279,43.6638,-5.25382,-5.12891,-30.4629,5.40676,-5.69884,1.00485,3.10944,22.9122,-7.7773,-8.03849,-29.1353,-29.9514,4.27145,-12.6671,11.3038,-29.0185,22.9279,43.6638,-5.25382,-6.0724,-30.4629,5.40676,-5.69884,1.00485,4.36471,24.1674,-6.52203,-6.78322,-29.1353,-29.9514,5.52672,-12.6671,11.3038,-29.0185,24.1831,43.6638,-5.25382,-6.0724,-30.4629,5.40676,-5.69884,1.00485,4.49811,24.1674,-6.52203,-6.78322,-29.1353,-29.9514,5.66013,-12.5337,11.4372,-29.0185,24.1831,43.7972,-5.25382,-6.0724,-30.4629,5.54017,-5.69884,1.00485,4.86614,24.5355,-6.154,-6.4152,-29.1353,-29.5834,5.66013,-12.5337,11.4372,-28.6505,24.5512,44.1652,-5.25382,-5.70438,-30.0949,5.90819,-5.69884,1.00485,971.052
19,4.73287,24.5355,-6.28727,-6.54846,-29.2686,-29.5834,5.52686,-12.5337,11.4372,-28.6505,24.4179,44.032,-5.38708,-5.70438,-30.2282,5.77493,-5.8321,1.00485,4.18779,24.5355,-6.83235,-7.09354,-29.8137,-29.5834,4.98178,-13.0788,11.4372,-28.6505,23.8728,44.032,-5.38708,-5.70438,-30.7732,5.77493,-5.8321,1.00485,3.30774,23.6554,-7.7124,-7.97359,-29.8137,-30.4635,4.10173,-13.0788,11.4372,-29.5305,23.8728,44.032,-5.38708,-6.58443,-30.7732,5.77493,-5.8321,1.00485,4.46042,24.8081,-6.55971,-6.82091,-29.8137,-30.4635,5.25441,-13.0788,11.4372,-29.5305,25.0255,44.032,-5.38708,-6.58443,-30.7732,5.77493,-5.8321,1.00485,4.57819,24.8081,-6.55971,-6.82091,-29.8137,-30.4635,5.37218,-12.961,11.5549,-29.5305,25.0255,44.1497,-5.38708,-6.58443,-30.7732,5.8927,-5.8321,1.00485,4.92697,25.1569,-6.21093,-6.47213,-29.8137,-30.1147,5.37218,-12.961,11.5549,-29.1818,25.3743,44.4985,-5.38708,-6.23565,-30.4245,6.24148,-5.8321,1.00485,826.764
20,4.80069,25.1569,-6.33721,-6.59841,-29.94,-30.1147,5.2459,-12.961,11.5549,-29.1818,25.248,44.3722,-5.51336,-6.23565,-30.5507,6.1152,-5.95838,1.00485,4.30585,25.1569,-6.83206,-7.09326,-30.4348,-30.1147,4.75105,-13.4558,11.5549,-29.1818,24.7531,44.3722,-5.51336,-6.23565,-31.0456,6.1152,-5.95838,1.00485,3.48605,24.3371,-7.65186,-7.91306,-30.4348,-30.9345,3.93125,-13.4558,11.5549,-30.0016,24.7531,44.3722,-5.51336,-7.05545,-31.0456,6.1152,-5.95838,1.00485,4.54479,25.3958,-6.59312,-6.85431,-30.4348,-30.9345,4.99,-13.4558,11.5549,-30.0016,25.8119,44.3722,-5.51336,-7.05545,-31.0456,6.1152,-5.95838,1.00485,4.64916,25.3958,-6.59312,-6.85431,-30.4348,-30.9345,5.09437,-13.3515,11.6593,-30.0016,25.8119,44.4766,-5.51336,-7.05545,-31.0456,6.21957,-5.95838,1.00485,4.97868,25.7254,-6.26359,-6.52479,-30.4348,-30.6049,5.09437,-13.3515,11.6593,-29.672,26.1414,44.8061,-5.51336,-6.72592,-30.7161,6.54909,-5.95838,1.00485,703.646
21,4.85876,25.7254,-6.38352,-6.64472,-30.5547,-30.6049,4.97444,-13.3515,11.6593,-29.672,26.0215,44.6862,-5.63329,-6.72592,-30.836,6.42916,-6.07831,1.00485,4.40963,25.7254,-6.83265,-7.09384,-31.0039,-30.6049,4.52532,-13.8006,11.6593,-29.672,25.5724,44.6862,-5.63329,-6.72592,-31.2851,6.42916,-6.07831,1.00485,3.6468,24.9625,-7.59548,-7.85667,-31.0039,-31.3678,3.76249,-13.8006,11.6593,-30.4349,25.5724,44.6862,-5.63329,-7.48875,-31.2851,6.42916,-6.07831,1.00485,4.61947,25.9352,-6.62281,-6.884,-31.0039,-31.3678,4.73515,-13.8006,11.6593,-30.4349,26.545,44.6862,-5.63329,-7.48875,-31.2851,6.42916,-6.07831,1.00485,4.71232,25.9352,-6.62281,-6.884,-31.0039,-31.3678,4.828,-13.7077,11.7522,-30.4349,26.545,44.7791,-5.63329,-7.48875,-31.2851,6.52201,-6.07831,1.00485,5.02286,26.2457,-6.31227,-6.57346,-31.0039,-31.0572,4.828,-13.7077,11.7522,-30.1243,26.8556,45.0896,-5.63329,-7.17821,-30.9746,6.83255,-6.07831,1.00485,598.674
22,4.90881,26.2457,-6.42632,-6.68751,-31.1179,-31.0572,4.71396,-13.7077,11.7522,-30.1243,26.7415,44.9756,-5.74733,-7.17821,-31.0886,6.71851,-6.19235,1.00485,4.50125,26.2457,-6.83388,-7.09508,-31.5255,-31.0572,4.30639,-14.1153,11.7522,-30.1243,26.334,44.9756,-5.74733,-7.17821,-31.4962,6.71851,-6.19235,1.00485,3.7921,25.5366,-7.54303,-7.80422,-31.5255,-31.7664,3.59724,-14.1153,11.7522,-30.8335,26.334,44.9756,-5.74733,-7.88736,-31.4962,6.71851,-6.19235,1.00485,4.68584,26.4303,-6.64929,-6.91048,-31.5255,-31.7664,4.49099,-14.1153,11.7522,-30.8335,27.2277,44.9756,-5.74733,-7.88736,-31.4962,6.71851,-6.19235,1.00485,4.76875,26.4303,-6.64929,-6.91048,-31.5255,-31.7664,4.57389,-14.0324,11.8351,-30.8335,27.2277,45.0585,-5.74733,-7.88736,-31.4962,6.80141,-6.19235,1.00485,5.06077,26.7224,-6.35726,-6.61845,-31.5255,-31.4744,4.57389,-14.0324,11.8351,-30.5414,27.5197,45.3505,-5.74733,-7.59533,-31.2042,7.09344,-6.19235,1.00485,509.232
23,4.95226,26.7224,-6.46577,-6.72697,-31.634,-31.4744,4.46537,-14.0324,11.8351,-30.5414,27.4112,45.242,-5.85585,-7.59533,-31.3127,6.98492,-6.30087,1.00485,4.58242,26.7224,-6.83561,-7.0968,-32.0038,-31.4744,4.09554,-14.4022,11.8351,-30.5414,27.0414,45.242,-5.85585,-7.59533,-31.6825,6.98492,-6.30087,1.00485,3.92371,26.0636,-7.49432,-7.75551,-32.0038,-32.1331,3.43683,-14.4022,11.8351,-31.2001,27.0414,45.242,-5.85585,-8.25404,-31.6825,6.98492,-6.30087,1.00485,4.74506,26.885,-6.67297,-6.93416,-32.0038,-32.1331,4.25818,-14.4022,11.8351,-31.2001,27.8627,45.242,-5.85585,-8.25404,-31.6825,6.98492,-6.30087,1.00485,4.81934,26.885,-6.67297,-6.93416,-32.0038,-32.1331,4.33246,-14.328,11.9093,-31.2001,27.8627,45.3162,-5.85585,-8.25404,-31.6825,7.0592,-6.30087,1.00485,5.09347,27.1591,-6.39884,-6.66003,-32.0038,-31.8589,4.33246,-14.328,11.9093,-30.926,28.1369,45.5904,-5.85585,-7.97991,-31.4084,7.33334,-6.30087,1.00485,433.065
24,4.99021,27.1591,-6.5021,-6.76329,-32.1071,-31.8589,4.22919,-14.328,11.9093,-30.926,28.0336,45.4871,-5.95911,-7.97991,-31.5116,7.23008,-6.40413,1.00485,4.65461,27.1591,-6.83771,-7.0989,-32.4427,-31.8589,3.89359,-14.6636,11.9093,-30.926,27.698,45.4871,-5.95911,-7.97991,-31.8472,7.23008,-6.40413,1.00485,4.04317,26.5477,-7.44914,-7.71034,-32.4427,-32.4704,3.28215,-14.6636,11.9093,-31.5375,27.698,45.4871,-5.95911,-8.59134,-31.8472,7.23008,-6.40413,1.00485,4.79808,27.3026,-6.69423,-6.95542,-32.4427,-32.4704,4.03707,-14.6636,11.9093,-31.5375,28.4529,45.4871,-5.95911,-8.59134,-31.8472,7.23008,-6.40413,1.00485,4.86486,27.3026,-6.69423,-6.95542,-32.4427,-32.4704,4.10384,-14.5968,11.9761,-31.5375,28.4529,45.5539,-5.95911,-8.59134,-31.8472,7.29685,-6.40413,1.00485,5.1218,27.5595,-6.43728,-6.69848,-32.4427,-32.2134,4.10384,-14.5968,11.9761,-31.2805,28.7098,45.8108,-5.95911,-8.3344,-31.5903,7.55379,-6.40413,1.00485,368.229
25,5.02357,27.5595,-6.53551,-6.79671,-32.5409,-32.2134,4.00561,-14.5968,11.9761,-31.2805,28.6116,45.7126,-6.05734,-8.3344,-31.6885,7.45556,-6.50236,1.00485,4.719,27.5595,-6.84009,-7.10128,-32.8455,-32.2134,3.70104,-14.9014,11.9761,-31.2805,28.307,45.7126,-6.05734,-8.3344,-31.9931,7.45556,-6.50236,1.00485,4.15178,26.9923,-7.4073,-7.66849,-32.8455,-32.7806,3.13382,-14.9014,11.9761,-31.8477,28.307,45.7126,-6.05734,-8.90162,-31.9931,7.45556,-6.50236,1.00485,4.84572,27.6863,-6.71337,-6.97456,-32.8455,-32.7806,3.82776,-14.9014,11.9761,-31.8477,29.001,45.7126,-6.05734,-8.90162,-31.9931,7.45556,-6.50236,1.00485,4.90592,27.6863,-6.71337,-6.97456,-32.8455,-32.7806,3.88796,-14.8412,12.0363,-31.8477,29.001,45.7728,-6.05734,-8.90162,-31.9931,7.51576,-6.50236,1.00485,5.14643,27.9268,-6.47285,-6.73404,-32.8455,-32.5401,3.88796,-14.8412,12.0363,-31.6072,29.2415,46.0133,-6.05734,-8.6611,-31.7526,7.75628,-6.50236,1.00485,313.06
26,5.05305,27.9268,-6.56623,-6.82742,-32.9389,-32.5401,3.79458,-14.8412,12.0363,-31.6072,29.1481,45.9199,-6.15072,-8.6611,-31.846,7.6629,-6.59574,1.00485,4.77661,27.9268,-6.84268,-7.10387,-33.2153,-32.5401,3.51813,-15.1176,12.0363,-31.6072,28.8717,45.9199,-6.15072,-8.6611,-32.1224,7.6629,-6.59574,1.00485,4.25069,27.4009,-7.3686,-7.62979,-33.2153,-33.066,2.99221,-15.1176,12.0363,-32.1331,28.8717,45.9199,-6.15072,-9.18702,-32.1224,7.6629,-6.59574,1.00485,4.88863,28.0388,-6.73065,-6.99185,-33.2153,-33.066,3.63015,-15.1176,12.0363,-32.1331,29.5096,45.9199,-6.15072,-9.18702,-32.1224,7.6629,-6.59574,1.00485,4.94306,28.0388,-6.73065,-6.99185,-33.2153,-33.066,3.68458,-15.0632,12.0907,-32.1331,29.5096,45.9744,-6.15072,-9.18702,-32.1224,7.71733,-6.59574,1.00485,5.16794,28.2637,-6.50577,-6.76696,-33.2153,-32.8412,3.68458,-15.0632,12.0907,-31.9082,29.7345,46.1993,-6.15072,-8.96213,-31.8975,7.94221,-6.59574,1.00485,266.129
27,5.07925,28.2637,-6.59446,-6.85565,-33.304,-32.8412,3.59589,-15.0632,12.0907,-31.9082,29.6458,46.1106,-6.23941,-8.96213,-31.9862,7.85352,-6.68443,1.00485,4.82828,28.2637,-6.84543,-7.10662,-33.555,-32.8412,3.34492,-15.3142,12.0907,-31.9082,29.3948,46.1106,-6.23941,-8.96213,-32.2372,7.85352,-6.68443,1.00485,4.34088,27.7763,-7.33283,-7.59403,-33.555,-33.3286,2.85752,-15.3142,12.0907,-32.3956,29.3948,46.1106,-6.23941,-9.44954,-32.2372,7.85352,-6.68443,1.00485,4.9274,28.3628,-6.74631,-7.00751,-33.555,-33.3286,3.44403,-15.3142,12.0907,-32.3956,29.9814,46.1106,-6.23941,-9.44954,-32.2372,7.85352,-6.68443,1.00485,4.97672,28.3628,-6.74631,-7.00751,-33.555,-33.3286,3.49336,-15.2648,12.1401,-32.3956,29.9814,46.1599,-6.23941,-9.44954,-32.2372,7.90285,-6.68443,1.00485,5.18679,28.5729,-6.53625,-6.79744,-33.555,-33.1185,3.49336,-15.2648,12.1401,-32.1856,30.1914,46.37,-6.23941,-9.23948,-32.0271,8.11291,-6.68443,1.00485,226.215
28,5.10263,28.5729,-6.62041,-6.8816,-33.6391,-33.1185,3.40921,-15.2648,12.1401,-32.1856,30.1073,46.2858,-6.32357,-9.23948,-32.1113,8.02876,-6.76858,1.00485,4.87475,28.5729,-6.84829,-7.10948,-33.867,-33.1185,3.18133,-15.4927,12.1401,-32.1856,29.8794,46.2858,-6.32357,-9.23948,-32.3392,8.02876,-6.76858,1.00485,4.42322,28.1213,-7.29982,-7.56101,-33.867,-33.57,2.72979,-15.4927,12.1401,-32.6371,29.8794,46.2858,-6.32357,-9.69101,-32.3392,8.02876,-6.76858,1.00485,4.9625,28.6606,-6.76054,-7.02173,-33.867,-33.57,3.26908,-15.4927,12.1401,-32.6371,30.4187,46.2858,-6.32357,-9.69101,-32.3392,8.02876,-6.76858,1.00485,5.00731,28.6606,-6.76054,-7.02173,-33.867,-33.57,3.31388,-15.4479,12.1849,-32.6371,30.4187,46.3306,-6.32357,-9.69101,-32.3392,8.07356,-6.76858,1.00485,5.20335,28.8567,-6.56449,-6.82568,-33.867,-33.374,3.31388,-15.4479,12.1849,-32.4411,30.6147,46.5267,-6.32357,-9.49496,-32.1431,8.26961,-6.76858,1.00485,192.276
29,5.12359,28.8567,-6.64425,-6.90545,-33.9468,-33.374,3.23412,-15.4479,12.1849,-32.4411,30.535,46.4469,-6.40333,-9.49496,-32.2229,8.18984,-6.84835,1.00485,4.91662,28.8567,-6.85122,-7.11241,-34.1537,-33.374,3.02715,-15.6549,12.1849,-32.4411,30.328,46.4469,-6.40333,-9.49496,-32.4298,8.18984,-6.84835,1.00485,4.49847,28.4385,-7.26937,-7.53057,-34.1537,-33.7921,2.609,-15.6549,12.1849,-32.8592,30.328,46.4469,-6.40333,-9.91312,-32.4298,8.18984,-6.84835,1.00485,4.99436,28.9344,-6.77349,-7.03468,-34.1537,-33.7921,3.10489,-15.6549,12.1849,-32.8592,30.8239,46.4469,-6.40333,-9.91312,-32.4298,8.18984,-6.84835,1.00485,5.03514,28.9344,-6.77349,-7.03468,-34.1537,-33.7921,3.14566,-15.6141,12.2257,-32.8592,30.8239,46.4877,-6.40333,-9.91312,-32.4298,8.23062,-6.84835,1.00485,5.21796,29.1172,-6.59066,-6.85186,-34.1537,-33.6093,3.14566,-15.6141,12.2257,-32.6764,31.0067,46.6705,-6.40333,-9.7303,-32.247,8.41345,-6.84835,1.00485,163.42
30,5.14244,29.1172,-6.66618,-6.92737,-34.2293,-33.6093,3.07015,-15.6141,12.2257,-32.6764,30.9312,46.595,-6.47885,-9.7303,-32.3225,8.33793,-6.92386,1.00485,4.95442,29.1172,-6.8542,-7.11539,-34.4173,-33.6093,2.88213,-15.8021,12.2257,-32.6764,30.7432,46.595,-6.47885,-9.7303,-32.5106,8.33793,-6.92386,1.00485,4.5673,28.7301,-7.24132,-7.50251,-34.4173,-33.9964,2.49501,-15.8021,12.2257,-33.0635,30.7432,46.595,-6.47885,-10.1174,-32.5106,8.33793,-6.92386,1.00485,5.02332,29.1861,-6.7853,-7.0465,-34.4173,-33.9964,2.95103,-15.8021,12.2257,-33.0635,31.1992,46.595,-6.47885,-10.1174,-32.5106,8.33793,-6.92386,1.00485,5.0605,29.1861,-6.7853,-7.0465,-34.4173,-33.9964,2.9882,-15.7649,12.2628,-33.0635,31.1992,46.6322,-6.47885,-10.1174,-32.5106,8.37511,-6.92386,1.00485,5.23087,29.3565,-6.61493,-6.87613,-34.4173,-33.8261,2.9882,-15.7649,12.2628,-32.8932,31.3695,46.8025,-6.47885,-9.94704,-32.3402,8.54548,-6.92386,1.00485,138.889
31,5.15946,29.3565,-6.68634,-6.94754,-34.4887,-33.8261,2.91679,-15.7649,12.2628,-32.8932,31.2981,46.7311,-6.55026,-9.94704,-32.4116,8.47407,-6.99527,1.00485,4.98861,29.3565,-6.85719,-7.11839,-34.6595,-33.8261,2.74594,-15.9358,12.2628,-32.8932,31.1273,46.7311,-6.55026,-9.94704,-32.5824,8.47407,-6.99527,1.00485,4.63032,28.9982,-7.21548,-7.47667,-34.6595,-34.1844,2.38765,-15.9358,12.2628,-33.2514,31.1273,46.7311,-6.55026,-10.3053,-32.5824,8.47407,-6.99527,1.00485,5.04969,29.4176,-6.79611,-7.0573,-34.6595,-34.1844,2.80703,-15.9358,12.2628,-33.2514,31.5467,46.7311,-6.55026,-10.3053,-32.5824,8.47407,-6.99527,1.00485,5.08364,29.4176,-6.79611,-7.0573,-34.6595,-34.1844,2.84097,-15.9018,12.2968,-33.2514,31.5467,46.7651,-6.55026,-10.3053,-32.5824,8.50802,-6.99527,1.00485,5.24231,29.5762,-6.63744,-6.89863,-34.6595,-34.0257,2.84097,-15.9018,12.2968,-33.0928,31.7053,46.9237,-6.55026,-10.1467,-32.4238,8.66668,-6.99527,1.00485,118.037
32,5.17486,29.5762,-6.70489,-6.96608,-34.727,-34.0257,2.77352,-15.9018,12.2968,-33.0928,31.6379,46.8563,-6.61771,-10.1467,-32.4912,8.59923,-7.06272,1.00485,5.01957,29.5762,-6.86018,-7.12137,-34.8823,-34.0257,2.61823,-16.0571,12.2968,-33.0928,31.4826,46.8563,-6.61771,-10.1467,-32.6465,8.59923,-7.06272,1.00485,4.68805,29.2447,-7.1917,-7.45289,-34.8823,-34.3572,2.28671,-16.0571,12.2968,-33.4243,31.4826,46.8563,-6.61771,-10.4782,-32.6465,8.59923,-7.06272,1.00485,5.07374,29.6304,-6.806,-7.0672,-34.8823,-34.3572,2.67241,-16.0571,12.2968,-33.4243,31.8683,46.8563,-6.61771,-10.4782,-32.6465,8.59923,-7.06272,1.00485,5.10478,29.6304,-6.806,-7.0672,-34.8823,-34.3572,2.70345,-16.0261,12.3278,-33.4243,31.8683,46.8873,-6.61771,-10.4782,-32.6465,8.63027,-7.06272,1.00485,5.25247,29.7781,-6.65832,-6.91951,-34.8823,-34.2095,2.70345,-16.0261,12.3278,-33.2766,32.016,47.035,-6.61771,-10.3305,-32.4988,8.77796,-7.06272,1.00485,100.312
33,5.18883,29.7781,-6.72196,-6.98315,-34.9459,-34.2095,2.63981,-16.0261,12.3278,-33.2766,31.9523,46.9714,-6.68134,-10.3305,-32.5625,8.71432,-7.12636,1.00485,5.04764,29.7781,-6.86314,-7.12434,-35.0871,-34.2095,2.49862,-16.1673,12.3278,-33.2766,31.8111,46.9714,-6.68134,-10.3305,-32.7037,8.71432,-7.12636,1.00485,4.74096,29.4714,-7.16982,-7.43102,-35.0871,-34.5162,2.19194,-16.1673,12.3278,-33.5833,31.8111,46.9714,-6.68134,-10.6372,-32.7037,8.71432,-7.12636,1.00485,5.0957,29.8262,-6.81508,-7.07627,-35.0871,-34.5162,2.54668,-16.1673,12.3278,-33.5833,32.1659,46.9714,-6.68134,-10.6372,-32.7037,8.71432,-7.12636,1.00485,5.12411,29.8262,-6.81508,-7.07627,-35.0871,-34.5162,2.57509,-16.1389,12.3562,-33.5833,32.1659,46.9998,-6.68134,-10.6372,-32.7037,8.74273,-7.12636,1.00485,5.2615,29.9636,-6.67769,-6.93888,-35.0871,-34.3788,2.57509,-16.1389,12.3562,-33.4459,32.3033,47.1372,-6.68134,-10.4998,-32.5663,8.88012,-7.12636,1.00485,85.2476
34,5.20153,29.9636,-6.73766,-6.99886,-35.1471,-34.3788,2.51512,-16.1389,12.3562,-33.4459,32.2433,47.0772,-6.74132,-10.4998,-32.6262,8.82015,-7.18633,1.00485,5.07313,29.9636,-6.86607,-7.12726,-35.2755,-34.3788,2.38672,-16.2673,12.3562,-33.4459,32.1149,47.0772,-6.74132,-10.4998,-32.7546,8.82015,-7.18633,1.00485,4.78949,29.6799,-7.14971,-7.4109,-35.2755,-34.6625,2.10308,-16.2673,12.3562,-33.7295,32.1149,47.0772,-6.74132,-10.7834,-32.7546,8.82015,-7.18633,1.00485,5.11578,30.0062,-6.82342,-7.08461,-35.2755,-34.6625,2.42937,-16.2673,12.3562,-33.7295,32.4412,47.0772,-6.74132,-10.7834,-32.7546,8.82015,-7.18633,1.00485,5.14181,30.0062,-6.82342,-7.08461,-35.2755,-34.6625,2.4554,-16.2412,12.3823,-33.7295,32.4412,47.1032,-6.74132,-10.7834,-32.7546,8.84618,-7.18633,1.00485,5.26956,30.1339,-6.69567,-6.95686,-35.2755,-34.5347,2.4554,-16.2412,12.3823,-33.6018,32.5689,47.231,-6.74132,-10.6557,-32.6269,8.97393,-7.18633,1.00485,72.4437
35,5.2131,30.1339,-6.75213,-7.01332,-35.3319,-34.5347,2.39894,-16.2412,12.3823,-33.6018,32.5125,47.1745,-6.79777,-10.6557,-32.6833,8.91747,-7.24279,1.00485,5.09629,30.1339,-6.86893,-7.13013,-35.4488,-34.5347,2.28213,-16.358,12.3823,-33.6018,32.3957,47.1745,-6.79777,-10.6557,-32.8002,8.91747,-7.24279,1.00485,4.83401,29.8717,-7.13122,-7.39241,-35.4488,-34.797,2.01985,-16.358,12.3823,-33.8641,32.3957,47.1745,-6.79777,-10.918,-32.8002,8.91747,-7.24279,1.00485,5.13414,30.1718,-6.83108,-7.09228,-35.4488,-34.797,2.31998,-16.358,12.3823,-33.8641,32.6958,47.1745,-6.79777,-10.918,-32.8002,8.91747,-7.24279,1.00485,5.15801,30.1718,-6.83108,-7.09228,-35.4488,-34.797,2.34385,-16.3342,12.4061,-33.8641,32.6958,47.1984,-6.79777,-10.918,-32.8002,8.94134,-7.24279,1.00485,5.27675,30.2905,-6.71235,-6.97354,-35.4488,-34.6783,2.34385,-16.3342,12.4061,-33.7453,32.8145,47.3171,-6.79777,-10.7992,-32.6814,9.06007,-7.24279,1.00485,61.5618
36,5.22365,30.2905,-6.76545,-7.02664,-35.5018,-34.6783,2.29076,-16.3342,12.4061,-33.7453,32.7615,47.264,-6.85087,-10.7992,-32.7345,9.00698,-7.29589,1.00485,5.11736,30.2905,-6.87174,-7.13293,-35.6081,-34.6783,2.18447,-16.4405,12.4061,-33.7453,32.6552,47.264,-6.85087,-10.7992,-32.8408,9.00698,-7.29589,1.00485,4.87487,30.048,-7.11423,-7.37542,-35.6081,-34.9208,1.94198,-16.4405,12.4061,-33.9878,32.6552,47.264,-6.85087,-11.0417,-32.8408,9.00698,-7.29589,1.00485,5.15096,30.3241,-6.83814,-7.09933,-35.6081,-34.9208,2.21807,-16.4405,12.4061,-33.9878,32.9312,47.264,-6.85087,-11.0417,-32.8408,9.00698,-7.29589,1.00485,5.17286,30.3241,-6.83814,-7.09933,-35.6081,-34.9208,2.23997,-16.4186,12.428,-33.9878,32.9312,47.2859,-6.85087,-11.0417,-32.8408,9.02889,-7.29589,1.00485,5.28317,30.4344,-6.72783,-6.98903,-35.6081,-34.8104,2.23997,-16.4186,12.428,-33.8775,33.0416,47.3962,-6.85087,-10.9314,-32.7305,9.13919,-7.29589,1.00485,52.3135
37,5.23329,30.4344,-6.77771,-7.03891,-35.658,-34.8104,2.19009,-16.4186,12.428,-33.8775,32.9917,47.3464,-6.90075,-10.9314,-32.7804,9.08931,-7.34577,1.00485,5.13654,30.4344,-6.87446,-7.13566,-35.7548,-34.8104,2.09334,-16.5153,12.428,-33.8775,32.8949,47.3464,-6.90075,-10.9314,-32.8771,9.08931,-7.34577,1.00485,4.91238,30.2103,-7.09862,-7.35981,-35.7548,-35.0346,1.86918,-16.5153,12.428,-34.1017,32.8949,47.3464,-6.90075,-11.1556,-32.8771,9.08931,-7.34577,1.00485,5.16637,30.4643,-6.84464,-7.10583,-35.7548,-35.0346,2.12317,-16.5153,12.428,-34.1017,33.1489,47.3464,-6.90075,-11.1556,-32.8771,9.08931,-7.34577,1.00485,5.18648,30.4643,-6.84464,-7.10583,-35.7548,-35.0346,2.14328,-16.4952,12.4482,-34.1017,33.1489,47.3665,-6.90075,-11.1556,-32.8771,9.10943,-7.34577,1.00485,5.28892,30.5667,-6.7422,-7.00339,-35.7548,-34.9322,2.14328,-16.4952,12.4482,-33.9992,33.2513,47.4689,-6.90075,-11.0531,-32.7747,9.21187,-7.34577,1.00485,44.4538
38,5.2421,30.5667,-6.78902,-7.05021,-35.8016,-34.9322,2.09646,-16.4952,12.4482,-33.9992,33.2045,47.4221,-6.94757,-11.0531,-32.8215,9.16505,-7.39259,1.00485,5.15401,30.5667,-6.8771,-7.1383,-35.8897,-34.9322,2.00837,-16.5833,12.4482,-33.9992,33.1164,47.4221,-6.94757,-11.0531,-32.9096,9.16505,-7.39259,1.00485,4.94684,30.3595,-7.08428,-7.34547,-35.8897,-35.1393,1.8012,-16.5833,12.4482,-34.2064,33.1164,47.4221,-6.94757,-11.2603,-32.9096,9.16505,-7.39259,1.00485,5.18049,30.5932,-6.85063,-7.11182,-35.8897,-35.1393,2.03485,-16.5833,12.4482,-34.2064,33.3501,47.4221,-6.94757,-11.2603,-32.9096,9.16505,-7.39259,1.00485,5.19897,30.5932,-6.85063,-7.11182,-35.8897,-35.1393,2.05333,-16.5648,12.4666,-34.2064,33.3501,47.4406,-6.94757,-11.2603,-32.9096,9.18353,-7.39259,1.00485,5.29407,30.6883,-6.75553,-7.01672,-35.8897,-35.0442,2.05333,-16.5648,12.4666,-34.1113,33.4452,47.5357,-6.94757,-11.1652,-32.8145,9.27863,-7.39259,1.00485,37.7743
39,5.25016,30.6883,-6.79943,-7.06063,-35.9336,-35.0442,2.00943,-16.5648,12.4666,-34.1113,33.4013,47.4918,-6.99148,-11.1652,-32.8584,9.23472,-7.43649,1.00485,5.16994,30.6883,-6.87966,-7.14085,-36.0138,-35.0442,1.9292,-16.645,12.4666,-34.1113,33.3211,47.4918,-6.99148,-11.1652,-32.9386,9.23472,-7.43649,1.00485,4.97849,30.4968,-7.07111,-7.3323,-36.0138,-35.2357,1.73775,-16.645,12.4666,-34.3028,33.3211,47.4918,-6.99148,-11.3567,-32.9386,9.23472,-7.43649,1.00485,5.19345,30.7118,-6.85615,-7.11734,-36.0138,-35.2357,1.95271,-16.645,12.4666,-34.3028,33.536,47.4918,-6.99148,-11.3567,-32.9386,9.23472,-7.43649,1.00485,5.21043,30.7118,-6.85615,-7.11734,-36.0138,-35.2357,1.9697,-16.628,12.4836,-34.3028,33.536,47.5088,-6.99148,-11.3567,-32.9386,9.25171,-7.43649,1.00485,5.29869,30.8,-6.7679,-7.02909,-36.0138,-35.1474,1.9697,-16.628,12.4836,-34.2145,33.6243,47.597,-6.99148,-11.2684,-32.8504,9.33996,-7.43649,1.00485,32.0978
40,5.25755,30.8,-6.80904,-7.07023,-36.0549,-35.1474,1.92856,-16.628,12.4836,-34.2145,33.5831,47.5559,-7.03261,-11.2684,-32.8915,9.29882,-7.47763,1.00485,5.18447,30.8,-6.88212,-7.14331,-36.128,-35.1474,1.85548,-16.7011,12.4836,-34.2145,33.5101,47.5559,-7.03261,-11.2684,-32.9646,9.29882,-7.47763,1.00485,5.00757,30.6231,-7.05902,-7.32021,-36.128,-35.3243,1.67858,-16.7011,12.4836,-34.3914,33.5101,47.5559,-7.03261,-11.4453,-32.9646,9.29882,-7.47763,1.00485,5.20534,30.8209,-6.86125,-7.12244,-36.128,-35.3243,1.87635,-16.7011,12.4836,-34.3914,33.7078,47.5559,-7.03261,-11.4453,-32.9646,9.29882,-7.47763,1.00485,5.22096,30.8209,-6.86125,-7.12244,-36.128,-35.3243,1.89197,-16.6855,12.4992,-34.3914,33.7078,47.5715,-7.03261,-11.4453,-32.9646,9.31444,-7.47763,1.00485,5.30283,30.9028,-6.77937,-7.04056,-36.128,-35.2425,1.89197,-16.6855,12.4992,-34.3095,33.7897,47.6534,-7.03261,-11.3634,-32.8827,9.39631,-7.47763,1.00485,27.2739
41,5.26432,30.9028,-6.81788,-7.07908,-36.1665,-35.2425,1.85345,-16.6855,12.4992,-34.3095,33.7512,47.6148,-7.07113,-11.3634,-32.9212,9.3578,-7.51615,1.00485,5.19772,30.9028,-6.88448,-7.14567,-36.2331,-35.2425,1.78686,-16.7521,12.4992,-34.3095,33.6846,47.6148,-7.07113,-11.3634,-32.9878,9.3578,-7.51615,1.00485,5.03429,30.7394,-7.04791,-7.3091,-36.2331,-35.4059,1.62343,-16.7521,12.4992,-34.473,33.6846,47.6148,-7.07113,-11.5269,-32.9878,9.3578,-7.51615,1.00485,5.21626,30.9213,-6.86595,-7.12714,-36.2331,-35.4059,1.80539,-16.7521,12.4992,-34.473,33.8666,47.6148,-7.07113,-11.5269,-32.9878,9.3578,-7.51615,1.00485,5.23062,30.9213,-6.86595,-7.12714,-36.2331,-35.4059,1.81976,-16.7377,12.5136,-34.473,33.8666,47.6292,-7.07113,-11.5269,-32.9878,9.37216,-7.51615,1.00485,5.30655,30.9973,-6.79001,-7.05121,-36.2331,-35.33,1.81976,-16.7377,12.5136,-34.397,33.9425,47.7051,-7.07113,-11.4509,-32.9119,9.4481,-7.51615,1.00485,23.1744
42,5.27053,30.9973,-6.82604,-7.08724,-36.2692,-35.33,1.78373,-16.7377,12.5136,-34.397,33.9065,47.6691,-7.10716,-11.4509,-32.9479,9.41207,-7.55217,1.00485,5.20982,30.9973,-6.88674,-7.14794,-36.3299,-35.33,1.72303,-16.7984,12.5136,-34.397,33.8458,47.6691,-7.10716,-11.4509,-33.0086,9.41207,-7.55217,1.00485,5.05885,30.8463,-7.03771,-7.29891,-36.3299,-35.4809,1.57206,-16.7984,12.5136,-34.548,33.8458,47.6691,-7.10716,-11.6019,-33.0086,9.41207,-7.55217,1.00485,5.22628,31.0137,-6.87029,-7.13148,-36.3299,-35.4809,1.73948,-16.7984,12.5136,-34.548,34.0132,47.6691,-7.10716,-11.6019,-33.0086,9.41207,-7.55217,1.00485,5.2395,31.0137,-6.87029,-7.13148,-36.3299,-35.4809,1.7527,-16.7852,12.5268,-34.548,34.0132,47.6823,-7.10716,-11.6019,-33.0086,9.42529,-7.55217,1.00485,5.3099,31.0841,-6.79989,-7.06108,-36.3299,-35.4105,1.7527,-16.7852,12.5268,-34.4776,34.0836,47.7527,-7.10716,-11.5315,-32.9382,9.49569,-7.55217,1.00485,19.6908
43,5.27622,31.0841,-6.83356,-7.09476,-36.3635,-35.4105,1.71902,-16.7852,12.5268,-34.4776,34.0499,47.7191,-7.14083,-11.5315,-32.9719,9.46201,-7.58585,1.00485,5.22088,31.0841,-6.88891,-7.1501,-36.4189,-35.4105,1.66368,-16.8406,12.5268,-34.4776,33.9946,47.7191,-7.14083,-11.5315,-33.0272,9.46201,-7.58585,1.00485,5.08143,30.9447,-7.02835,-7.28955,-36.4189,-35.55,1.52423,-16.8406,12.5268,-34.6171,33.9946,47.7191,-7.14083,-11.6709,-33.0272,9.46201,-7.58585,1.00485,5.23549,31.0987,-6.8743,-7.13549,-36.4189,-35.55,1.67829,-16.8406,12.5268,-34.6171,34.1486,47.7191,-7.14083,-11.6709,-33.0272,9.46201,-7.58585,1.00485,5.24765,31.0987,-6.8743,-7.13549,-36.4189,-35.55,1.69045,-16.8284,12.539,-34.6171,34.1486,47.7312,-7.14083,-11.6709,-33.0272,9.47417,-7.58585,1.00485,5.31291,31.164,-6.80904,-7.07023,-36.4189,-35.4847,1.69045,-16.8284,12.539,-34.5518,34.2139,47.7965,-7.14083,-11.6057,-32.962,9.53943,-7.58585,1.00485,16.7304
44,5.28145,31.164,-6.8405,-7.10169,-36.4503,-35.4847,1.65899,-16.8284,12.539,-34.5518,34.1824,47.765,-7.1723,-11.6057,-32.9935,9.50797,-7.61731,1.00485,5.23098,31.164,-6.89097,-7.15216,-36.5008,-35.4847,1.60852,-16.8789,12.539,-34.5518,34.1319,47.765,-7.1723,-11.6057,-33.0439,9.50797,-7.61731,1.00485,5.10219,31.0352,-7.01976,-7.28095,-36.5008,-35.6135,1.47973,-16.8789,12.539,-34.6806,34.1319,47.765,-7.1723,-11.7345,-33.0439,9.50797,-7.61731,1.00485,5.24395,31.1769,-6.878,-7.13919,-36.5008,-35.6135,1.62149,-16.8789,12.539,-34.6806,34.2737,47.765,-7.1723,-11.7345,-33.0439,9.50797,-7.61731,1.00485,5.25514,31.1769,-6.878,-7.13919,-36.5008,-35.6135,1.63268,-16.8677,12.5502,-34.6806,34.2737,47.7762,-7.1723,-11.7345,-33.0439,9.51916,-7.61731,1.00485,5.31561,31.2374,-6.81752,-7.07872,-36.5008,-35.553,1.63268,-16.8677,12.5502,-34.6201,34.3342,47.8367,-7.1723,-11.674,-32.9834,9.57963,-7.61731,1.00485,14.2148
45,5.28624,31.2374,-6.8469,-7.10809,-36.5302,-35.553,1.60331,-16.8677,12.5502,-34.6201,34.3048,47.8073,-7.20167,-11.674,-33.0128,9.55026,-7.64668,1.00485,5.2402,31.2374,-6.89293,-7.15413,-36.5762,-35.553,1.55727,-16.9137,12.5502,-34.6201,34.2588,47.8073,-7.20167,-11.674,-33.0589,9.55026,-7.64668,1.00485,5.12128,31.1185,-7.01186,-7.27305,-36.5762,-35.672,1.43835,-16.9137,12.5502,-34.739,34.2588,47.8073,-7.20167,-11.7929,-33.0589,9.55026,-7.64668,1.00485,5.25172,31.2489,-6.88142,-7.14261,-36.5762,-35.672,1.56879,-16.9137,12.5502,-34.739,34.3892,47.8073,-7.20167,-11.7929,-33.0589,9.55026,-7.64668,1.00485,5.26203,31.2489,-6.88142,-7.14261,-36.5762,-35.672,1.5791,-16.9034,12.5605,-34.739,34.3892,47.8176,-7.20167,-11.7929,-33.0589,9.56056,-7.64668,1.00485,5.31805,31.305,-6.82539,-7.08658,-36.5762,-35.6159,1.5791,-16.9034,12.5605,-34.683,34.4452,47.8736,-7.20167,-11.7369,-33.0028,9.61659,-7.64668,1.00485,12.0772
46,5.29065,31.305,-6.85279,-7.11399,-36.6036,-35.6159,1.55169,-16.9034,12.5605,-34.683,34.4178,47.8462,-7.22907,-11.7369,-33.0302,9.58919,-7.67409,1.00485,5.24864,31.305,-6.8948,-7.15599,-36.6456,-35.6159,1.50969,-16.9454,12.5605,-34.683,34.3758,47.8462,-7.22907,-11.7369,-33.0722,9.58919,-7.67409,1.00485,5.13883,31.1952,-7.00461,-7.26581,-36.6456,-35.7257,1.39987,-16.9454,12.5605,-34.7928,34.3758,47.8462,-7.22907,-11.8467,-33.0722,9.58919,-7.67409,1.00485,5.25887,31.3152,-6.88457,-7.14577,-36.6456,-35.7257,1.51991,-16.9454,12.5605,-34.7928,34.4959,47.8462,-7.22907,-11.8467,-33.0722,9.58919,-7.67409,1.00485,5.26835,31.3152,-6.88457,-7.14577,-36.6456,-35.7257,1.5294,-16.9359,12.57,-34.7928,34.4959,47.8557,-7.22907,-11.8467,-33.0722,9.59867,-7.67409,1.00485,5.32025,31.3671,-6.83268,-7.09387,-36.6456,-35.6739,1.5294,-16.9359,12.57,-34.7409,34.5478,47.9076,-7.22907,-11.7948,-33.0204,9.65057,-7.67409,1.00485,10.2608
47,5.2947,31.3671,-6.85823,-7.11942,-36.6712,-35.6739,1.50385,-16.9359,12.57,-34.7409,34.5222,47.8821,-7.25462,-11.7948,-33.0459,9.62502,-7.69964,1.00485,5.25636,31.3671,-6.89657,-7.15776,-36.7095,-35.6739,1.46551,-16.9743,12.57,-34.7409,34.4839,47.8821,-7.25462,-11.7948,-33.0842,9.62502,-7.69964,1.00485,5.15497,31.2657,-6.99796,-7.25915,-36.7095,-35.7752,1.36412,-16.9743,12.57,-34.8423,34.4839,47.8821,-7.25462,-11.8962,-33.0842,9.62502,-7.69964,1.00485,5.26544,31.3762,-6.88749,-7.14868,-36.7095,-35.7752,1.47459,-16.9743,12.57,-34.8423,34.5943,47.8821,-7.25462,-11.8962,-33.0842,9.62502,-7.69964,1.00485,5.27417,31.3762,-6.88749,-7.14868,-36.7095,-35.7752,1.48332,-16.9655,12.5787,-34.8423,34.5943,47.8908,-7.25462,-11.8962,-33.0842,9.63375,-7.69964,1.00485,5.32223,31.4242,-6.83944,-7.10063,-36.7095,-35.7272,1.48332,-16.9655,12.5787,-34.7943,34.6424,47.9388,-7.25462,-11.8482,-33.0362,9.6818,-7.69964,1.00485,8.71736
48,5.29842,31.4242,-6.86324,-7.12444,-36.7333,-35.7272,1.45951,-16.9655,12.5787,-34.7943,34.6186,47.915,-7.27843,-11.8482,-33.06,9.65799,-7.72345,1.00485,5.26342,31.4242,-6.89824,-7.15944,-36.7683,-35.7272,1.42452,-17.0005,12.5787,-34.7943,34.5836,47.915,-7.27843,-11.8482,-33.095,9.65799,-7.72345,1.00485,5.16981,31.3306,-6.99185,-7.25304,-36.7683,-35.8208,1.33091,-17.0005,12.5787,-34.8879,34.5836,47.915,-7.27843,-11.9418,-33.095,9.65799,-7.72345,1.00485,5.27148,31.4323,-6.89018,-7.15138,-36.7683,-35.8208,1.43258,-17.0005,12.5787,-34.8879,34.6853,47.915,-7.27843,-11.9418,-33.095,9.65799,-7.72345,1.00485,5.27952,31.4323,-6.89018,-7.15138,-36.7683,-35.8208,1.44062,-16.9925,12.5867,-34.8879,34.6853,47.9231,-7.27843,-11.9418,-33.095,9.66604,-7.72345,1.00485,5.32401,31.4768,-6.84569,-7.10689,-36.7683,-35.7763,1.44062,-16.9925,12.5867,-34.8434,34.7297,47.9676,-7.27843,-11.8973,-33.0505,9.71053,-7.72345,1.00485,7.4059
49,5.30183,31.4768,-6.86787,-7.12906,-36.7905,-35.7763,1.41844,-16.9925,12.5867,-34.8434,34.7076,47.9454,-7.3006,-11.8973,-33.0727,9.68835,-7.74562,1.00485,5.26988,31.4768,-6.89983,-7.16102,-36.8225,-35.7763,1.38648,-17.0245,12.5867,-34.8434,34.6756,47.9454,-7.3006,-11.8973,-33.1046,9.68835,-7.74562,1.00485,5.18347,31.3904,-6.98623,-7.24743,-36.8225,-35.8627,1.30008,-17.0245,12.5867,-34.9298,34.6756,47.9454,-7.3006,-11.9837,-33.1046,9.68835,-7.74562,1.00485,5.27703,31.4839,-6.89267,-7.15386,-36.8225,-35.8627,1.39364,-17.0245,12.5867,-34.9298,34.7692,47.9454,-7.3006,-11.9837,-33.1046,9.68835,-7.74562,1.00485,5.28444,31.4839,-6.89267,-7.15386,-36.8225,-35.8627,1.40105,-17.017,12.5941,-34.9298,34.7692,47.9528,-7.3006,-11.9837,-33.1046,9.69575,-7.74562,1.00485,5.32562,31.5251,-6.85149,-7.11268,-36.8225,-35.8215,1.40105,-17.017,12.5941,-34.8886,34.8104,47.994,-7.3006,-11.9425,-33.0635,9.73694,-7.74562,1.00485,6.29158
50,5.30497,31.5251,-6.87213,-7.13333,-36.8431,-35.8215,1.3804,-17.017,12.5941,-34.8886,34.7897,47.9733,-7.32125,-11.9425,-33.0841,9.71629,-7.76627,1.00485,5.27579,31.5251,-6.90132,-7.16251,-36.8723,-35.8215,1.35121,-17.0462,12.5941,-34.8886,34.7605,47.9733,-7.32125,-11.9425,-33.1133,9.71629,-7.76627,1.00485,5.19603,31.4453,-6.98108,-7.24227,-36.8723,-35.9013,1.27146,-17.0462,12.5941,-34.9684,34.7605,47.9733,-7.32125,-12.0223,-33.1133,9.71629,-7.76627,1.00485,5.28214,31.5315,-6.89497,-7.15616,-36.8723,-35.9013,1.35757,-17.0462,12.5941,-34.9684,34.8466,47.9733,-7.32125,-12.0223,-33.1133,9.71629,-7.76627,1.00485,5.28896,31.5315,-6.89497,-7.15616,-36.8723,-35.9013,1.36439,-17.0394,12.601,-34.9684,34.8466,47.9802,-7.32125,-12.0223,-33.1133,9.72311,-7.76627,1.00485,5.32707,31.5696,-6.85686,-7.11805,-36.8723,-35.8632,1.36439,-17.0394,12.601,-34.9303,34.8847,48.0183,-7.32125,-11.9841,-33.0752,9.76122,-7.76627,1.00485,5.34479
51,5.30786,31.5696,-6.87607,-7.13726,-36.8915,-35.8632,1.34518,-17.0394,12.601,-34.9303,34.8655,47.9991,-7.34046,-11.9841,-33.0944,9.74201,-7.78548,1.00485,5.2812,31.5696,-6.90273,-7.16392,-36.9182,-35.8632,1.31851,-17.0661,12.601,-34.9303,34.8389,47.9991,-7.34046,-11.9841,-33.1211,9.74201,-7.78548,1.00485,5.20758,31.496,-6.97634,-7.23754,-36.9182,-35.9368,1.2449,-17.0661,12.601,-35.0039,34.8389,47.9991,-7.34046,-12.0578,-33.1211,9.74201,-7.78548,1.00485,5.28684,31.5752,-6.89709,-7.15828,-36.9182,-35.9368,1.32415,-17.0661,12.601,-35.0039,34.9181,47.9991,-7.34046,-12.0578,-33.1211,9.74201,-7.78548,1.00485,5.29312,31.5752,-6.89709,-7.15828,-36.9182,-35.9368,1.33043,-17.0598,12.6072,-35.0039,34.9181,48.0053,-7.34046,-12.0578,-33.1211,9.74829,-7.78548,1.00485,5.32838,31.6105,-6.86183,-7.12302,-36.9182,-35.9015,1.33043,-17.0598,12.6072,-34.9686,34.9534,48.0406,-7.34046,-12.0225,-33.0858,9.78356,-7.78548,1.00485,4.54035
52,5.31052,31.6105,-6.87969,-7.14089,-36.936,-35.9015,1.31257,-17.0598,12.6072,-34.9686,34.9355,48.0227,-7.35833,-12.0225,-33.1037,9.76569,-7.80335,1.00485,5.28615,31.6105,-6.90406,-7.16525,-36.9604,-35.9015,1.2882,-17.0842,12.6072,-34.9686,34.9112,48.0227,-7.35833,-12.0225,-33.128,9.76569,-7.80335,1.00485,5.21821,31.5425,-6.972,-7.23319,-36.9604,-35.9695,1.22026,-17.0842,12.6072,-35.0365,34.9112,48.0227,-7.35833,-12.0904,-33.128,9.76569,-7.80335,1.00485,5.29116,31.6155,-6.89905,-7.16024,-36.9604,-35.9695,1.29321,-17.0842,12.6072,-35.0365,34.9841,48.0227,-7.35833,-12.0904,-33.128,9.76569,-7.80335,1.00485,5.29694,31.6155,-6.89905,-7.16024,-36.9604,-35.9695,1.29899,-17.0784,12.613,-35.0365,34.9841,48.0285,-7.35833,-12.0904,-33.128,9.77147,-7.80335,1.00485,5.32957,31.6481,-6.86643,-7.12762,-36.9604,-35.9368,1.29899,-17.0784,12.613,-35.0039,35.0167,48.0611,-7.35833,-12.0578,-33.0954,9.8041,-7.80335,1.00485,3.85689
53,5.31296,31.6481,-6.88304,-7.14423,-36.977,-35.9368,1.28238,-17.0784,12.613,-35.0039,35.0001,48.0445,-7.37494,-12.0578,-33.112,9.78749,-7.81996,1.00485,5.29069,31.6481,-6.9053,-7.1665,-36.9993,-35.9368,1.26012,-17.1006,12.613,-35.0039,34.9778,48.0445,-7.37494,-12.0578,-33.1343,9.78749,-7.81996,1.00485,5.22799,31.5854,-6.968,-7.22919,-36.9993,-35.9995,1.19742,-17.1006,12.613,-35.0666,34.9778,48.0445,-7.37494,-12.1205,-33.1343,9.78749,-7.81996,1.00485,5.29513,31.6525,-6.90086,-7.16205,-36.9993,-35.9995,1.26456,-17.1006,12.613,-35.0666,35.045,48.0445,-7.37494,-12.1205,-33.1343,9.78749,-7.81996,1.00485,5.30046,31.6525,-6.90086,-7.16205,-36.9993,-35.9995,1.26989,-17.0953,12.6184,-35.0666,35.045,48.0499,-7.37494,-12.1205,-33.1343,9.79281,-7.81996,1.00485,5.33064,31.6827,-6.87068,-7.13188,-36.9993,-35.9694,1.26989,-17.0953,12.6184,-35.0364,35.0752,48.08,-7.37494,-12.0903,-33.1041,9.82299,-7.81996,1.00485,3.27622
54,5.3152,31.6827,-6.88612,-7.14732,-37.0147,-35.9694,1.25445,-17.0953,12.6184,-35.0364,35.0597,48.0646,-7.39038,-12.0903,-33.1195,9.80755,-7.8354,1.00485,5.29485,31.6827,-6.90648,-7.16767,-37.0351,-35.9694,1.2341,-17.1157,12.6184,-35.0364,35.0394,48.0646,-7.39038,-12.0903,-33.1399,9.80755,-7.8354,1.00485,5.23699,31.6249,-6.96433,-7.22553,-37.0351,-36.0272,1.17624,-17.1157,12.6184,-35.0943,35.0394,48.0646,-7.39038,-12.1482,-33.1399,9.80755,-7.8354,1.00485,5.29879,31.6867,-6.90253,-7.16373,-37.0351,-36.0272,1.23804,-17.1157,12.6184,-35.0943,35.1012,48.0646,-7.39038,-12.1482,-33.1399,9.80755,-7.8354,1.00485,5.3037,31.6867,-6.90253,-7.16373,-37.0351,-36.0272,1.24295,-17.1108,12.6233,-35.0943,35.1012,48.0695,-7.39038,-12.1482,-33.1399,9.81246,-7.8354,1.00485,5.3316,31.7146,-6.87463,-7.13582,-37.0351,-35.9993,1.24295,-17.1108,12.6233,-35.0664,35.1291,48.0974,-7.39038,-12.1203,-33.112,9.84037,-7.8354,1.00485,2.7829
55,5.31726,31.7146,-6.88897,-7.15016,-37.0494,-35.9993,1.22861,-17.1108,12.6233,-35.0664,35.1147,48.0831,-7.40472,-12.1203,-33.1263,9.82603,-7.84974,1.00485,5.29865,31.7146,-6.90758,-7.16877,-37.068,-35.9993,1.21,-17.1294,12.6233,-35.0664,35.0961,48.0831,-7.40472,-12.1203,-33.1449,9.82603,-7.84974,1.00485,5.24527,31.6612,-6.96096,-7.22215,-37.068,-36.0527,1.15661,-17.1294,12.6233,-35.1198,35.0961,48.0831,-7.40472,-12.1737,-33.1449,9.82603,-7.84974,1.00485,5.30215,31.7181,-6.90408,-7.16527,-37.068,-36.0527,1.2135,-17.1294,12.6233,-35.1198,35.153,48.0831,-7.40472,-12.1737,-33.1449,9.82603,-7.84974,1.00485,5.30667,31.7181,-6.90408,-7.16527,-37.068,-36.0527,1.21802,-17.1248,12.6278,-35.1198,35.153,48.0876,-7.40472,-12.1737,-33.1449,9.83055,-7.84974,1.00485,5.33248,31.7439,-6.87827,-7.13946,-37.068,-36.0269,1.21802,-17.1248,12.6278,-35.094,35.1788,48.1134,-7.40472,-12.1479,-33.1191,9.85635,-7.84974,1.00485,2.3638
56,5.31916,31.7439,-6.89159,-7.15278,-37.0813,-36.0269,1.2047,-17.1248,12.6278,-35.094,35.1655,48.1001,-7.41804,-12.1479,-33.1324,9.84303,-7.86306,1.00485,5.30214,31.7439,-6.90861,-7.1698,-37.0984,-36.0269,1.18768,-17.1419,12.6278,-35.094,35.1485,48.1001,-7.41804,-12.1479,-33.1495,9.84303,-7.86306,1.00485,5.25289,31.6946,-6.95786,-7.21906,-37.0984,-36.0761,1.13842,-17.1419,12.6278,-35.1432,35.1485,48.1001,-7.41804,-12.1971,-33.1495,9.84303,-7.86306,1.00485,5.30525,31.747,-6.9055,-7.1667,-37.0984,-36.0761,1.19078,-17.1419,12.6278,-35.1432,35.2008,48.1001,-7.41804,-12.1971,-33.1495,9.84303,-7.86306,1.00485,5.30941,31.747,-6.9055,-7.1667,-37.0984,-36.0761,1.19495,-17.1377,12.6319,-35.1432,35.2008,48.1042,-7.41804,-12.1971,-33.1495,9.8472,-7.86306,1.00485,5.33327,31.7708,-6.88164,-7.14284,-37.0984,-36.0523,1.19495,-17.1377,12.6319,-35.1194,35.2247,48.1281,-7.41804,-12.1733,-33.1256,9.87106,-7.86306,1.00485,2.00776
57,5.32091,31.7708,-6.89401,-7.1552,-37.1107,-36.0523,1.18259,-17.1377,12.6319,-35.1194,35.2123,48.1157,-7.4304,-12.1733,-33.138,9.85869,-7.87542,1.00485,5.30534,31.7708,-6.90958,-7.17077,-37.1263,-36.0523,1.16702,-17.1533,12.6319,-35.1194,35.1968,48.1157,-7.4304,-12.1733,-33.1535,9.85869,-7.87542,1.00485,5.2599,31.7254,-6.95502,-7.21621,-37.1263,-36.0977,1.12157,-17.1533,12.6319,-35.1648,35.1968,48.1157,-7.4304,-12.2187,-33.1535,9.85869,-7.87542,1.00485,5.30809,31.7736,-6.90682,-7.16801,-37.1263,-36.0977,1.16977,-17.1533,12.6319,-35.1648,35.245,48.1157,-7.4304,-12.2187,-33.1535,9.85869,-7.87542,1.00485,5.31193,31.7736,-6.90682,-7.16801,-37.1263,-36.0977,1.17361,-17.1494,12.6358,-35.1648,35.245,48.1196,-7.4304,-12.2187,-33.1535,9.86253,-7.87542,1.00485,5.33398,31.7957,-6.88476,-7.14596,-37.1263,-36.0757,1.17361,-17.1494,12.6358,-35.1428,35.267,48.1416,-7.4304,-12.1966,-33.1315,9.88458,-7.87542,1.00485,1.7053
58,5.32251,31.7957,-6.89624,-7.15743,-37.1378,-36.0757,1.16214,-17.1494,12.6358,-35.1428,35.2556,48.1302,-7.44187,-12.1966,-33.143,9.87311,-7.88689,1.00485,5.30827,31.7957,-6.91048,-7.17167,-37.152,-36.0757,1.14789,-17.1637,12.6358,-35.1428,35.2413,48.1302,-7.44187,-12.1966,-33.1572,9.87311,-7.88689,1.00485,5.26635,31.7537,-6.9524,-7.2136,-37.152,-36.1176,1.10597,-17.1637,12.6358,-35.1847,35.2413,48.1302,-7.44187,-12.2386,-33.1572,9.87311,-7.88689,1.00485,5.31071,31.7981,-6.90803,-7.16923,-37.152,-36.1176,1.15034,-17.1637,12.6358,-35.1847,35.2857,48.1302,-7.44187,-12.2386,-33.1572,9.87311,-7.88689,1.00485,5.31425,31.7981,-6.90803,-7.16923,-37.152,-36.1176,1.15387,-17.1601,12.6393,-35.1847,35.2857,48.1337,-7.44187,-12.2386,-33.1572,9.87664,-7.88689,1.00485,5.33463,31.8185,-6.88765,-7.14884,-37.152,-36.0972,1.15387,-17.1601,12.6393,-35.1643,35.3061,48.1541,-7.44187,-12.2182,-33.1368,9.89703,-7.88689,1.00485,1.44837
59,5.32399,31.8185,-6.89829,-7.15949,-37.1627,-36.0972,1.14323,-17.1601,12.6393,-35.1643,35.2954,48.1434,-7.45252,-12.2182,-33.1475,9.88638,-7.89754,1.00485,5.31095,31.8185,-6.91133,-7.17252,-37.1757,-36.0972,1.13019,-17.1732,12.6393,-35.1643,35.2824,48.1434,-7.45252,-12.2182,-33.1605,9.88638,-7.89754,1.00485,5.27228,31.7798,-6.95,-7.21119,-37.1757,-36.1359,1.09152,-17.1732,12.6393,-35.203,35.2824,48.1434,-7.45252,-12.2569,-33.1605,9.88638,-7.89754,1.00485,5.31312,31.8207,-6.90916,-7.17035,-37.1757,-36.1359,1.13236,-17.1732,12.6393,-35.203,35.3232,48.1434,-7.45252,-12.2569,-33.1605,9.88638,-7.89754,1.00485,5.31638,31.8207,-6.90916,-7.17035,-37.1757,-36.1359,1.13562,-17.1699,12.6426,-35.203,35.3232,48.1467,-7.45252,-12.2569,-33.1605,9.88964,-7.89754,1.00485,5.33522,31.8395,-6.89032,-7.15151,-37.1757,-36.117,1.13562,-17.1699,12.6426,-35.1841,35.3421,48.1655,-7.45252,-12.238,-33.1417,9.90848,-7.89754,1.00485,1.23012
60,5.32535,31.8395,-6.90019,-7.16138,-37.1856,-36.117,1.12575,-17.1699,12.6426,-35.1841,35.3322,48.1556,-7.46239,-12.238,-33.1515,9.8986,-7.90741,1.00485,5.31342,31.8395,-6.91212,-7.17331,-37.1975,-36.117,1.11382,-17.1819,12.6426,-35.1841,35.3203,48.1556,-7.46239,-12.238,-33.1635,9.8986,-7.90741,1.00485,5.27774,31.8038,-6.94779,-7.20898,-37.1975,-36.1527,1.07814,-17.1819,12.6426,-35.2198,35.3203,48.1556,-7.46239,-12.2737,-33.1635,9.8986,-7.90741,1.00485,5.31534,31.8414,-6.91019,-7.17138,-37.1975,-36.1527,1.11574,-17.1819,12.6426,-35.2198,35.3579,48.1556,-7.46239,-12.2737,-33.1635,9.8986,-7.90741,1.00485,5.31834,31.8414,-6.91019,-7.17138,-37.1975,-36.1527,1.11874,-17.1789,12.6456,-35.2198,35.3579,48.1586,-7.46239,-12.2737,-33.1635,9.9016,-7.90741,1.00485,5.33575,31.8588,-6.89278,-7.15398,-37.1975,-36.1353,1.11874,-17.1789,12.6456,-35.2024,35.3753,48.1761,-7.46239,-12.2563,-33.146,9.91901,-7.90741,1.00485,1.04472
61,5.3266,31.8588,-6.90194,-7.16313,-37.2066,-36.1353,1.10959,-17.1789,12.6456,-35.2024,35.3661,48.1669,-7.47154,-12.2563,-33.1552,9.90986,-7.91656,1.00485,5.31568,31.8588,-6.91286,-7.17405,-37.2176,-36.1353,1.09867,-17.1898,12.6456,-35.2024,35.3552,48.1669,-7.47154,-12.2563,-33.1661,9.90986,-7.91656,1.00485,5.28277,31.8259,-6.94576,-7.20695,-37.2176,-36.1682,1.06576,-17.1898,12.6456,-35.2353,35.3552,48.1669,-7.47154,-12.2892,-33.1661,9.90986,-7.91656,1.00485,5.31738,31.8605,-6.91115,-7.17234,-37.2176,-36.1682,1.10038,-17.1898,12.6456,-35.2353,35.3898,48.1669,-7.47154,-12.2892,-33.1661,9.90986,-7.91656,1.00485,5.32015,31.8605,-6.91115,-7.17234,-37.2176,-36.1682,1.10314,-17.187,12.6483,-35.2353,35.3898,48.1697,-7.47154,-12.2892,-33.1661,9.91262,-7.91656,1.00485,5.33623,31.8766,-6.89506,-7.15626,-37.2176,-36.1521,1.10314,-17.187,12.6483,-35.2192,35.4059,48.1857,-7.47154,-12.2731,-33.15,9.9287,-7.91656,1.00485,0.887249
62,5.32775,31.8766,-6.90355,-7.16474,-37.226,-36.1521,1.09465,-17.187,12.6483,-35.2192,35.3974,48.1773,-7.48003,-12.2731,-33.1585,9.92022,-7.92504,1.00485,5.31775,31.8766,-6.91354,-7.17474,-37.236,-36.1521,1.08466,-17.197,12.6483,-35.2192,35.3874,48.1773,-7.48003,-12.2731,-33.1685,9.92022,-7.92504,1.00485,5.2874,31.8463,-6.94389,-7.20509,-37.236,-36.1825,1.05431,-17.197,12.6483,-35.2496,35.3874,48.1773,-7.48003,-12.3035,-33.1685,9.92022,-7.92504,1.00485,5.31926,31.8781,-6.91203,-7.17322,-37.236,-36.1825,1.08617,-17.197,12.6483,-35.2496,35.4193,48.1773,-7.48003,-12.3035,-33.1685,9.92022,-7.92504,1.00485,5.32181,31.8781,-6.91203,-7.17322,-37.236,-36.1825,1.08872,-17.1945,12.6509,-35.2496,35.4193,48.1798,-7.48003,-12.3035,-33.1685,9.92276,-7.92504,1.00485,5.33666,31.893,-6.89717,-7.15836,-37.236,-36.1676,1.08872,-17.1945,12.6509,-35.2347,35.4341,48.1947,-7.48003,-12.2886,-33.1537,9.93762,-7.92504,1.00485,0.753492
63,5.3288,31.893,-6.90503,-7.16623,-37.2439,-36.1676,1.08085,-17.1945,12.6509,-35.2347,35.4263,48.1868,-7.48789,-12.2886,-33.1615,9.92976,-7.93291,1.00485,5.31965,31.893,-6.91419,-7.17538,-37.2531,-36.1676,1.0717,-17.2036,12.6509,-35.2347,35.4171,48.1868,-7.48789,-12.2886,-33.1707,9.92976,-7.93291,1.00485,5.29166,31.865,-6.94218,-7.20337,-37.2531,-36.1956,1.04371,-17.2036,12.6509,-35.2627,35.4171,48.1868,-7.48789,-12.3166,-33.1707,9.92976,-7.93291,1.00485,5.32099,31.8943,-6.91284,-7.17404,-37.2531,-36.1956,1.07304,-17.2036,12.6509,-35.2627,35.4465,48.1868,-7.48789,-12.3166,-33.1707,9.92976,-7.93291,1.00485,5.32333,31.8943,-6.91284,-7.17404,-37.2531,-36.1956,1.07538,-17.2013,12.6532,-35.2627,35.4465,48.1891,-7.48789,-12.3166,-33.1707,9.9321,-7.93291,1.00485,5.33706,31.9081,-6.89912,-7.16031,-37.2531,-36.1819,1.07538,-17.2013,12.6532,-35.249,35.4602,48.2029,-7.48789,-12.3029,-33.1569,9.94583,-7.93291,1.00485,0.639883
64,5.32978,31.9081,-6.9064,-7.16759,-37.2603,-36.1819,1.0681,-17.2013,12.6532,-35.249,35.4529,48.1956,-7.49517,-12.3029,-33.1642,9.93854,-7.94019,1.00485,5.32139,31.9081,-6.91479,-7.17598,-37.2687,-36.1819,1.05972,-17.2097,12.6532,-35.249,35.4445,48.1956,-7.49517,-12.3029,-33.1726,9.93854,-7.94019,1.00485,5.29557,31.8823,-6.9406,-7.2018,-37.2687,-36.2077,1.0339,-17.2097,12.6532,-35.2748,35.4445,48.1956,-7.49517,-12.3287,-33.1726,9.93854,-7.94019,1.00485,5.32258,31.9093,-6.91359,-7.17479,-37.2687,-36.2077,1.06091,-17.2097,12.6532,-35.2748,35.4715,48.1956,-7.49517,-12.3287,-33.1726,9.93854,-7.94019,1.00485,5.32474,31.9093,-6.91359,-7.17479,-37.2687,-36.2077,1.06307,-17.2075,12.6554,-35.2748,35.4715,48.1977,-7.49517,-12.3287,-33.1726,9.9407,-7.94019,1.00485,5.33742,31.9219,-6.90092,-7.16211,-37.2687,-36.195,1.06307,-17.2075,12.6554,-35.2621,35.4842,48.2104,-7.49517,-12.316,-33.1599,9.95338,-7.94019,1.00485,0.543391
65,5.33067,31.9219,-6.90766,-7.16886,-37.2755,-36.195,1.05632,-17.2075,12.6554,-35.2621,35.4775,48.2037,-7.50192,-12.316,-33.1667,9.94663,-7.94694,1.00485,5.32299,31.9219,-6.91535,-7.17654,-37.2832,-36.195,1.04864,-17.2152,12.6554,-35.2621,35.4698,48.2037,-7.50192,-12.316,-33.1744,9.94663,-7.94694,1.00485,5.29918,31.8981,-6.93915,-7.20035,-37.2832,-36.2188,1.02483,-17.2152,12.6554,-35.2859,35.4698,48.2037,-7.50192,-12.3398,-33.1744,9.94663,-7.94694,1.00485,5.32405,31.923,-6.91429,-7.17548,-37.2832,-36.2188,1.0497,-17.2152,12.6554,-35.2859,35.4946,48.2037,-7.50192,-12.3398,-33.1744,9.94663,-7.94694,1.00485,5.32604,31.923,-6.91429,-7.17548,-37.2832,-36.2188,1.05168,-17.2132,12.6574,-35.2859,35.4946,48.2057,-7.50192,-12.3398,-33.1744,9.94862,-7.94694,1.00485,5.33774,31.9347,-6.90258,-7.16377,-37.2832,-36.2071,1.05168,-17.2132,12.6574,-35.2742,35.5064,48.2174,-7.50192,-12.3281,-33.1627,9.96033,-7.94694,1.00485,0.461437
66,5.3315,31.9347,-6.90883,-7.17002,-37.2894,-36.2071,1.04544,-17.2132,12.6574,-35.2742,35.5001,48.2111,-7.50816,-12.3281,-33.1689,9.95408,-7.95318,1.00485,5.32446,31.9347,-6.91587,-7.17706,-37.2964,-36.2071,1.0384,-17.2202,12.6574,-35.2742,35.4931,48.2111,-7.50816,-12.3281,-33.1759,9.95408,-7.95318,1.00485,5.3025,31.9127,-6.93782,-7.19901,-37.2964,-36.2291,1.01644,-17.2202,12.6574,-35.2962,35.4931,48.2111,-7.50816,-12.3501,-33.1759,9.95408,-7.95318,1.00485,5.3254,31.9356,-6.91493,-7.17612,-37.2964,-36.2291,1.03934,-17.2202,12.6574,-35.2962,35.516,48.2111,-7.50816,-12.3501,-33.1759,9.95408,-7.95318,1.00485,5.32723,31.9356,-6.91493,-7.17612,-37.2964,-36.2291,1.04117,-17.2184,12.6592,-35.2962,35.516,48.213,-7.50816,-12.3501,-33.1759,9.95591,-7.95318,1.00485,5.33804,31.9465,-6.90412,-7.16531,-37.2964,-36.2183,1.04117,-17.2184,12.6592,-35.2854,35.5268,48.2238,-7.50816,-12.3392,-33.1651,9.96672,-7.95318,1.00485,0.391835
67,5.33225,31.9465,-6.9099,-7.17109,-37.3022,-36.2183,1.03538,-17.2184,12.6592,-35.2854,35.521,48.218,-7.51395,-12.3392,-33.1709,9.96094,-7.95897,1.00485,5.3258,31.9465,-6.91635,-7.17754,-37.3087,-36.2183,1.02893,-17.2249,12.6592,-35.2854,35.5145,48.218,-7.51395,-12.3392,-33.1774,9.96094,-7.95897,1.00485,5.30556,31.9262,-6.9366,-7.19779,-37.3087,-36.2385,1.00869,-17.2249,12.6592,-35.3056,35.5145,48.218,-7.51395,-12.3595,-33.1774,9.96094,-7.95897,1.00485,5.32664,31.9473,-6.91552,-7.17671,-37.3087,-36.2385,1.02976,-17.2249,12.6592,-35.3056,35.5356,48.218,-7.51395,-12.3595,-33.1774,9.96094,-7.95897,1.00485,5.32832,31.9473,-6.91552,-7.17671,-37.3087,-36.2385,1.03145,-17.2232,12.6609,-35.3056,35.5356,48.2197,-7.51395,-12.3595,-33.1774,9.96262,-7.95897,1.00485,5.33831,31.9573,-6.90554,-7.16673,-37.3087,-36.2285,1.03145,-17.2232,12.6609,-35.2956,35.5456,48.2296,-7.51395,-12.3495,-33.1674,9.9726,-7.95897,1.00485,0.332723
68,5.33295,31.9573,-6.91089,-7.17208,-37.314,-36.2285,1.0261,-17.2232,12.6609,-35.2956,35.5402,48.2243,-7.5193,-12.3495,-33.1727,9.96725,-7.96432,1.00485,5.32704,31.9573,-6.9168,-7.17799,-37.3199,-36.2285,1.02019,-17.2291,12.6609,-35.2956,35.5343,48.2243,-7.5193,-12.3495,-33.1786,9.96725,-7.96432,1.00485,5.30837,31.9386,-6.93547,-7.19666,-37.3199,-36.2472,1.00152,-17.2291,12.6609,-35.3143,35.5343,48.2243,-7.5193,-12.3682,-33.1786,9.96725,-7.96432,1.00485,5.32778,31.958,-6.91606,-7.17726,-37.3199,-36.2472,1.02092,-17.2291,12.6609,-35.3143,35.5537,48.2243,-7.5193,-12.3682,-33.1786,9.96725,-7.96432,1.00485,5.32933,31.958,-6.91606,-7.17726,-37.3199,-36.2472,1.02248,-17.2275,12.6624,-35.3143,35.5537,48.2258,-7.5193,-12.3682,-33.1786,9.9688,-7.96432,1.00485,5.33855,31.9672,-6.90685,-7.16804,-37.3199,-36.238,1.02248,-17.2275,12.6624,-35.3051,35.563,48.2351,-7.5193,-12.359,-33.1694,9.97802,-7.96432,1.00485,0.282523
69,5.33359,31.9672,-6.9118,-7.17299,-37.3249,-36.238,1.01752,-17.2275,12.6624,-35.3051,35.558,48.2301,-7.52426,-12.359,-33.1744,9.97307,-7.96928,1.00485,5.32818,31.9672,-6.91722,-7.17841,-37.3303,-36.238,1.0121,-17.2329,12.6624,-35.3051,35.5526,48.2301,-7.52426,-12.359,-33.1798,9.97307,-7.96928,1.00485,5.31096,31.95,-6.93443,-7.19563,-37.3303,-36.2552,0.99489,-17.2329,12.6624,-35.3223,35.5526,48.2301,-7.52426,-12.3762,-33.1798,9.97307,-7.96928,1.00485,5.32883,31.9679,-6.91657,-7.17776,-37.3303,-36.2552,1.01276,-17.2329,12.6624,-35.3223,35.5705,48.2301,-7.52426,-12.3762,-33.1798,9.97307,-7.96928,1.00485,5.33026,31.9679,-6.91657,-7.17776,-37.3303,-36.2552,1.01419,-17.2315,12.6639,-35.3223,35.5705,48.2315,-7.52426,-12.3762,-33.1798,9.9745,-7.96928,1.00485,5.33877,31.9764,-6.90806,-7.16925,-37.3303,-36.2467,1.01419,-17.2315,12.6639,-35.3138,35.579,48.2401,-7.52426,-12.3677,-33.1713,9.98301,-7.96928,1.00485,0.239891
70,5.33418,31.9764,-6.91264,-7.17383,-37.3349,-36.2467,1.0096,-17.2315,12.6639,-35.3138,35.5744,48.2355,-7.52884,-12.3677,-33.1759,9.97842,-7.97386,1.00485,5.32922,31.9764,-6.91761,-7.1788,-37.3399,-36.2467,1.00464,-17.2365,12.6639,-35.3138,35.5694,48.2355,-7.52884,-12.3677,-33.1808,9.97842,-7.97386,1.00485,5.31335,31.9605,-6.93348,-7.19467,-37.3399,-36.2626,0.988765,-17.2365,12.6639,-35.3296,35.5694,48.2355,-7.52884,-12.3835,-33.1808,9.97842,-7.97386,1.00485,5.3298,31.977,-6.91703,-7.17822,-37.3399,-36.2626,1.00522,-17.2365,12.6639,-35.3296,35.5859,48.2355,-7.52884,-12.3835,-33.1808,9.97842,-7.97386,1.00485,5.33111,31.977,-6.91703,-7.17822,-37.3399,-36.2626,1.00653,-17.2352,12.6652,-35.3296,35.5859,48.2368,-7.52884,-12.3835,-33.1808,9.97974,-7.97386,1.00485,5.33897,31.9848,-6.90917,-7.17037,-37.3399,-36.2547,1.00653,-17.2352,12.6652,-35.3218,35.5937,48.2446,-7.52884,-12.3757,-33.173,9.98759,-7.97386,1.00485,0.203687
71,5.33473,31.9848,-6.91342,-7.17461,-37.3441,-36.2547,1.00229,-17.2352,12.6652,-35.3218,35.5895,48.2404,-7.53309,-12.3757,-33.1772,9.98335,-7.9781,1.00485,5.33017,31.9848,-6.91797,-7.17916,-37.3487,-36.2547,0.997739,-17.2397,12.6652,-35.3218,35.5849,48.2404,-7.53309,-12.3757,-33.1818,9.98335,-7.9781,1.00485,5.31554,31.9702,-6.9326,-7.1938,-37.3487,-36.2693,0.983105,-17.2397,12.6652,-35.3364,35.5849,48.2404,-7.53309,-12.3903,-33.1818,9.98335,-7.9781,1.00485,5.33069,31.9853,-6.91746,-7.17865,-37.3487,-36.2693,0.998253,-17.2397,12.6652,-35.3364,35.6001,48.2404,-7.53309,-12.3903,-33.1818,9.98335,-7.9781,1.00485,5.3319,31.9853,-6.91746,-7.17865,-37.3487,-36.2693,0.999467,-17.2385,12.6664,-35.3364,35.6001,48.2416,-7.53309,-12.3903,-33.1818,9.98457,-7.9781,1.00485,5.33915,31.9926,-6.91021,-7.1714,-37.3487,-36.2621,0.999467,-17.2385,12.6664,-35.3292,35.6073,48.2489,-7.53309,-12.3831,-33.1745,9.99182,-7.9781,1.00485,0.172944
72,5.33523,31.9926,-6.91413,-7.17532,-37.3526,-36.2621,0.995543,-17.2385,12.6664,-35.3292,35.6034,48.2449,-7.53701,-12.3831,-33.1785,9.98789,-7.98203,1.00485,5.33105,31.9926,-6.91831,-7.1795,-37.3568,-36.2621,0.991367,-17.2427,12.6664,-35.3292,35.5992,48.2449,-7.53701,-12.3831,-33.1826,9.98789,-7.98203,1.00485,5.31756,31.9791,-6.9318,-7.19299,-37.3568,-36.2756,0.977875,-17.2427,12.6664,-35.3427,35.5992,48.2449,-7.53701,-12.3966,-33.1826,9.98789,-7.98203,1.00485,5.33151,31.993,-6.91785,-7.17904,-37.3568,-36.2756,0.991822,-17.2427,12.6664,-35.3427,35.6132,48.2449,-7.53701,-12.3966,-33.1826,9.98789,-7.98203,1.00485,5.33263,31.993,-6.91785,-7.17904,-37.3568,-36.2756,0.992941,-17.2416,12.6675,-35.3427,35.6132,48.2461,-7.53701,-12.3966,-33.1826,9.98901,-7.98203,1.00485,5.33932,31.9997,-6.91116,-7.17235,-37.3568,-36.2689,0.992941,-17.2416,12.6675,-35.336,35.6199,48.2527,-7.53701,-12.3899,-33.1759,9.9957,-7.98203,1.00485,0.146837
73,5.33569,31.9997,-6.91479,-7.17598,-37.3604,-36.2689,0.989312,-17.2416,12.6675,-35.336,35.6162,48.2491,-7.54064,-12.3899,-33.1796,9.99207,-7.98566,1.00485,5.33186,31.9997,-6.91862,-7.17981,-37.3642,-36.2689,0.985482,-17.2454,12.6675,-35.336,35.6124,48.2491,-7.54064,-12.3899,-33.1834,9.99207,-7.98566,1.00485,5.31942,31.9873,-6.93106,-7.19225,-37.3642,-36.2813,0.973043,-17.2454,12.6675,-35.3484,35.6124,48.2491,-7.54064,-12.4023,-33.1834,9.99207,-7.98566,1.00485,5.33226,32.0001,-6.91821,-7.17941,-37.3642,-36.2813,0.985885,-17.2454,12.6675,-35.3484,35.6252,48.2491,-7.54064,-12.4023,-33.1834,9.99207,-7.98566,1.00485,5.33329,32.0001,-6.91821,-7.17941,-37.3642,-36.2813,0.986915,-17.2444,12.6685,-35.3484,35.6252,48.2501,-7.54064,-12.4023,-33.1834,9.9931,-7.98566,1.00485,5.33947,32.0063,-6.91204,-7.17323,-37.3642,-36.2752,0.986915,-17.2444,12.6685,-35.3422,35.6314,48.2563,-7.54064,-12.3961,-33.1772,9.99928,-7.98566,1.00485,0.124669
74,5.33611,32.0063,-6.91539,-7.17659,-37.3676,-36.2752,0.98356,-17.2444,12.6685,-35.3422,35.6281,48.253,-7.54399,-12.3961,-33.1806,9.99592,-7.98901,1.00485,5.3326,32.0063,-6.91891,-7.1801,-37.3711,-36.2752,0.980047,-17.2479,12.6685,-35.3422,35.6245,48.253,-7.54399,-12.3961,-33.1841,9.99592,-7.98901,1.00485,5.32113,31.9948,-6.93038,-7.19157,-37.3711,-36.2866,0.968579,-17.2479,12.6685,-35.3537,35.6245,48.253,-7.54399,-12.4076,-33.1841,9.99592,-7.98901,1.00485,5.33296,32.0067,-6.91855,-7.17974,-37.3711,-36.2866,0.980404,-17.2479,12.6685,-35.3537,35.6364,48.253,-7.54399,-12.4076,-33.1841,9.99592,-7.98901,1.00485,5.33391,32.0067,-6.91855,-7.17974,-37.3711,-36.2866,0.981353,-17.2469,12.6695,-35.3537,35.6364,48.2539,-7.54399,-12.4076,-33.1841,9.99687,-7.98901,1.00485,5.3396,32.0124,-6.91285,-7.17404,-37.3711,-36.2809,0.981353,-17.2469,12.6695,-35.348,35.6421,48.2596,-7.54399,-12.4019,-33.1784,10.0026,-7.98901,1.00485,0.105846
75,5.3365,32.0124,-6.91595,-7.17715,-37.3742,-36.2809,0.978251,-17.2469,12.6695,-35.348,35.639,48.2565,-7.5471,-12.4019,-33.1815,9.99947,-7.99211,1.00485,5.33328,32.0124,-6.91918,-7.18037,-37.3774,-36.2809,0.975028,-17.2502,12.6695,-35.348,35.6357,48.2565,-7.5471,-12.4019,-33.1847,9.99947,-7.99211,1.00485,5.32271,32.0018,-6.92975,-7.19094,-37.3774,-36.2915,0.964456,-17.2502,12.6695,-35.3586,35.6357,48.2565,-7.5471,-12.4125,-33.1847,9.99947,-7.99211,1.00485,5.3336,32.0127,-6.91886,-7.18005,-37.3774,-36.2915,0.975344,-17.2502,12.6695,-35.3586,35.6466,48.2565,-7.5471,-12.4125,-33.1847,9.99947,-7.99211,1.00485,5.33447,32.0127,-6.91886,-7.18005,-37.3774,-36.2915,0.976219,-17.2493,12.6704,-35.3586,35.6466,48.2574,-7.5471,-12.4125,-33.1847,10.0003,-7.99211,1.00485,5.33973,32.0179,-6.9136,-7.17479,-37.3774,-36.2862,0.976219,-17.2493,12.6704,-35.3533,35.6519,48.2626,-7.5471,-12.4072,-33.1795,10.0056,-7.99211,1.00485,0.0898626
76,5.33686,32.0179,-6.91647,-7.17766,-37.3803,-36.2862,0.973351,-17.2493,12.6704,-35.3533,35.649,48.2598,-7.54996,-12.4072,-33.1823,10.0027,-7.99498,1.00485,5.3339,32.0179,-6.91943,-7.18062,-37.3832,-36.2862,0.970394,-17.2522,12.6704,-35.3533,35.6461,48.2598,-7.54996,-12.4072,-33.1853,10.0027,-7.99498,1.00485,5.32416,32.0082,-6.92917,-7.19036,-37.3832,-36.296,0.960648,-17.2522,12.6704,-35.3631,35.6461,48.2598,-7.54996,-12.417,-33.1853,10.0027,-7.99498,1.00485,5.33418,32.0182,-6.91915,-7.18034,-37.3832,-36.296,0.970674,-17.2522,12.6704,-35.3631,35.6561,48.2598,-7.54996,-12.417,-33.1853,10.0027,-7.99498,1.00485,5.33499,32.0182,-6.91915,-7.18034,-37.3832,-36.296,0.971479,-17.2514,12.6712,-35.3631,35.6561,48.2606,-7.54996,-12.417,-33.1853,10.0035,-7.99498,1.00485,5.33984,32.0231,-6.91429,-7.17549,-37.3832,-36.2911,0.971479,-17.2514,12.6712,-35.3582,35.6609,48.2654,-7.54996,-12.4121,-33.1804,10.0084,-7.99498,1.00485,0.0762915
77,5.33719,32.0231,-6.91694,-7.17814,-37.3859,-36.2911,0.968829,-17.2514,12.6712,-35.3582,35.6583,48.2628,-7.55261,-12.4121,-33.1831,10.0057,-7.99763,1.00485,5.33448,32.0231,-6.91966,-7.18085,-37.3886,-36.2911,0.966115,-17.2541,12.6712,-35.3582,35.6556,48.2628,-7.55261,-12.4121,-33.1858,10.0057,-7.99763,1.00485,5.32549,32.0141,-6.92864,-7.18983,-37.3886,-36.3001,0.957131,-17.2541,12.6712,-35.3672,35.6556,48.2628,-7.55261,-12.4211,-33.1858,10.0057,-7.99763,1.00485,5.33473,32.0233,-6.91941,-7.1806,-37.3886,-36.3001,0.966363,-17.2541,12.6712,-35.3672,35.6648,48.2628,-7.55261,-12.4211,-33.1858,10.0057,-7.99763,1.00485,5.33547,32.0233,-6.91941,-7.1806,-37.3886,-36.3001,0.967105,-17.2534,12.6719,-35.3672,35.6648,48.2635,-7.55261,-12.4211,-33.1858,10.0065,-7.99763,1.00485,5.33995,32.0278,-6.91493,-7.17612,-37.3886,-36.2956,0.967105,-17.2534,12.6719,-35.3627,35.6693,48.268,-7.55261,-12.4166,-33.1813,10.011,-7.99763,1.00485,0.0647687
78,5.3375,32.0278,-6.91738,-7.17857,-37.391,-36.2956,0.964656,-17.2534,12.6719,-35.3627,35.6668,48.2656,-7.55506,-12.4166,-33.1838,10.0085,-8.00008,1.00485,5.33501,32.0278,-6.91987,-7.18106,-37.3935,-36.2956,0.962165,-17.2559,12.6719,-35.3627,35.6644,48.2656,-7.55506,-12.4166,-33.1863,10.0085,-8.00008,1.00485,5.32672,32.0195,-6.92815,-7.18935,-37.3935,-36.3039,0.953884,-17.2559,12.6719,-35.371,35.6644,48.2656,-7.55506,-12.4249,-33.1863,10.0085,-8.00008,1.00485,5.33523,32.028,-6.91965,-7.18084,-37.3935,-36.3039,0.962385,-17.2559,12.6719,-35.371,35.6729,48.2656,-7.55506,-12.4249,-33.1863,10.0085,-8.00008,1.00485,5.33591,32.028,-6.91965,-7.18084,-37.3935,-36.3039,0.963068,-17.2552,12.6726,-35.371,35.6729,48.2662,-7.55506,-12.4249,-33.1863,10.0092,-8.00008,1.00485,5.34004,32.0321,-6.91552,-7.17671,-37.3935,-36.2998,0.963068,-17.2552,12.6726,-35.3669,35.677,48.2704,-7.55506,-12.4208,-33.1821,10.0133,-8.00008,1.00485,0.0549852
79,5.33778,32.0321,-6.91778,-7.17898,-37.3958,-36.2998,0.960805,-17.2552,12.6726,-35.3669,35.6747,48.2681,-7.55733,-12.4208,-33.1844,10.0111,-8.00235,1.00485,5.33549,32.0321,-6.92007,-7.18126,-37.3981,-36.2998,0.958519,-17.2575,12.6726,-35.3669,35.6724,48.2681,-7.55733,-12.4208,-33.1867,10.0111,-8.00235,1.00485,5.32786,32.0245,-6.9277,-7.1889,-37.3981,-36.3074,0.950886,-17.2575,12.6726,-35.3745,35.6724,48.2681,-7.55733,-12.4284,-33.1867,10.0111,-8.00235,1.00485,5.33569,32.0323,-6.91987,-7.18107,-37.3981,-36.3074,0.958714,-17.2575,12.6726,-35.3745,35.6803,48.2681,-7.55733,-12.4284,-33.1867,10.0111,-8.00235,1.00485,5.33631,32.0323,-6.91987,-7.18107,-37.3981,-36.3074,0.959343,-17.2569,12.6732,-35.3745,35.6803,48.2687,-7.55733,-12.4284,-33.1867,10.0117,-8.00235,1.00485,5.34013,32.0362,-6.91606,-7.17726,-37.3981,-36.3036,0.959343,-17.2569,12.6732,-35.3707,35.6841,48.2725,-7.55733,-12.4246,-33.1829,10.0155,-8.00235,1.00485,0.0466787
80,5.33803,32.0362,-6.91816,-7.17935,-37.4002,-36.3036,0.957252,-17.2569,12.6732,-35.3707,35.682,48.2705,-7.55942,-12.4246,-33.185,10.0134,-8.00444,1.00485,5.33594,32.0362,-6.92025,-7.18145,-37.4023,-36.3036,0.955154,-17.259,12.6732,-35.3707,35.6799,48.2705,-7.55942,-12.4246,-33.1871,10.0134,-8.00444,1.00485,5.3289,32.0291,-6.92729,-7.18848,-37.4023,-36.3106,0.948117,-17.259,12.6732,-35.3777,35.6799,48.2705,-7.55942,-12.4316,-33.1871,10.0134,-8.00444,1.00485,5.33611,32.0363,-6.92008,-7.18127,-37.4023,-36.3106,0.955326,-17.259,12.6732,-35.3777,35.6871,48.2705,-7.55942,-12.4316,-33.1871,10.0134,-8.00444,1.00485,5.33669,32.0363,-6.92008,-7.18127,-37.4023,-36.3106,0.955906,-17.2584,12.6738,-35.3777,35.6871,48.271,-7.55942,-12.4316,-33.1871,10.014,-8.00444,1.00485,5.3402,32.0398,-6.91657,-7.17776,-37.4023,-36.3071,0.955906,-17.2584,12.6738,-35.3742,35.6906,48.2746,-7.55942,-12.4281,-33.1835,10.0175,-8.00444,1.00485,0.0396264
81,5.33827,32.0398,-6.9185,-7.17969,-37.4042,-36.3071,0.953974,-17.2584,12.6738,-35.3742,35.6887,48.2726,-7.56135,-12.4281,-33.1855,10.0156,-8.00637,1.00485,5.33635,32.0398,-6.92042,-7.18162,-37.4061,-36.3071,0.952048,-17.2603,12.6738,-35.3742,35.6867,48.2726,-7.56135,-12.4281,-33.1874,10.0156,-8.00637,1.00485,5.32986,32.0334,-6.92691,-7.1881,-37.4061,-36.3136,0.945562,-17.2603,12.6738,-35.3807,35.6867,48.2726,-7.56135,-12.4346,-33.1874,10.0156,-8.00637,1.00485,5.3365,32.04,-6.92027,-7.18146,-37.4061,-36.3136,0.9522,-17.2603,12.6738,-35.3807,35.6934,48.2726,-7.56135,-12.4346,-33.1874,10.0156,-8.00637,1.00485,5.33703,32.04,-6.92027,-7.18146,-37.4061,-36.3136,0.952734,-17.2598,12.6743,-35.3807,35.6934,48.2732,-7.56135,-12.4346,-33.1874,10.0161,-8.00637,1.00485,5.34027,32.0432,-6.91703,-7.17822,-37.4061,-36.3104,0.952734,-17.2598,12.6743,-35.3775,35.6966,48.2764,-7.56135,-12.4313,-33.1842,10.0194,-8.00637,1.00485,0.033639
82,5.33849,32.0432,-6.91881,-7.18001,-37.4079,-36.3104,0.950949,-17.2598,12.6743,-35.3775,35.6948,48.2746,-7.56314,-12.4313,-33.1859,10.0176,-8.00815,1.00485,5.33672,32.0432,-6.92058,-7.18178,-37.4097,-36.3104,0.949181,-17.2615,12.6743,-35.3775,35.6931,48.2746,-7.56314,-12.4313,-33.1877,10.0176,-8.00815,1.00485,5.33074,32.0373,-6.92656,-7.18775,-37.4097,-36.3164,0.943203,-17.2615,12.6743,-35.3834,35.6931,48.2746,-7.56314,-12.4373,-33.1877,10.0176,-8.00815,1.00485,5.33686,32.0434,-6.92045,-7.18164,-37.4097,-36.3164,0.949316,-17.2615,12.6743,-35.3834,35.6992,48.2746,-7.56314,-12.4373,-33.1877,10.0176,-8.00815,1.00485,5.33735,32.0434,-6.92045,-7.18164,-37.4097,-36.3164,0.949808,-17.2611,12.6748,-35.3834,35.6992,48.2751,-7.56314,-12.4373,-33.1877,10.0181,-8.00815,1.00485,5.34034,32.0464,-6.91746,-7.17865,-37.4097,-36.3134,0.949808,-17.2611,12.6748,-35.3804,35.7022,48.2781,-7.56314,-12.4343,-33.1847,10.021,-8.00815,1.00485,0.0285558
83,5.33869,32.0464,-6.9191,-7.1803,-37.4113,-36.3134,0.948159,-17.2611,12.6748,-35.3804,35.7005,48.2764,-7.56478,-12.4343,-33.1864,10.0194,-8.0098,1.00485,5.33707,32.0464,-6.92073,-7.18192,-37.413,-36.3134,0.946536,-17.2627,12.6748,-35.3804,35.6989,48.2764,-7.56478,-12.4343,-33.188,10.0194,-8.0098,1.00485,5.33156,32.0409,-6.92624,-7.18743,-37.413,-36.3189,0.941026,-17.2627,12.6748,-35.386,35.6989,48.2764,-7.56478,-12.4398,-33.188,10.0194,-8.0098,1.00485,5.33719,32.0465,-6.92061,-7.1818,-37.413,-36.3189,0.946655,-17.2627,12.6748,-35.386,35.7045,48.2764,-7.56478,-12.4398,-33.188,10.0194,-8.0098,1.00485,5.33764,32.0465,-6.92061,-7.1818,-37.413,-36.3189,0.947108,-17.2622,12.6753,-35.386,35.7045,48.2769,-7.56478,-12.4398,-33.188,10.0199,-8.0098,1.00485,5.3404,32.0492,-6.91785,-7.17904,-37.413,-36.3161,0.947108,-17.2622,12.6753,-35.3832,35.7073,48.2797,-7.56478,-12.4371,-33.1852,10.0226,-8.0098,1.00485,0.0242403
84,5.33888,32.0492,-6.91937,-7.18057,-37.4145,-36.3161,0.945586,-17.2622,12.6753,-35.3832,35.7058,48.2781,-7.56631,-12.4371,-33.1868,10.0211,-8.01133,1.00485,5.33738,32.0492,-6.92086,-7.18206,-37.416,-36.3161,0.944094,-17.2637,12.6753,-35.3832,35.7043,48.2781,-7.56631,-12.4371,-33.1882,10.0211,-8.01133,1.00485,5.33231,32.0442,-6.92594,-7.18713,-37.416,-36.3212,0.939016,-17.2637,12.6753,-35.3883,35.7043,48.2781,-7.56631,-12.4422,-33.1882,10.0211,-8.01133,1.00485,5.33749,32.0493,-6.92076,-7.18195,-37.416,-36.3212,0.9442,-17.2637,12.6753,-35.3883,35.7095,48.2781,-7.56631,-12.4422,-33.1882,10.0211,-8.01133,1.00485,5.33791,32.0493,-6.92076,-7.18195,-37.416,-36.3212,0.944617,-17.2633,12.6757,-35.3883,35.7095,48.2786,-7.56631,-12.4422,-33.1882,10.0215,-8.01133,1.00485,5.34045,32.0519,-6.91821,-7.17941,-37.416,-36.3186,0.944617,-17.2633,12.6757,-35.3857,35.712,48.2811,-7.56631,-12.4396,-33.1857,10.0241,-8.01133,1.00485,0.0205767
85,5.33905,32.0519,-6.91962,-7.18081,-37.4174,-36.3186,0.943212,-17.2633,12.6757,-35.3857,35.7106,48.2797,-7.56771,-12.4396,-33.1871,10.0226,-8.01273,1.00485,5.33768,32.0519,-6.92099,-7.18218,-37.4187,-36.3186,0.941842,-17.2647,12.6757,-35.3857,35.7092,48.2797,-7.56771,-12.4396,-33.1885,10.0226,-8.01273,1.00485,5.333,32.0472,-6.92567,-7.18686,-37.4187,-36.3233,0.937162,-17.2647,12.6757,-35.3904,35.7092,48.2797,-7.56771,-12.4443,-33.1885,10.0226,-8.01273,1.00485,5.33777,32.052,-6.9209,-7.18209,-37.4187,-36.3233,0.941935,-17.2647,12.6757,-35.3904,35.714,48.2797,-7.56771,-12.4443,-33.1885,10.0226,-8.01273,1.00485,5.33815,32.052,-6.9209,-7.18209,-37.4187,-36.3233,0.94232,-17.2643,12.6761,-35.3904,35.714,48.2801,-7.56771,-12.4443,-33.1885,10.023,-8.01273,1.00485,5.3405,32.0543,-6.91855,-7.17974,-37.4187,-36.321,0.94232,-17.2643,12.6761,-35.3881,35.7164,48.2824,-7.56771,-12.442,-33.1861,10.0254,-8.01273,1.00485,0.0174665
86,5.3392,32.0543,-6.91985,-7.18104,-37.42,-36.321,0.941022,-17.2643,12.6761,-35.3881,35.7151,48.2811,-7.56901,-12.442,-33.1874,10.0241,-8.01403,1.00485,5.33795,32.0543,-6.9211,-7.1823,-37.4213,-36.321,0.939764,-17.2655,12.6761,-35.3881,35.7138,48.2811,-7.56901,-12.442,-33.1887,10.0241,-8.01403,1.00485,5.33363,32.05,-6.92542,-7.18661,-37.4213,-36.3253,0.93545,-17.2655,12.6761,-35.3924,35.7138,48.2811,-7.56901,-12.4463,-33.1887,10.0241,-8.01403,1.00485,5.33803,32.0544,-6.92102,-7.18222,-37.4213,-36.3253,0.939846,-17.2655,12.6761,-35.3924,35.7182,48.2811,-7.56901,-12.4463,-33.1887,10.0241,-8.01403,1.00485,5.33838,32.0544,-6.92102,-7.18222,-37.4213,-36.3253,0.940201,-17.2652,12.6764,-35.3924,35.7182,48.2815,-7.56901,-12.4463,-33.1887,10.0244,-8.01403,1.00485,5.34055,32.0566,-6.91886,-7.18005,-37.4213,-36.3231,0.940201,-17.2652,12.6764,-35.3902,35.7204,48.2836,-7.56901,-12.4441,-33.1865,10.0266,-8.01403,1.00485,0.0148262
87,5.33935,32.0566,-6.92006,-7.18125,-37.4225,-36.3231,0.939002,-17.2652,12.6764,-35.3902,35.7192,48.2824,-7.57021,-12.4441,-33.1877,10.0254,-8.01523,1.00485,5.33819,32.0566,-6.92121,-7.18241,-37.4237,-36.3231,0.937847,-17.2663,12.6764,-35.3902,35.718,48.2824,-7.57021,-12.4441,-33.1889,10.0254,-8.01523,1.00485,5.33422,32.0526,-6.92519,-7.18638,-37.4237,-36.3271,0.933871,-17.2663,12.6764,-35.3942,35.718,48.2824,-7.57021,-12.4481,-33.1889,10.0254,-8.01523,1.00485,5.33827,32.0567,-6.92114,-7.18233,-37.4237,-36.3271,0.93792,-17.2663,12.6764,-35.3942,35.7221,48.2824,-7.57021,-12.4481,-33.1889,10.0254,-8.01523,1.00485,5.33859,32.0567,-6.92114,-7.18233,-37.4237,-36.3271,0.938246,-17.266,12.6768,-35.3942,35.7221,48.2828,-7.57021,-12.4481,-33.1889,10.0257,-8.01523,1.00485,5.34059,32.0586,-6.91914,-7.18034,-37.4237,-36.3251,0.938246,-17.266,12.6768,-35.3922,35.7241,48.2848,-7.57021,-12.4461,-33.1869,10.0277,-8.01523,1.00485,0.0125848
88,5.33948,32.0586,-6.92025,-7.18144,-37.4248,-36.3251,0.937139,-17.266,12.6768,-35.3922,35.7229,48.2837,-7.57132,-12.4461,-33.188,10.0266,-8.01633,1.00485,5.33842,32.0586,-6.92131,-7.1825,-37.4258,-36.3251,0.936078,-17.2671,12.6768,-35.3922,35.7219,48.2837,-7.57132,-12.4461,-33.189,10.0266,-8.01633,1.00485,5.33476,32.055,-6.92497,-7.18617,-37.4258,-36.3288,0.932414,-17.2671,12.6768,-35.3959,35.7219,48.2837,-7.57132,-12.4497,-33.189,10.0266,-8.01633,1.00485,5.33848,32.0587,-6.92125,-7.18244,-37.4258,-36.3288,0.936142,-17.2671,12.6768,-35.3959,35.7256,48.2837,-7.57132,-12.4497,-33.189,10.0266,-8.01633,1.00485,5.33878,32.0587,-6.92125,-7.18244,-37.4258,-36.3288,0.936443,-17.2668,12.6771,-35.3959,35.7256,48.284,-7.57132,-12.4497,-33.189,10.0269,-8.01633,1.00485,5.34062,32.0606,-6.91941,-7.1806,-37.4258,-36.3269,0.936443,-17.2668,12.6771,-35.394,35.7275,48.2858,-7.57132,-12.4479,-33.1872,10.0288,-8.01633,1.00485,0.0106822
89,5.3396,32.0606,-6.92043,-7.18162,-37.4268,-36.3269,0.935421,-17.2668,12.6771,-35.394,35.7264,48.2848,-7.57234,-12.4479,-33.1882,10.0277,-8.01736,1.00485,5.33863,32.0606,-6.9214,-7.1826,-37.4278,-36.3269,0.934446,-17.2677,12.6771,-35.394,35.7255,48.2848,-7.57234,-12.4479,-33.1892,10.0277,-8.01736,1.00485,5.33525,32.0572,-6.92478,-7.18597,-37.4278,-36.3303,0.93107,-17.2677,12.6771,-35.3974,35.7255,48.2848,-7.57234,-12.4513,-33.1892,10.0277,-8.01736,1.00485,5.33869,32.0606,-6.92135,-7.18254,-37.4278,-36.3303,0.934503,-17.2677,12.6771,-35.3974,35.7289,48.2848,-7.57234,-12.4513,-33.1892,10.0277,-8.01736,1.00485,5.33896,32.0606,-6.92135,-7.18254,-37.4278,-36.3303,0.93478,-17.2675,12.6773,-35.3974,35.7289,48.2851,-7.57234,-12.4513,-33.1892,10.028,-8.01736,1.00485,5.34066,32.0623,-6.91965,-7.18084,-37.4278,-36.3286,0.93478,-17.2675,12.6773,-35.3957,35.7306,48.2868,-7.57234,-12.4496,-33.1875,10.0297,-8.01736,1.00485,0.00906705
90,5.33972,32.0623,-6.92059,-7.18179,-37.4288,-36.3286,0.933837,-17.2675,12.6773,-35.3957,35.7296,48.2858,-7.57328,-12.4496,-33.1885,10.0288,-8.0183,1.00485,5.33882,32.0623,-6.92149,-7.18268,-37.4297,-36.3286,0.932941,-17.2684,12.6773,-35.3957,35.7287,48.2858,-7.57328,-12.4496,-33.1893,10.0288,-8.0183,1.00485,5.33571,32.0592,-6.9246,-7.18579,-37.4297,-36.3317,0.929829,-17.2684,12.6773,-35.3988,35.7287,48.2858,-7.57328,-12.4527,-33.1893,10.0288,-8.0183,1.00485,5.33887,32.0624,-6.92144,-7.18263,-37.4297,-36.3317,0.932991,-17.2684,12.6773,-35.3988,35.7319,48.2858,-7.57328,-12.4527,-33.1893,10.0288,-8.0183,1.00485,5.33913,32.0624,-6.92144,-7.18263,-37.4297,-36.3317,0.933246,-17.2681,12.6776,-35.3988,35.7319,48.2861,-7.57328,-12.4527,-33.1893,10.029,-8.0183,1.00485,5.34069,32.0639,-6.91987,-7.18107,-37.4297,-36.3302,0.933246,-17.2681,12.6776,-35.3972,35.7335,48.2876,-7.57328,-12.4511,-33.1878,10.0306,-8.0183,1.00485,0.00769603
91,5.33982,32.0639,-6.92074,-7.18194,-37.4305,-36.3302,0.932376,-17.2681,12.6776,-35.3972,35.7326,48.2868,-7.57415,-12.4511,-33.1887,10.0297,-8.01917,1.00485,5.339,32.0639,-6.92157,-7.18276,-37.4314,-36.3302,0.931553,-17.2689,12.6776,-35.3972,35.7318,48.2868,-7.57415,-12.4511,-33.1895,10.0297,-8.01917,1.00485,5.33613,32.0611,-6.92443,-7.18563,-37.4314,-36.333,0.928685,-17.2689,12.6776,-35.4001,35.7318,48.2868,-7.57415,-12.454,-33.1895,10.0297,-8.01917,1.00485,5.33904,32.064,-6.92152,-7.18272,-37.4314,-36.333,0.931597,-17.2689,12.6776,-35.4001,35.7347,48.2868,-7.57415,-12.454,-33.1895,10.0297,-8.01917,1.00485,5.33928,32.064,-6.92152,-7.18272,-37.4314,-36.333,0.931832,-17.2687,12.6778,-35.4001,35.7347,48.287,-7.57415,-12.454,-33.1895,10.0299,-8.01917,1.00485,5.34072,32.0654,-6.92008,-7.18127,-37.4314,-36.3316,0.931832,-17.2687,12.6778,-35.3987,35.7361,48.2884,-7.57415,-12.4526,-33.188,10.0314,-8.01917,1.00485,0.00653223
92,5.33992,32.0654,-6.92088,-7.18208,-37.4322,-36.3316,0.931029,-17.2687,12.6778,-35.3987,35.7353,48.2876,-7.57495,-12.4526,-33.1888,10.0306,-8.01997,1.00485,5.33916,32.0654,-6.92164,-7.18283,-37.4329,-36.3316,0.930272,-17.2695,12.6778,-35.3987,35.7346,48.2876,-7.57495,-12.4526,-33.1896,10.0306,-8.01997,1.00485,5.33652,32.0628,-6.92428,-7.18547,-37.4329,-36.3342,0.92763,-17.2695,12.6778,-35.4013,35.7346,48.2876,-7.57495,-12.4552,-33.1896,10.0306,-8.01997,1.00485,5.3392,32.0654,-6.9216,-7.18279,-37.4329,-36.3342,0.930312,-17.2695,12.6778,-35.4013,35.7373,48.2876,-7.57495,-12.4552,-33.1896,10.0306,-8.01997,1.00485,5.33941,32.0654,-6.9216,-7.18279,-37.4329,-36.3342,0.930528,-17.2692,12.678,-35.4013,35.7373,48.2879,-7.57495,-12.4552,-33.1896,10.0308,-8.01997,1.00485,5.34074,32.0668,-6.92027,-7.18146,-37.4329,-36.3329,0.930528,-17.2692,12.678,-35.4,35.7386,48.2892,-7.57495,-12.4539,-33.1883,10.0321,-8.01997,1.00485,0.00554436
93,5.34,32.0668,-6.92101,-7.1822,-37.4337,-36.3329,0.929787,-17.2692,12.678,-35.4,35.7378,48.2884,-7.57569,-12.4539,-33.189,10.0314,-8.02071,1.00485,5.33931,32.0668,-6.92171,-7.1829,-37.4344,-36.3329,0.929091,-17.2699,12.678,-35.4,35.7371,48.2884,-7.57569,-12.4539,-33.1897,10.0314,-8.02071,1.00485,5.33687,32.0643,-6.92414,-7.18533,-37.4344,-36.3353,0.926656,-17.2699,12.678,-35.4024,35.7371,48.2884,-7.57569,-12.4563,-33.1897,10.0314,-8.02071,1.00485,5.33934,32.0668,-6.92167,-7.18286,-37.4344,-36.3353,0.929126,-17.2699,12.678,-35.4024,35.7396,48.2884,-7.57569,-12.4563,-33.1897,10.0314,-8.02071,1.00485,5.33954,32.0668,-6.92167,-7.18286,-37.4344,-36.3353,0.929325,-17.2697,12.6782,-35.4024,35.7396,48.2886,-7.57569,-12.4563,-33.1897,10.0316,-8.02071,1.00485,5.34077,32.068,-6.92045,-7.18164,-37.4344,-36.3341,0.929325,-17.2697,12.6782,-35.4012,35.7408,48.2899,-7.57569,-12.4551,-33.1885,10.0328,-8.02071,1.00485,0.00470583
94,5.34008,32.068,-6.92113,-7.18232,-37.435,-36.3341,0.928641,-17.2697,12.6782,-35.4012,35.7402,48.2892,-7.57638,-12.4551,-33.1892,10.0321,-8.0214,1.00485,5.33945,32.068,-6.92177,-7.18296,-37.4357,-36.3341,0.928002,-17.2704,12.6782,-35.4012,35.7395,48.2892,-7.57638,-12.4551,-33.1898,10.0321,-8.0214,1.00485,5.3372,32.0658,-6.92401,-7.18521,-37.4357,-36.3363,0.925758,-17.2704,12.6782,-35.4034,35.7395,48.2892,-7.57638,-12.4573,-33.1898,10.0321,-8.0214,1.00485,5.33948,32.0681,-6.92174,-7.18293,-37.4357,-36.3363,0.928033,-17.2704,12.6782,-35.4034,35.7418,48.2892,-7.57638,-12.4573,-33.1898,10.0321,-8.0214,1.00485,5.33966,32.0681,-6.92174,-7.18293,-37.4357,-36.3363,0.928216,-17.2702,12.6784,-35.4034,35.7418,48.2894,-7.57638,-12.4573,-33.1898,10.0323,-8.0214,1.00485,5.34079,32.0692,-6.92061,-7.1818,-37.4357,-36.3352,0.928216,-17.2702,12.6784,-35.4023,35.7429,48.2905,-7.57638,-12.4562,-33.1887,10.0335,-8.0214,1.00485,0.00399407
95,5.34016,32.0692,-6.92124,-7.18243,-37.4363,-36.3352,0.927585,-17.2702,12.6784,-35.4023,35.7423,48.2899,-7.57701,-12.4562,-33.1893,10.0328,-8.02203,1.00485,5.33957,32.0692,-6.92183,-7.18302,-37.4369,-36.3352,0.926998,-17.2708,12.6784,-35.4023,35.7417,48.2899,-7.57701,-12.4562,-33.1899,10.0328,-8.02203,1.00485,5.3375,32.0671,-6.92389,-7.18509,-37.4369,-36.3373,0.92493,-17.2708,12.6784,-35.4044,35.7417,48.2899,-7.57701,-12.4583,-33.1899,10.0328,-8.02203,1.00485,5.3396,32.0692,-6.9218,-7.18299,-37.4369,-36.3373,0.927025,-17.2708,12.6784,-35.4044,35.7438,48.2899,-7.57701,-12.4583,-33.1899,10.0328,-8.02203,1.00485,5.33977,32.0692,-6.9218,-7.18299,-37.4369,-36.3373,0.927194,-17.2706,12.6786,-35.4044,35.7438,48.29,-7.57701,-12.4583,-33.1899,10.033,-8.02203,1.00485,5.34081,32.0703,-6.92076,-7.18195,-37.4369,-36.3362,0.927194,-17.2706,12.6786,-35.4033,35.7448,48.2911,-7.57701,-12.4572,-33.1888,10.034,-8.02203,1.00485,0.00338992
96,5.34023,32.0703,-6.92134,-7.18253,-37.4375,-36.3362,0.926612,-17.2706,12.6786,-35.4033,35.7443,48.2905,-7.57759,-12.4572,-33.1894,10.0334,-8.02261,1.00485,5.33969,32.0703,-6.92188,-7.18307,-37.438,-36.3362,0.926072,-17.2712,12.6786,-35.4033,35.7437,48.2905,-7.57759,-12.4572,-33.19,10.0334,-8.02261,1.00485,5.33778,32.0684,-6.92378,-7.18498,-37.438,-36.3381,0.924166,-17.2712,12.6786,-35.4052,35.7437,48.2905,-7.57759,-12.4591,-33.19,10.0334,-8.02261,1.00485,5.33971,32.0703,-6.92185,-7.18305,-37.438,-36.3381,0.926095,-17.2712,12.6786,-35.4052,35.7457,48.2905,-7.57759,-12.4591,-33.19,10.0334,-8.02261,1.00485,5.33987,32.0703,-6.92185,-7.18305,-37.438,-36.3381,0.926251,-17.271,12.6788,-35.4052,35.7457,48.2907,-7.57759,-12.4591,-33.19,10.0336,-8.02261,1.00485,5.34083,32.0713,-6.92089,-7.18209,-37.438,-36.3372,0.926251,-17.271,12.6788,-35.4043,35.7466,48.2916,-7.57759,-12.4582,-33.189,10.0346,-8.02261,1.00485,0.00287713
97,5.34029,32.0713,-6.92143,-7.18262,-37.4386,-36.3372,0.925714,-17.271,12.6788,-35.4043,35.7461,48.2911,-7.57813,-12.4582,-33.1895,10.034,-8.02315,1.00485,5.33979,32.0713,-6.92193,-7.18312,-37.439,-36.3372,0.925217,-17.2715,12.6788,-35.4043,35.7456,48.2911,-7.57813,-12.4582,-33.19,10.034,-8.02315,1.00485,5.33804,32.0695,-6.92368,-7.18488,-37.439,-36.3389,0.923462,-17.2715,12.6788,-35.406,35.7456,48.2911,-7.57813,-12.4599,-33.19,10.034,-8.02315,1.00485,5.33982,32.0713,-6.92191,-7.1831,-37.439,-36.3389,0.925238,-17.2715,12.6788,-35.406,35.7474,48.2911,-7.57813,-12.4599,-33.19,10.034,-8.02315,1.00485,5.33996,32.0713,-6.92191,-7.1831,-37.439,-36.3389,0.925382,-17.2714,12.6789,-35.406,35.7474,48.2912,-7.57813,-12.4599,-33.19,10.0342,-8.02315,1.00485,5.34084,32.0722,-6.92102,-7.18221,-37.439,-36.3381,0.925382,-17.2714,12.6789,-35.4051,35.7482,48.2921,-7.57813,-12.459,-33.1892,10.0351,-8.02315,1.00485,0.00244188
98,5.34035,32.0722,-6.92152,-7.18271,-37.4395,-36.3381,0.924886,-17.2714,12.6789,-35.4051,35.7477,48.2916,-7.57862,-12.459,-33.1896,10.0346,-8.02364,1.00485,5.33989,32.0722,-6.92197,-7.18317,-37.44,-36.3381,0.92443,-17.2718,12.6789,-35.4051,35.7473,48.2916,-7.57862,-12.459,-33.1901,10.0346,-8.02364,1.00485,5.33827,32.0705,-6.92359,-7.18478,-37.44,-36.3397,0.922812,-17.2718,12.6789,-35.4068,35.7473,48.2916,-7.57862,-12.4606,-33.1901,10.0346,-8.02364,1.00485,5.33991,32.0722,-6.92195,-7.18315,-37.44,-36.3397,0.924448,-17.2718,12.6789,-35.4068,35.7489,48.2916,-7.57862,-12.4606,-33.1901,10.0346,-8.02364,1.00485,5.34004,32.0722,-6.92195,-7.18315,-37.44,-36.3397,0.92458,-17.2717,12.679,-35.4068,35.7489,48.2917,-7.57862,-12.4606,-33.1901,10.0347,-8.02364,1.00485,5.34086,32.073,-6.92114,-7.18233,-37.44,-36.3389,0.92458,-17.2717,12.679,-35.4059,35.7497,48.2926,-7.57862,-12.4598,-33.1893,10.0355,-8.02364,1.00485,0.00207246
99,5.3404,32.073,-6.92159,-7.18279,-37.4405,-36.3389,0.924123,-17.2717,12.679,-35.4059,35.7493,48.2921,-7.57908,-12.4598,-33.1897,10.0351,-8.0241,1.00485,5.33998,32.073,-6.92201,-7.18321,-37.4409,-36.3389,0.923704,-17.2721,12.679,-35.4059,35.7489,48.2921,-7.57908,-12.4598,-33.1902,10.0351,-8.0241,1.00485,5.33849,32.0715,-6.9235,-7.1847,-37.4409,-36.3403,0.922213,-17.2721,12.679,-35.4074,35.7489,48.2921,-7.57908,-12.4613,-33.1902,10.0351,-8.0241,1.00485,5.34,32.073,-6.922,-7.18319,-37.4409,-36.3403,0.92372,-17.2721,12.679,-35.4074,35.7504,48.2921,-7.57908,-12.4613,-33.1902,10.0351,-8.0241,1.00485,5.34012,32.073,-6.922,-7.18319,-37.4409,-36.3403,0.923842,-17.272,12.6792,-35.4074,35.7504,48.2922,-7.57908,-12.4613,-33.1902,10.0352,-8.0241,1.00485,5.34087,32.0738,-6.92125,-7.18244,-37.4409,-36.3396,0.923842,-17.272,12.6792,-35.4067,35.7511,48.293,-7.57908,-12.4606,-33.1894,10.0359,-8.0241,1.00485,0.0017589
