1,0.0707573,0.0824774,3.249,6.91809,0.501562,0.0948707,0.78691,0.737723,0.141943,1.94251,0.943383,0.953736,0.0788839,1.64119,2.21372,0.718808,1.20181,0.472189,-4.11931,0.0824774,-0.941059,2.72803,-3.6885,0.0948707,-3.40315,-3.45234,0.141943,1.94251,-3.24668,0.953736,0.0788839,1.64119,-1.97634,0.718808,1.20181,0.472189,-7.34295,-3.14117,-4.1647,-0.495612,-3.6885,-3.12877,-6.6268,-3.45234,0.141943,-1.28113,-3.24668,0.953736,0.0788839,-1.58245,-1.97634,0.718808,1.20181,0.472189,-2.61973,1.58205,0.558515,4.22761,-3.6885,-3.12877,-1.90358,-3.45234,0.141943,-1.28113,1.47654,0.953736,0.0788839,-1.58245,-1.97634,0.718808,1.20181,0.472189,1.05589,1.58205,0.558515,4.22761,-3.6885,-3.12877,1.77204,0.223279,3.81756,-1.28113,1.47654,4.62936,0.0788839,-1.58245,-1.97634,4.39443,1.20181,0.472189,0.502794,1.02896,0.00542135,3.67451,-3.6885,-3.68187,1.77204,0.223279,3.81756,-1.83422,0.923442,4.07626,0.0788839,-2.13554,-2.52944,3.84133,1.20181,0.472189,20857
2,-0.0449038,1.02896,-0.542276,3.12681,-4.2362,-3.68187,1.22434,0.223279,3.81756,-1.83422,0.375744,3.52856,-0.468814,-2.13554,-3.07713,3.29364,0.654111,0.472189,-3.21433,1.02896,-3.7117,-0.0426124,-7.40563,-3.68187,-1.94508,-2.94615,3.81756,-1.83422,-2.79368,3.52856,-0.468814,-2.13554,-6.24656,3.29364,0.654111,0.472189,-5.68453,-1.44124,-6.1819,-2.51281,-7.40563,-6.15207,-4.41528,-2.94615,3.81756,-4.30442,-2.79368,3.52856,-0.468814,-4.60574,-6.24656,3.29364,0.654111,0.472189,-1.07178,3.17151,-1.56915,2.09993,-7.40563,-6.15207,0.197464,-2.94615,3.81756,-4.30442,1.81907,3.52856,-0.468814,-4.60574,-6.24656,3.29364,0.654111,0.472189,1.8827,3.17151,-1.56915,2.09993,-7.40563,-6.15207,3.15195,0.00833691,6.77205,-4.30442,1.81907,6.48305,-0.468814,-4.60574,-6.24656,6.24812,0.654111,0.472189,1.9479,3.2367,-1.50396,2.16513,-7.40563,-6.08687,3.15195,0.00833691,6.77205,-4.23922,1.88426,6.54825,-0.468814,-4.54054,-6.18136,6.31332,0.654111,0.472189,15005.6
3,1.55317,3.2367,-1.89869,1.7704,-7.80036,-6.08687,2.75722,0.00833691,6.77205,-4.23922,1.48953,6.15352,-0.863545,-4.54054,-6.57609,5.91859,0.25938,0.472189,-1.29703,3.2367,-4.74888,-1.07979,-10.6506,-6.08687,-0.0929794,-2.84186,6.77205,-4.23922,-1.36066,6.15352,-0.863545,-4.54054,-9.42629,5.91859,0.25938,0.472189,-3.58322,0.950516,-7.03507,-3.36598,-10.6506,-8.37306,-2.37917,-2.84186,6.77205,-6.52541,-1.36066,6.15352,-0.863545,-6.82673,-9.42629,5.91859,0.25938,0.472189,0.681984,5.21571,-2.76987,0.899218,-10.6506,-8.37306,1.88603,-2.84186,6.77205,-6.52541,2.90454,6.15352,-0.863545,-6.82673,-9.42629,5.91859,0.25938,0.472189,2.98363,5.21571,-2.76987,0.899218,-10.6506,-8.37306,4.18768,-0.540209,9.0737,-6.52541,2.90454,8.45517,-0.863545,-6.82673,-9.42629,8.22024,0.25938,0.472189,3.2749,5.50698,-2.4786,1.19049,-10.6506,-8.08179,4.18768,-0.540209,9.0737,-6.23414,3.19581,8.74643,-0.863545,-6.53546,-9.13502,8.51151,0.25938,0.472189,12002.5
4,2.92832,5.50698,-2.82518,0.843905,-10.9971,-8.08179,3.8411,-0.540209,9.0737,-6.23414,2.84922,8.39985,-1.21013,-6.53546,-9.4816,8.16492,-0.0872021,0.472189,0.338409,5.50698,-5.4151,-1.74601,-13.587,-8.08179,1.25119,-3.13012,9.0737,-6.23414,0.259312,8.39985,-1.21013,-6.53546,-12.0715,8.16492,-0.0872021,0.472189,-1.83293,3.33565,-7.58644,-3.91735,-13.587,-10.2531,-0.920151,-3.13012,9.0737,-8.40548,0.259312,8.39985,-1.21013,-8.7068,-12.0715,8.16492,-0.0872021,0.472189,2.09273,7.26131,-3.66077,0.0083161,-13.587,-10.2531,3.00551,-3.13012,9.0737,-8.40548,4.18497,8.39985,-1.21013,-8.7068,-12.0715,8.16492,-0.0872021,0.472189,3.89237,7.26131,-3.66077,0.0083161,-13.587,-10.2531,4.80514,-1.33049,10.8733,-8.40548,4.18497,10.1995,-1.21013,-8.7068,-12.0715,9.96456,-0.0872021,0.472189,4.31385,7.68279,-3.23929,0.429799,-13.587,-9.83164,4.80514,-1.33049,10.8733,-7.984,4.60646,10.621,-1.21013,-8.28532,-11.65,10.386,-0.0872021,0.472189,9829.87
5,4.01448,7.68279,-3.53866,0.130434,-13.8864,-9.83164,4.50578,-1.33049,10.8733,-7.984,4.30709,10.3216,-1.50949,-8.28532,-11.9494,10.0867,-0.386566,0.472189,1.6671,7.68279,-5.88604,-2.21695,-16.2338,-9.83164,2.1584,-3.67787,10.8733,-7.984,1.95971,10.3216,-1.50949,-8.28532,-14.2968,10.0867,-0.386566,0.472189,-0.40536,5.61033,-7.9585,-4.28941,-16.2338,-11.9041,0.0859353,-3.67787,10.8733,-10.0565,1.95971,10.3216,-1.50949,-10.3578,-14.2968,10.0867,-0.386566,0.472189,3.2056,9.22129,-4.34754,-0.678449,-16.2338,-11.9041,3.6969,-3.67787,10.8733,-10.0565,5.57067,10.3216,-1.50949,-10.3578,-14.2968,10.0867,-0.386566,0.472189,4.62192,9.22129,-4.34754,-0.678449,-16.2338,-11.9041,5.11322,-2.26155,12.2896,-10.0565,5.57067,11.7379,-1.50949,-10.3578,-14.2968,11.503,-0.386566,0.472189,5.12116,9.72053,-3.8483,-0.179209,-16.2338,-11.4049,5.11322,-2.26155,12.2896,-9.55722,6.06991,12.2372,-1.50949,-9.85854,-13.7975,12.0022,-0.386566,0.472189,8153.31
6,4.86623,9.72053,-4.10323,-0.434142,-16.4887,-11.4049,4.85828,-2.26155,12.2896,-9.55722,5.81498,11.9822,-1.76442,-9.85854,-14.0525,11.7473,-0.641499,0.472189,2.74404,9.72053,-6.22542,-2.55633,-18.6109,-11.4049,2.7361,-4.38373,12.2896,-9.55722,3.69279,11.9822,-1.76442,-9.85854,-16.1747,11.7473,-0.641499,0.472189,0.766357,7.74284,-8.2031,-4.53401,-18.6109,-13.3825,0.758413,-4.38373,12.2896,-11.5349,3.69279,11.9822,-1.76442,-11.8362,-16.1747,11.7473,-0.641499,0.472189,4.08729,11.0638,-4.88217,-1.21308,-18.6109,-13.3825,4.07934,-4.38373,12.2896,-11.5349,7.01372,11.9822,-1.76442,-11.8362,-16.1747,11.7473,-0.641499,0.472189,5.20939,11.0638,-4.88217,-1.21308,-18.6109,-13.3825,5.20145,-3.26163,13.4118,-11.5349,7.01372,13.1043,-1.76442,-11.8362,-16.1747,12.8694,-0.641499,0.472189,5.75178,11.6062,-4.33979,-0.670697,-18.6109,-12.8402,5.20145,-3.26163,13.4118,-10.9925,7.55611,13.6467,-1.76442,-11.2938,-15.6323,13.4118,-0.641499,0.472189,6818.23
7,5.53465,11.6062,-4.55691,-0.887823,-18.828,-12.8402,4.98432,-3.26163,13.4118,-10.9925,7.33898,13.4296,-1.98155,-11.2938,-15.8494,13.1947,-0.858625,0.472189,3.61942,11.6062,-6.47214,-2.80305,-20.7433,-12.8402,3.06909,-5.17686,13.4118,-10.9925,5.42375,13.4296,-1.98155,-11.2938,-17.7646,13.1947,-0.858625,0.472189,1.73648,9.72322,-8.35509,-4.686,-20.7433,-14.7231,1.18615,-5.17686,13.4118,-12.8755,5.42375,13.4296,-1.98155,-13.1768,-17.7646,13.1947,-0.858625,0.472189,4.79045,12.7772,-5.30111,-1.63202,-20.7433,-14.7231,4.24012,-5.17686,13.4118,-12.8755,8.47772,13.4296,-1.98155,-13.1768,-17.7646,13.1947,-0.858625,0.472189,5.68547,12.7772,-5.30111,-1.63202,-20.7433,-14.7231,5.13514,-4.28184,14.3068,-12.8755,8.47772,14.3246,-1.98155,-13.1768,-17.7646,14.0897,-0.858625,0.472189,6.2476,13.3393,-4.73898,-1.06989,-20.7433,-14.161,5.13514,-4.28184,14.3068,-12.3133,9.03986,14.8867,-1.98155,-12.6146,-17.2025,14.6518,-0.858625,0.472189,5732.32
8,6.06058,13.3393,-4.926,-1.25691,-20.9303,-14.161,4.94812,-4.28184,14.3068,-12.3133,8.85284,14.6997,-2.16857,-12.6146,-17.3895,14.4648,-1.04565,0.472189,4.33408,13.3393,-6.6525,-2.98341,-22.6568,-14.161,3.22162,-6.00834,14.3068,-12.3133,7.12634,14.6997,-2.16857,-12.6146,-19.116,14.4648,-1.04565,0.472189,2.54685,11.5521,-8.43973,-4.77064,-22.6568,-15.9482,1.43438,-6.00834,14.3068,-14.1006,7.12634,14.6997,-2.16857,-14.4019,-19.116,14.4648,-1.04565,0.472189,5.35522,14.3605,-5.63136,-1.96227,-22.6568,-15.9482,4.24276,-6.00834,14.3068,-14.1006,9.93471,14.6997,-2.16857,-14.4019,-19.116,14.4648,-1.04565,0.472189,6.07406,14.3605,-5.63136,-1.96227,-22.6568,-15.9482,4.96159,-5.28951,15.0256,-14.1006,9.93471,15.4186,-2.16857,-14.4019,-19.116,15.1836,-1.04565,0.472189,6.64011,14.9265,-5.06531,-1.39622,-22.6568,-15.3822,4.96159,-5.28951,15.0256,-13.5345,10.5008,15.9846,-2.16857,-13.8358,-18.55,15.7497,-1.04565,0.472189,4836.03
9,6.47598,14.9265,-5.22944,-1.56035,-22.8209,-15.3822,4.79747,-5.28951,15.0256,-13.5345,10.3366,15.8205,-2.3327,-13.8358,-18.7141,15.5856,-1.20977,0.472189,4.92066,14.9265,-6.78476,-3.11567,-24.3762,-15.3822,3.24215,-6.84483,15.0256,-13.5345,8.78131,15.8205,-2.3327,-13.8358,-20.2694,15.5856,-1.20977,0.472189,3.22975,13.2356,-8.47567,-4.80658,-24.3762,-17.0731,1.55124,-6.84483,15.0256,-15.2254,8.78131,15.8205,-2.3327,-15.5267,-20.2694,15.5856,-1.20977,0.472189,5.81221,15.8181,-5.8932,-2.22411,-24.3762,-17.0731,4.1337,-6.84483,15.0256,-15.2254,11.3638,15.8205,-2.3327,-15.5267,-20.2694,15.5856,-1.20977,0.472189,6.39373,15.8181,-5.8932,-2.22411,-24.3762,-17.0731,4.71522,-6.26331,15.6071,-15.2254,11.3638,16.402,-2.3327,-15.5267,-20.2694,16.1671,-1.20977,0.472189,6.95302,16.3774,-5.33391,-1.66482,-24.3762,-16.5138,4.71522,-6.26331,15.6071,-14.6661,11.9231,16.9613,-2.3327,-14.9674,-19.7101,16.7264,-1.20977,0.472189,4088.88
10,6.80572,16.3774,-5.48121,-1.81212,-24.5235,-16.5138,4.56791,-6.26331,15.6071,-14.6661,11.7758,16.814,-2.48,-14.9674,-19.8574,16.5791,-1.35707,0.472189,5.40507,16.3774,-6.88187,-3.21278,-25.9242,-16.5138,3.16726,-7.66397,15.6071,-14.6661,10.3751,16.814,-2.48,-14.9674,-21.2581,16.5791,-1.35707,0.472189,3.81019,14.7825,-8.47674,-4.80765,-25.9242,-18.1086,1.57239,-7.66397,15.6071,-16.261,10.3751,16.814,-2.48,-16.5623,-21.2581,16.5791,-1.35707,0.472189,6.18487,17.1572,-6.10206,-2.43297,-25.9242,-18.1086,3.94706,-7.66397,15.6071,-16.261,12.7498,16.814,-2.48,-16.5623,-21.2581,16.5791,-1.35707,0.472189,6.65886,17.1572,-6.10206,-2.43297,-25.9242,-18.1086,4.42106,-7.18998,16.0811,-16.261,12.7498,17.288,-2.48,-16.5623,-21.2581,17.0531,-1.35707,0.472189,7.20432,17.7026,-5.55661,-1.88752,-25.9242,-17.5632,4.42106,-7.18998,16.0811,-15.7155,13.2952,17.8334,-2.48,-16.0169,-20.7126,17.5985,-1.35707,0.472189,3461.95
11,7.06906,17.7026,-5.69186,-2.02277,-26.0594,-17.5632,4.2858,-7.18998,16.0811,-15.7155,13.16,17.6982,-2.61525,-16.0169,-20.8479,17.4633,-1.49233,0.472189,5.80779,17.7026,-6.95313,-3.28404,-27.3207,-17.5632,3.02453,-8.45125,16.0811,-15.7155,11.8987,17.6982,-2.61525,-16.0169,-22.1091,17.4633,-1.49233,0.472189,4.30767,16.2025,-8.45325,-4.78416,-27.3207,-19.0633,1.52441,-8.45125,16.0811,-17.2157,11.8987,17.6982,-2.61525,-17.517,-22.1091,17.4633,-1.49233,0.472189,6.49123,18.3861,-6.26969,-2.6006,-27.3207,-19.0633,3.70797,-8.45125,16.0811,-17.2157,14.0823,17.6982,-2.61525,-17.517,-22.1091,17.4633,-1.49233,0.472189,6.88065,18.3861,-6.26969,-2.6006,-27.3207,-19.0633,4.09739,-8.06184,16.4705,-17.2157,14.0823,18.0876,-2.61525,-17.517,-22.1091,17.8527,-1.49233,0.472189,7.40765,18.9131,-5.74268,-2.07359,-27.3207,-18.5363,4.09739,-8.06184,16.4705,-16.6887,14.6093,18.6146,-2.61525,-16.99,-21.5821,18.3797,-1.49233,0.472189,2933.68
12,7.28088,18.9131,-5.86946,-2.20037,-27.4475,-18.5363,3.97061,-8.06184,16.4705,-16.6887,14.4825,18.4878,-2.74202,-16.99,-21.7089,18.2529,-1.6191,0.472189,6.145,18.9131,-7.00534,-3.33625,-28.5834,-18.5363,2.83473,-9.19772,16.4705,-16.6887,13.3466,18.4878,-2.74202,-16.99,-22.8448,18.2529,-1.6191,0.472189,4.73743,17.5055,-8.41291,-4.74382,-28.5834,-19.9439,1.42716,-9.19772,16.4705,-18.0962,13.3466,18.4878,-2.74202,-18.3975,-22.8448,18.2529,-1.6191,0.472189,6.74521,19.5133,-6.40513,-2.73604,-28.5834,-19.9439,3.43494,-9.19772,16.4705,-18.0962,15.3544,18.4878,-2.74202,-18.3975,-22.8448,18.2529,-1.6191,0.472189,7.06778,19.5133,-6.40513,-2.73604,-28.5834,-19.9439,3.75751,-8.87515,16.7931,-18.0962,15.3544,18.8104,-2.74202,-18.3975,-22.8448,18.5755,-1.6191,0.472189,7.57346,20.019,-5.89945,-2.23036,-28.5834,-19.4382,3.75751,-8.87515,16.7931,-17.5905,15.8601,19.3161,-2.74202,-17.8919,-22.3391,19.0812,-1.6191,0.472189,2487.36
13,7.45263,20.019,-6.02028,-2.35119,-28.7042,-19.4382,3.63668,-8.87515,16.7931,-17.5905,15.7393,19.1953,-2.86285,-17.8919,-22.4599,18.9603,-1.73993,0.472189,6.42942,20.019,-7.04349,-3.3744,-29.7274,-19.4382,2.61347,-9.89836,16.7931,-17.5905,14.716,19.1953,-2.86285,-17.8919,-23.4832,18.9603,-1.73993,0.472189,5.11146,18.701,-8.36146,-4.69237,-29.7274,-20.7562,1.29551,-9.89836,16.7931,-18.9085,14.716,19.1953,-2.86285,-19.2098,-23.4832,18.9603,-1.73993,0.472189,6.95756,20.5471,-6.51535,-2.84626,-29.7274,-20.7562,3.14161,-9.89836,16.7931,-18.9085,16.5622,19.1953,-2.86285,-19.2098,-23.4832,18.9603,-1.73993,0.472189,7.22703,20.5471,-6.51535,-2.84626,-29.7274,-20.7562,3.41108,-9.62889,17.0626,-18.9085,16.5622,19.4647,-2.86285,-19.2098,-23.4832,19.2298,-1.73993,0.472189,7.70972,21.0298,-6.03266,-2.36357,-29.7274,-20.2735,3.41108,-9.62889,17.0626,-18.4258,17.0448,19.9474,-2.86285,-18.7271,-23.0005,19.7125,-1.73993,0.472189,2109.65
14,7.59313,21.0298,-6.14926,-2.48017,-29.844,-20.2735,3.29449,-9.62889,17.0626,-18.4258,16.9282,19.8308,-2.97944,-18.7271,-23.1171,19.5959,-1.85652,0.472189,6.6711,21.0298,-7.07128,-3.40219,-30.766,-20.2735,2.37246,-10.5509,17.0626,-18.4258,16.0062,19.8308,-2.97944,-18.7271,-24.0391,19.5959,-1.85652,0.472189,5.43924,19.7979,-8.30314,-4.63405,-30.766,-21.5053,1.1406,-10.5509,17.0626,-19.6577,16.0062,19.8308,-2.97944,-19.959,-24.0391,19.5959,-1.85652,0.472189,7.13664,21.4953,-6.60574,-2.93665,-30.766,-21.5053,2.838,-10.5509,17.0626,-19.6577,17.7036,19.8308,-2.97944,-19.959,-24.0391,19.5959,-1.85652,0.472189,7.3637,21.4953,-6.60574,-2.93665,-30.766,-21.5053,3.06505,-10.3239,17.2896,-19.6577,17.7036,20.0579,-2.97944,-19.959,-24.0391,19.823,-1.85652,0.472189,7.82258,21.9542,-6.14685,-2.47776,-30.766,-21.0464,3.06505,-10.3239,17.2896,-19.1988,18.1625,20.5168,-2.97944,-19.5001,-23.5802,20.2818,-1.85652,0.472189,1789.7
15,7.70914,21.9542,-6.2603,-2.59121,-30.8795,-21.0464,2.95161,-10.3239,17.2896,-19.1988,18.0491,20.4033,-3.09289,-19.5001,-23.6936,20.1684,-1.96996,0.472189,6.87796,21.9542,-7.09148,-3.42239,-31.7107,-21.0464,2.12043,-11.155,17.2896,-19.1988,17.2179,20.4033,-3.09289,-19.5001,-24.5248,20.1684,-1.96996,0.472189,5.72832,20.8046,-8.24111,-4.57202,-31.7107,-22.1961,0.970793,-11.155,17.2896,-20.3484,17.2179,20.4033,-3.09289,-20.6497,-24.5248,20.1684,-1.96996,0.472189,7.28896,22.3652,-6.68047,-3.01138,-31.7107,-22.1961,2.53143,-11.155,17.2896,-20.3484,18.7785,20.4033,-3.09289,-20.6497,-24.5248,20.1684,-1.96996,0.472189,7.48192,22.3652,-6.68047,-3.01138,-31.7107,-22.1961,2.72439,-10.9621,17.4826,-20.3484,18.7785,20.5963,-3.09289,-20.6497,-24.5248,20.3614,-1.96996,0.472189,7.91679,22.8001,-6.24561,-2.57652,-31.7107,-21.7612,2.72439,-10.9621,17.4826,-19.9136,19.2134,21.0312,-3.09289,-20.2149,-24.09,20.7962,-1.96996,0.472189,1518.51
16,7.80588,22.8001,-6.35652,-2.68743,-31.8216,-21.7612,2.61349,-10.9621,17.4826,-19.9136,19.1025,20.9202,-3.2038,-20.2149,-24.2009,20.6853,-2.08087,0.472189,7.05625,22.8001,-7.10615,-3.43706,-32.5712,-21.7612,1.86385,-11.7117,17.4826,-19.9136,18.3528,20.9202,-3.2038,-20.2149,-24.9505,20.6853,-2.08087,0.472189,5.98473,21.7286,-8.17767,-4.50858,-32.5712,-22.8327,0.792334,-11.7117,17.4826,-20.9851,18.3528,20.9202,-3.2038,-21.2864,-24.9505,20.6853,-2.08087,0.472189,7.4196,23.1634,-6.74279,-3.0737,-32.5712,-22.8327,2.22721,-11.7117,17.4826,-20.9851,19.7877,20.9202,-3.2038,-21.2864,-24.9505,20.6853,-2.08087,0.472189,7.58498,23.1634,-6.74279,-3.0737,-32.5712,-22.8327,2.39258,-11.5463,17.648,-20.9851,19.7877,21.0856,-3.2038,-21.2864,-24.9505,20.8507,-2.08087,0.472189,7.99602,23.5745,-6.33175,-2.66266,-32.5712,-22.4217,2.39258,-11.5463,17.648,-20.574,20.1988,21.4967,-3.2038,-20.8754,-24.5395,21.2617,-2.08087,0.472189,1288.57
17,7.88735,23.5745,-6.44042,-2.77133,-32.6799,-22.4217,2.28392,-11.5463,17.648,-20.574,20.0901,21.388,-3.31246,-20.8754,-24.6481,21.1531,-2.18954,0.472189,7.21095,23.5745,-7.11682,-3.44773,-33.3563,-22.4217,1.60751,-12.2227,17.648,-20.574,19.4137,21.388,-3.31246,-20.8754,-25.3245,21.1531,-2.18954,0.472189,6.21332,22.5769,-8.11445,-4.44536,-33.3563,-23.4193,0.609884,-12.2227,17.648,-21.5717,19.4137,21.388,-3.31246,-21.873,-25.3245,21.1531,-2.18954,0.472189,7.53254,23.8961,-6.79523,-3.12614,-33.3563,-23.4193,1.92911,-12.2227,17.648,-21.5717,20.7329,21.388,-3.31246,-21.873,-25.3245,21.1531,-2.18954,0.472189,7.67544,23.8961,-6.79523,-3.12614,-33.3563,-23.4193,2.072,-12.0799,17.7909,-21.5717,20.7329,21.5309,-3.31246,-21.873,-25.3245,21.296,-2.18954,0.472189,8.06314,24.2838,-6.40753,-2.73844,-33.3563,-23.0316,2.072,-12.0799,17.7909,-21.184,21.1206,21.9186,-3.31246,-21.4853,-24.9368,21.6837,-2.18954,0.472189,1093.57
18,7.95664,24.2838,-6.51402,-2.84493,-33.4628,-23.0316,1.96551,-12.0799,17.7909,-21.184,21.0141,21.8121,-3.41896,-21.4853,-25.0433,21.5772,-2.29603,0.472189,7.34601,24.2838,-7.12466,-3.45557,-34.0734,-23.0316,1.35488,-12.6905,17.7909,-21.184,20.4035,21.8121,-3.41896,-21.4853,-25.654,21.5772,-2.29603,0.472189,6.41803,23.3558,-8.05263,-4.38354,-34.0734,-23.9596,0.4269,-12.6905,17.7909,-22.1119,20.4035,21.8121,-3.41896,-22.4133,-25.654,21.5772,-2.29603,0.472189,7.63092,24.5687,-6.83975,-3.17066,-34.0734,-23.9596,1.63979,-12.6905,17.7909,-22.1119,21.6164,21.8121,-3.41896,-22.4133,-25.654,21.5772,-2.29603,0.472189,7.75534,24.5687,-6.83975,-3.17066,-34.0734,-23.9596,1.76421,-12.5661,17.9153,-22.1119,21.6164,21.9365,-3.41896,-22.4133,-25.654,21.7016,-2.29603,0.472189,8.12038,24.9337,-6.47471,-2.80562,-34.0734,-23.5946,1.76421,-12.5661,17.9153,-21.7469,21.9814,22.3016,-3.41896,-22.0482,-25.2889,22.0666,-2.29603,0.472189,928.164
19,8.01613,24.9337,-6.57896,-2.90987,-34.1777,-23.5946,1.65996,-12.5661,17.9153,-21.7469,21.8772,22.1973,-3.52321,-22.0482,-25.3932,21.9624,-2.40029,0.472189,7.4646,24.9337,-7.13049,-3.4614,-34.7292,-23.5946,1.10843,-13.1176,17.9153,-21.7469,21.3256,22.1973,-3.52321,-22.0482,-25.9447,21.9624,-2.40029,0.472189,6.60209,24.0712,-7.993,-4.32391,-34.7292,-24.4571,0.245922,-13.1176,17.9153,-22.6094,21.3256,22.1973,-3.52321,-22.9107,-25.9447,21.9624,-2.40029,0.472189,7.7172,25.1863,-6.87789,-3.2088,-34.7292,-24.4571,1.36104,-13.1176,17.9153,-22.6094,22.4407,22.1973,-3.52321,-22.9107,-25.9447,21.9624,-2.40029,0.472189,7.82634,25.1863,-6.87789,-3.2088,-34.7292,-24.4571,1.47017,-13.0085,18.0244,-22.6094,22.4407,22.3064,-3.52321,-22.9107,-25.9447,22.0715,-2.40029,0.472189,8.16952,25.5295,-6.53471,-2.86562,-34.7292,-24.1139,1.47017,-13.0085,18.0244,-22.2662,22.7839,22.6496,-3.52321,-22.5676,-25.6015,22.4147,-2.40029,0.472189,787.853
20,8.06766,25.5295,-6.63656,-2.96747,-34.831,-24.1139,1.36831,-13.0085,18.0244,-22.2662,22.6821,22.5478,-3.62507,-22.5676,-25.7034,22.3128,-2.50214,0.472189,7.56927,25.5295,-7.13496,-3.46587,-35.3294,-24.1139,0.869917,-13.5069,18.0244,-22.2662,22.1837,22.5478,-3.62507,-22.5676,-26.2018,22.3128,-2.50214,0.472189,6.76814,24.7284,-7.93608,-4.26699,-35.3294,-24.915,0.0687953,-13.5069,18.0244,-23.0674,22.1837,22.5478,-3.62507,-23.3687,-26.2018,22.3128,-2.50214,0.472189,7.79337,25.7536,-6.91085,-3.24176,-35.3294,-24.915,1.09402,-13.5069,18.0244,-23.0674,23.2089,22.5478,-3.62507,-23.3687,-26.2018,22.3128,-2.50214,0.472189,7.88973,25.7536,-6.91085,-3.24176,-35.3294,-24.915,1.19038,-13.4105,18.1208,-23.0674,23.2089,22.6441,-3.62507,-23.3687,-26.2018,22.4092,-2.50214,0.472189,8.21194,26.0758,-6.58864,-2.91955,-35.3294,-24.5928,1.19038,-13.4105,18.1208,-22.7451,23.5311,22.9663,-3.62507,-23.0465,-25.8796,22.7314,-2.50214,0.472189,668.815
21,8.11268,26.0758,-6.6879,-3.01881,-35.4287,-24.5928,1.09111,-13.4105,18.1208,-22.7451,23.4318,22.8671,-3.72433,-23.0465,-25.9788,22.6321,-2.60141,0.472189,7.66207,26.0758,-7.13851,-3.46942,-35.8793,-24.5928,0.640508,-13.8611,18.1208,-22.7451,22.9812,22.8671,-3.72433,-23.0465,-26.4294,22.6321,-2.60141,0.472189,6.9184,25.3322,-7.88218,-4.21309,-35.8793,-25.3365,-0.103163,-13.8611,18.1208,-23.4888,22.9812,22.8671,-3.72433,-23.7901,-26.4294,22.6321,-2.60141,0.472189,7.86099,26.2748,-6.93959,-3.2705,-35.8793,-25.3365,0.839427,-13.8611,18.1208,-23.4888,23.9238,22.8671,-3.72433,-23.7901,-26.4294,22.6321,-2.60141,0.472189,7.94659,26.2748,-6.93959,-3.2705,-35.8793,-25.3365,0.925022,-13.7755,18.2064,-23.4888,23.9238,22.9527,-3.72433,-23.7901,-26.4294,22.7177,-2.60141,0.472189,8.24877,26.5769,-6.6374,-2.96831,-35.8793,-25.0343,0.925022,-13.7755,18.2064,-23.1866,24.226,23.2548,-3.72433,-23.4879,-26.1272,23.0199,-2.60141,0.472189,567.817
22,8.1523,26.5769,-6.73388,-3.06479,-35.9758,-25.0343,0.828545,-13.7755,18.2064,-23.1866,24.1295,23.1584,-3.82081,-23.4879,-26.2237,22.9234,-2.69788,0.472189,7.7447,26.5769,-7.14148,-3.47239,-36.3834,-25.0343,0.42095,-14.1831,18.2064,-23.1866,23.7219,23.1584,-3.82081,-23.4879,-26.6313,22.9234,-2.69788,0.472189,7.05471,25.8869,-7.83147,-4.16238,-36.3834,-25.7243,-0.269043,-14.1831,18.2064,-23.8766,23.7219,23.1584,-3.82081,-24.1779,-26.6313,22.9234,-2.69788,0.472189,7.92134,26.7536,-6.96484,-3.29575,-36.3834,-25.7243,0.597584,-14.1831,18.2064,-23.8766,24.5886,23.1584,-3.82081,-24.1779,-26.6313,22.9234,-2.69788,0.472189,7.99778,26.7536,-6.96484,-3.29575,-36.3834,-25.7243,0.674028,-14.1067,18.2828,-23.8766,24.5886,23.2348,-3.82081,-24.1779,-26.6313,22.9999,-2.69788,0.472189,8.2809,27.0367,-6.68172,-3.01263,-36.3834,-25.4411,0.674028,-14.1067,18.2828,-23.5935,24.8717,23.5179,-3.82081,-23.8948,-26.3482,23.283,-2.69788,0.472189,482.114
23,8.1874,27.0367,-6.77522,-3.10613,-36.4769,-25.4411,0.580532,-14.1067,18.2828,-23.5935,24.7782,23.4244,-3.9143,-23.8948,-26.4417,23.1895,-2.79138,0.472189,7.81854,27.0367,-7.14408,-3.47499,-36.8457,-25.4411,0.211668,-14.4755,18.2828,-23.5935,24.4093,23.4244,-3.9143,-23.8948,-26.8106,23.1895,-2.79138,0.472189,7.17863,26.3968,-7.78399,-4.1149,-36.8457,-26.0811,-0.428239,-14.4755,18.2828,-24.2334,24.4093,23.4244,-3.9143,-24.5347,-26.8106,23.1895,-2.79138,0.472189,7.97543,27.1936,-6.98719,-3.3181,-36.8457,-26.0811,0.36856,-14.4755,18.2828,-24.2334,25.2061,23.4244,-3.9143,-24.5347,-26.8106,23.1895,-2.79138,0.472189,8.04403,27.1936,-6.98719,-3.3181,-36.8457,-26.0811,0.437159,-14.4069,18.3514,-24.2334,25.2061,23.493,-3.9143,-24.5347,-26.8106,23.2581,-2.79138,0.472189,8.30904,27.4586,-6.72218,-3.05309,-36.8457,-25.816,0.437159,-14.4069,18.3514,-23.9684,25.4711,23.758,-3.9143,-24.2697,-26.5455,23.5231,-2.79138,0.472189,409.384
24,8.21869,27.4586,-6.81253,-3.14344,-36.9361,-25.816,0.346811,-14.4069,18.3514,-23.9684,25.3808,23.6677,-4.00465,-24.2697,-26.6359,23.4328,-2.88173,0.472189,7.88472,27.4586,-7.1465,-3.47741,-37.2701,-25.816,0.0128436,-14.7409,18.3514,-23.9684,25.0468,23.6677,-4.00465,-24.2697,-26.9699,23.4328,-2.88173,0.472189,7.29149,26.8654,-7.73972,-4.07063,-37.2701,-26.4093,-0.580383,-14.7409,18.3514,-24.5616,25.0468,23.6677,-4.00465,-24.8629,-26.9699,23.4328,-2.88173,0.472189,8.02411,27.598,-7.00711,-3.33802,-37.2701,-26.4093,0.152231,-14.7409,18.3514,-24.5616,25.7794,23.6677,-4.00465,-24.8629,-26.9699,23.4328,-2.88173,0.472189,8.08592,27.598,-7.00711,-3.33802,-37.2701,-26.4093,0.214046,-14.6791,18.4132,-24.5616,25.7794,23.7295,-4.00465,-24.8629,-26.9699,23.4946,-2.88173,0.472189,8.33378,27.8458,-6.75925,-3.09016,-37.2701,-26.1614,0.214046,-14.6791,18.4132,-24.3138,26.0273,23.9774,-4.00465,-24.6151,-26.722,23.7424,-2.88173,0.472189,347.655
25,8.24672,27.8458,-6.84631,-3.17722,-37.3571,-26.1614,0.126987,-14.6791,18.4132,-24.3138,25.9402,23.8903,-4.09171,-24.6151,-26.8091,23.6554,-2.96879,0.472189,7.94421,27.8458,-7.14882,-3.47973,-37.6596,-26.1614,-0.175522,-14.9816,18.4132,-24.3138,25.6377,23.8903,-4.09171,-24.6151,-27.1116,23.6554,-2.96879,0.472189,7.39445,27.2961,-7.69858,-4.02949,-37.6596,-26.7112,-0.725282,-14.9816,18.4132,-24.8635,25.6377,23.8903,-4.09171,-25.1649,-27.1116,23.6554,-2.96879,0.472189,8.06807,27.9697,-7.02497,-3.35588,-37.6596,-26.7112,-0.0516649,-14.9816,18.4132,-24.8635,26.3113,23.8903,-4.09171,-25.1649,-27.1116,23.6554,-2.96879,0.472189,8.12397,27.9697,-7.02497,-3.35588,-37.6596,-26.7112,0.00423857,-14.9257,18.4691,-24.8635,26.3113,23.9462,-4.09171,-25.1649,-27.1116,23.7113,-2.96879,0.472189,8.35561,28.2013,-6.79333,-3.12424,-37.6596,-26.4795,0.00423857,-14.9257,18.4691,-24.6319,26.543,24.1779,-4.09171,-24.9332,-26.8799,23.9429,-2.96879,0.472189,295.257
26,8.27194,28.2013,-6.87699,-3.2079,-37.7433,-26.4795,-0.079427,-14.9257,18.4691,-24.6319,26.4593,24.0942,-4.17538,-24.9332,-26.9636,23.8593,-3.05245,0.472189,7.99781,28.2013,-7.15113,-3.48204,-38.0174,-26.4795,-0.353558,-15.1998,18.4691,-24.6319,26.1852,24.0942,-4.17538,-24.9332,-27.2377,23.8593,-3.05245,0.472189,7.48849,27.692,-7.66045,-3.99136,-38.0174,-26.9889,-0.862879,-15.1998,18.4691,-25.1412,26.1852,24.0942,-4.17538,-25.4425,-27.2377,23.8593,-3.05245,0.472189,8.10788,28.3114,-7.04106,-3.37197,-38.0174,-26.9889,-0.24349,-15.1998,18.4691,-25.1412,26.8046,24.0942,-4.17538,-25.4425,-27.2377,23.8593,-3.05245,0.472189,8.15859,28.3114,-7.04106,-3.37197,-38.0174,-26.9889,-0.192776,-15.1491,18.5198,-25.1412,26.8046,24.1449,-4.17538,-25.4425,-27.2377,23.91,-3.05245,0.472189,8.37492,28.5277,-6.82473,-3.15564,-38.0174,-26.7725,-0.192776,-15.1491,18.5198,-24.9249,27.0209,24.3612,-4.17538,-25.2262,-27.0214,24.1263,-3.05245,0.472189,250.776
27,8.29473,28.5277,-6.90493,-3.23584,-38.0976,-26.7725,-0.272974,-15.1491,18.5198,-24.9249,26.9407,24.281,-4.25557,-25.2262,-27.1016,24.0461,-3.13265,0.472189,8.04621,28.5277,-7.15345,-3.48436,-38.3461,-26.7725,-0.521496,-15.3976,18.5198,-24.9249,26.6922,24.281,-4.25557,-25.2262,-27.3501,24.0461,-3.13265,0.472189,7.57448,28.056,-7.62517,-3.95608,-38.3461,-27.2443,-0.993218,-15.3976,18.5198,-25.3966,26.6922,24.281,-4.25557,-25.6979,-27.3501,24.0461,-3.13265,0.472189,8.14403,28.6255,-7.05563,-3.38654,-38.3461,-27.2443,-0.423674,-15.3976,18.5198,-25.3966,27.2617,24.281,-4.25557,-25.6979,-27.3501,24.0461,-3.13265,0.472189,8.19015,28.6255,-7.05563,-3.38654,-38.3461,-27.2443,-0.377547,-15.3515,18.566,-25.3966,27.2617,24.3272,-4.25557,-25.6979,-27.3501,24.0922,-3.13265,0.472189,8.39206,28.8275,-6.85372,-3.18463,-38.3461,-27.0423,-0.377547,-15.3515,18.566,-25.1947,27.4636,24.5291,-4.25557,-25.496,-27.1482,24.2941,-3.13265,0.472189,213.01
28,8.31537,28.8275,-6.93041,-3.26132,-38.4228,-27.0423,-0.454236,-15.3515,18.566,-25.1947,27.3869,24.4524,-4.33226,-25.496,-27.2249,24.2174,-3.20934,0.472189,8.08997,28.8275,-7.15581,-3.48672,-38.6482,-27.0423,-0.679631,-15.5769,18.566,-25.1947,27.1615,24.4524,-4.33226,-25.496,-27.4503,24.2174,-3.20934,0.472189,7.65318,28.3907,-7.59259,-3.9235,-38.6482,-27.4791,-1.11642,-15.5769,18.566,-25.6315,27.1615,24.4524,-4.33226,-25.9328,-27.4503,24.2174,-3.20934,0.472189,8.17691,28.9144,-7.06887,-3.39978,-38.6482,-27.4791,-0.59269,-15.5769,18.566,-25.6315,27.6853,24.4524,-4.33226,-25.9328,-27.4503,24.2174,-3.20934,0.472189,8.21896,28.9144,-7.06887,-3.39978,-38.6482,-27.4791,-0.550642,-15.5348,18.608,-25.6315,27.6853,24.4944,-4.33226,-25.9328,-27.4503,24.2595,-3.20934,0.472189,8.40729,29.1027,-6.88054,-3.21145,-38.6482,-27.2908,-0.550642,-15.5348,18.608,-25.4432,27.8736,24.6827,-4.33226,-25.7445,-27.262,24.4478,-3.20934,0.472189,180.943
29,8.33412,29.1027,-6.95371,-3.28462,-38.7214,-27.2908,-0.623809,-15.5348,18.608,-25.4432,27.8004,24.6096,-4.40543,-25.7445,-27.3351,24.3747,-3.28251,0.472189,8.12962,29.1027,-7.15821,-3.48912,-38.9259,-27.2908,-0.828312,-15.7393,18.608,-25.4432,27.5959,24.6096,-4.40543,-25.7445,-27.5397,24.3747,-3.28251,0.472189,7.72527,28.6984,-7.56256,-3.89347,-38.9259,-27.6952,-1.23266,-15.7393,18.608,-25.8475,27.5959,24.6096,-4.40543,-26.1488,-27.5397,24.3747,-3.28251,0.472189,8.20689,29.18,-7.08094,-3.41185,-38.9259,-27.6952,-0.75104,-15.7393,18.608,-25.8475,28.0775,24.6096,-4.40543,-26.1488,-27.5397,24.3747,-3.28251,0.472189,8.24529,29.18,-7.08094,-3.41185,-38.9259,-27.6952,-0.712638,-15.7009,18.6464,-25.8475,28.0775,24.648,-4.40543,-26.1488,-27.5397,24.4131,-3.28251,0.472189,8.42085,29.3555,-6.90538,-3.23629,-38.9259,-27.5196,-0.712638,-15.7009,18.6464,-25.672,28.2531,24.8235,-4.40543,-25.9733,-27.3641,24.5886,-3.28251,0.472189,153.712
30,8.35119,29.3555,-6.97504,-3.30595,-38.9956,-27.5196,-0.782298,-15.7009,18.6464,-25.672,28.1834,24.7539,-4.47509,-25.9733,-27.4338,24.519,-3.35217,0.472189,8.16557,29.3555,-7.16066,-3.49157,-39.1812,-27.5196,-0.967916,-15.8866,18.6464,-25.672,27.9978,24.7539,-4.47509,-25.9733,-27.6194,24.519,-3.35217,0.472189,7.79134,28.9813,-7.53489,-3.8658,-39.1812,-27.8938,-1.34215,-15.8866,18.6464,-26.0462,27.9978,24.7539,-4.47509,-26.3475,-27.6194,24.519,-3.35217,0.472189,8.23425,29.4242,-7.09198,-3.42289,-39.1812,-27.8938,-0.899239,-15.8866,18.6464,-26.0462,28.4407,24.7539,-4.47509,-26.3475,-27.6194,24.519,-3.35217,0.472189,8.26938,29.4242,-7.09198,-3.42289,-39.1812,-27.8938,-0.864112,-15.8514,18.6815,-26.0462,28.4407,24.789,-4.47509,-26.3475,-27.6194,24.5541,-3.35217,0.472189,8.43295,29.5878,-6.92841,-3.25932,-39.1812,-27.7303,-0.864112,-15.8514,18.6815,-25.8826,28.6043,24.9526,-4.47509,-26.1839,-27.4558,24.7177,-3.35217,0.472189,130.585
31,8.36676,29.5878,-6.9946,-3.32551,-39.2474,-27.7303,-0.930303,-15.8514,18.6815,-25.8826,28.5381,24.8864,-4.54128,-26.1839,-27.522,24.6515,-3.41836,0.472189,8.19822,29.5878,-7.16314,-3.49405,-39.4159,-27.7303,-1.09884,-16.02,18.6815,-25.8826,28.3696,24.8864,-4.54128,-26.1839,-27.6905,24.6515,-3.41836,0.472189,7.85193,29.2415,-7.50942,-3.84033,-39.4159,-28.0765,-1.44513,-16.02,18.6815,-26.2289,28.3696,24.8864,-4.54128,-26.5302,-27.6905,24.6515,-3.41836,0.472189,8.25926,29.6488,-7.1021,-3.43301,-39.4159,-28.0765,-1.0378,-16.02,18.6815,-26.2289,28.7769,24.8864,-4.54128,-26.5302,-27.6905,24.6515,-3.41836,0.472189,8.29143,29.6488,-7.1021,-3.43301,-39.4159,-28.0765,-1.00563,-15.9878,18.7137,-26.2289,28.7769,24.9186,-4.54128,-26.5302,-27.6905,24.6836,-3.41836,0.472189,8.44376,29.8012,-6.94977,-3.28068,-39.4159,-27.9242,-1.00563,-15.9878,18.7137,-26.0766,28.9292,25.0709,-4.54128,-26.3779,-27.5382,24.836,-3.41836,0.472189,110.943
32,8.38098,29.8012,-7.01255,-3.34346,-39.4787,-27.9242,-1.06841,-15.9878,18.7137,-26.0766,28.8665,25.0081,-4.60406,-26.3779,-27.601,24.7732,-3.48114,0.472189,8.22789,29.8012,-7.16564,-3.49655,-39.6318,-27.9242,-1.2215,-16.1409,18.7137,-26.0766,28.7134,25.0081,-4.60406,-26.3779,-27.7541,24.7732,-3.48114,0.472189,7.90752,29.4808,-7.48601,-3.81692,-39.6318,-28.2446,-1.54187,-16.1409,18.7137,-26.3969,28.7134,25.0081,-4.60406,-26.6983,-27.7541,24.7732,-3.48114,0.472189,8.28214,29.8554,-7.11139,-3.4423,-39.6318,-28.2446,-1.16725,-16.1409,18.7137,-26.3969,29.088,25.0081,-4.60406,-26.6983,-27.7541,24.7732,-3.48114,0.472189,8.31164,29.8554,-7.11139,-3.4423,-39.6318,-28.2446,-1.13775,-16.1114,18.7432,-26.3969,29.088,25.0376,-4.60406,-26.6983,-27.7541,24.8027,-3.48114,0.472189,8.45343,29.9972,-6.9696,-3.30051,-39.6318,-28.1028,-1.13775,-16.1114,18.7432,-26.2552,29.2298,25.1794,-4.60406,-26.5565,-27.6123,24.9445,-3.48114,0.472189,94.2581
33,8.39398,29.9972,-7.02904,-3.35995,-39.6912,-28.1028,-1.1972,-16.1114,18.7432,-26.2552,29.1703,25.12,-4.66351,-26.5565,-27.6717,24.885,-3.54058,0.472189,8.25488,29.9972,-7.16815,-3.49906,-39.8303,-28.1028,-1.3363,-16.2505,18.7432,-26.2552,29.0312,25.12,-4.66351,-26.5565,-27.8108,24.885,-3.54058,0.472189,7.95854,29.7009,-7.46449,-3.7954,-39.8303,-28.3991,-1.63264,-16.2505,18.7432,-26.5515,29.0312,25.12,-4.66351,-26.8528,-27.8108,24.885,-3.54058,0.472189,8.30309,30.0454,-7.11994,-3.45085,-39.8303,-28.3991,-1.28809,-16.2505,18.7432,-26.5515,29.3758,25.12,-4.66351,-26.8528,-27.8108,24.885,-3.54058,0.472189,8.33016,30.0454,-7.11994,-3.45085,-39.8303,-28.3991,-1.26102,-16.2234,18.7703,-26.5515,29.3758,25.147,-4.66351,-26.8528,-27.8108,24.9121,-3.54058,0.472189,8.46208,30.1773,-6.98802,-3.31893,-39.8303,-28.2672,-1.26102,-16.2234,18.7703,-26.4196,29.5077,25.2789,-4.66351,-26.7209,-27.6789,25.044,-3.54058,0.472189,80.085
34,8.40589,30.1773,-7.04421,-3.37512,-39.8865,-28.2672,-1.31721,-16.2234,18.7703,-26.4196,29.4515,25.2228,-4.7197,-26.7209,-27.7351,24.9878,-3.59677,0.472189,8.27945,30.1773,-7.17065,-3.50156,-40.0129,-28.2672,-1.44365,-16.3498,18.7703,-26.4196,29.3251,25.2228,-4.7197,-26.7209,-27.8615,24.9878,-3.59677,0.472189,8.00538,29.9033,-7.44472,-3.77563,-40.0129,-28.5413,-1.71772,-16.3498,18.7703,-26.6936,29.3251,25.2228,-4.7197,-26.995,-27.8615,24.9878,-3.59677,0.472189,8.32229,30.2202,-7.12781,-3.45872,-40.0129,-28.5413,-1.40081,-16.3498,18.7703,-26.6936,29.642,25.2228,-4.7197,-26.995,-27.8615,24.9878,-3.59677,0.472189,8.34715,30.2202,-7.12781,-3.45872,-40.0129,-28.5413,-1.37595,-16.325,18.7952,-26.6936,29.642,25.2476,-4.7197,-26.995,-27.8615,25.0127,-3.59677,0.472189,8.46984,30.3429,-7.00512,-3.33603,-40.0129,-28.4186,-1.37595,-16.325,18.7952,-26.571,29.7647,25.3703,-4.7197,-26.8723,-27.7388,25.1354,-3.59677,0.472189,68.0445
35,8.41679,30.3429,-7.05817,-3.38908,-40.066,-28.4186,-1.429,-16.325,18.7952,-26.571,29.7116,25.3173,-4.77275,-26.8723,-27.7919,25.0823,-3.64982,0.472189,8.30183,30.3429,-7.17313,-3.50404,-40.1809,-28.4186,-1.54396,-16.4399,18.7952,-26.571,29.5967,25.3173,-4.77275,-26.8723,-27.9068,25.0823,-3.64982,0.472189,8.0484,30.0894,-7.42656,-3.75747,-40.1809,-28.672,-1.79739,-16.4399,18.7952,-26.8244,29.5967,25.3173,-4.77275,-27.1257,-27.9068,25.0823,-3.64982,0.472189,8.3399,30.3809,-7.13506,-3.46597,-40.1809,-28.672,-1.50589,-16.4399,18.7952,-26.8244,29.8882,25.3173,-4.77275,-27.1257,-27.9068,25.0823,-3.64982,0.472189,8.36274,30.3809,-7.13506,-3.46597,-40.1809,-28.672,-1.48305,-16.4171,18.818,-26.8244,29.8882,25.3401,-4.77275,-27.1257,-27.9068,25.1052,-3.64982,0.472189,8.47679,30.495,-7.02101,-3.35192,-40.1809,-28.558,-1.48305,-16.4171,18.818,-26.7103,30.0022,25.4542,-4.77275,-27.0117,-27.7928,25.2192,-3.64982,0.472189,57.8153
36,8.42679,30.495,-7.07102,-3.40193,-40.231,-28.558,-1.53305,-16.4171,18.818,-26.7103,29.9522,25.4041,-4.82275,-27.0117,-27.8428,25.1692,-3.69983,0.472189,8.32223,30.495,-7.17558,-3.50649,-40.3355,-28.558,-1.63761,-16.5217,18.818,-26.7103,29.8476,25.4041,-4.82275,-27.0117,-27.9474,25.1692,-3.69983,0.472189,8.08792,30.2607,-7.40989,-3.7408,-40.3355,-28.7923,-1.87192,-16.5217,18.818,-26.9446,29.8476,25.4041,-4.82275,-27.246,-27.9474,25.1692,-3.69983,0.472189,8.35605,30.5288,-7.14176,-3.47267,-40.3355,-28.7923,-1.60379,-16.5217,18.818,-26.9446,30.1158,25.4041,-4.82275,-27.246,-27.9474,25.1692,-3.69983,0.472189,8.37705,30.5288,-7.14176,-3.47267,-40.3355,-28.7923,-1.58279,-16.5007,18.839,-26.9446,30.1158,25.4251,-4.82275,-27.246,-27.9474,25.1902,-3.69983,0.472189,8.48304,30.6348,-7.03577,-3.36668,-40.3355,-28.6863,-1.58279,-16.5007,18.839,-26.8387,30.2218,25.5311,-4.82275,-27.14,-27.8414,25.2962,-3.69983,0.472189,49.1244
37,8.43596,30.6348,-7.08285,-3.41376,-40.3826,-28.6863,-1.62986,-16.5007,18.839,-26.8387,30.1747,25.4841,-4.86983,-27.14,-27.8885,25.2491,-3.7469,0.472189,8.34082,30.6348,-7.17799,-3.5089,-40.4777,-28.6863,-1.725,-16.5958,18.839,-26.8387,30.0795,25.4841,-4.86983,-27.14,-27.9836,25.2491,-3.7469,0.472189,8.12422,30.4182,-7.39458,-3.72549,-40.4777,-28.9029,-1.9416,-16.5958,18.839,-27.0553,30.0795,25.4841,-4.86983,-27.3566,-27.9836,25.2491,-3.7469,0.472189,8.37088,30.6648,-7.14793,-3.47884,-40.4777,-28.9029,-1.69495,-16.5958,18.839,-27.0553,30.3262,25.4841,-4.86983,-27.3566,-27.9836,25.2491,-3.7469,0.472189,8.39019,30.6648,-7.14793,-3.47884,-40.4777,-28.9029,-1.67563,-16.5765,18.8583,-27.0553,30.3262,25.5034,-4.86983,-27.3566,-27.9836,25.2684,-3.7469,0.472189,8.48864,30.7633,-7.04948,-3.38039,-40.4777,-28.8045,-1.67563,-16.5765,18.8583,-26.9568,30.4246,25.6018,-4.86983,-27.2581,-27.8851,25.3669,-3.7469,0.472189,41.7403
38,8.44437,30.7633,-7.09375,-3.42466,-40.522,-28.8045,-1.7199,-16.5765,18.8583,-26.9568,30.3804,25.5575,-4.9141,-27.2581,-27.9294,25.3226,-3.79117,0.472189,8.35779,30.7633,-7.18034,-3.51125,-40.6086,-28.8045,-1.80649,-16.6631,18.8583,-26.9568,30.2938,25.5575,-4.9141,-27.2581,-28.016,25.3226,-3.79117,0.472189,8.15759,30.5631,-7.38054,-3.71145,-40.6086,-29.0047,-2.00669,-16.6631,18.8583,-27.157,30.2938,25.5575,-4.9141,-27.4583,-28.016,25.3226,-3.79117,0.472189,8.38449,30.79,-7.15364,-3.48455,-40.6086,-29.0047,-1.77978,-16.6631,18.8583,-27.157,30.5207,25.5575,-4.9141,-27.4583,-28.016,25.3226,-3.79117,0.472189,8.40226,30.79,-7.15364,-3.48455,-40.6086,-29.0047,-1.76201,-16.6453,18.8761,-27.157,30.5207,25.5753,-4.9141,-27.4583,-28.016,25.3404,-3.79117,0.472189,8.49368,30.8814,-7.06222,-3.39313,-40.6086,-28.9132,-1.76201,-16.6453,18.8761,-27.0656,30.6121,25.6667,-4.9141,-27.3669,-27.9246,25.4318,-3.79117,0.472189,35.4662
39,8.45209,30.8814,-7.1038,-3.43471,-40.6502,-28.9132,-1.8036,-16.6453,18.8761,-27.0656,30.5705,25.6252,-4.95568,-27.3669,-27.9662,25.3902,-3.83276,0.472189,8.37327,30.8814,-7.18263,-3.51354,-40.729,-28.9132,-1.88242,-16.7241,18.8761,-27.0656,30.4917,25.6252,-4.95568,-27.3669,-28.045,25.3902,-3.83276,0.472189,8.18825,30.6964,-7.36765,-3.69856,-40.729,-29.0983,-2.06744,-16.7241,18.8761,-27.2506,30.4917,25.6252,-4.95568,-27.5519,-28.045,25.3902,-3.83276,0.472189,8.39699,30.9051,-7.15891,-3.48982,-40.729,-29.0983,-1.8587,-16.7241,18.8761,-27.2506,30.7004,25.6252,-4.95568,-27.5519,-28.045,25.3902,-3.83276,0.472189,8.41334,30.9051,-7.15891,-3.48982,-40.729,-29.0983,-1.84235,-16.7078,18.8924,-27.2506,30.7004,25.6415,-4.95568,-27.5519,-28.045,25.4066,-3.83276,0.472189,8.4982,30.99,-7.07405,-3.40496,-40.729,-29.0134,-1.84235,-16.7078,18.8924,-27.1657,30.7853,25.7264,-4.95568,-27.4671,-27.9601,25.4914,-3.83276,0.472189,30.1351
40,8.45918,30.99,-7.11307,-3.44398,-40.768,-29.0134,-1.88137,-16.7078,18.8924,-27.1657,30.7463,25.6873,-4.99471,-27.4671,-27.9992,25.4524,-3.87178,0.472189,8.3874,30.99,-7.18485,-3.51576,-40.8398,-29.0134,-1.95315,-16.7796,18.8924,-27.1657,30.6745,25.6873,-4.99471,-27.4671,-28.0709,25.4524,-3.87178,0.472189,8.21643,30.819,-7.35582,-3.68673,-40.8398,-29.1844,-2.12412,-16.7796,18.8924,-27.3367,30.6745,25.6873,-4.99471,-27.638,-28.0709,25.4524,-3.87178,0.472189,8.40847,31.0111,-7.16378,-3.49469,-40.8398,-29.1844,-1.93208,-16.7796,18.8924,-27.3367,30.8665,25.6873,-4.99471,-27.638,-28.0709,25.4524,-3.87178,0.472189,8.42352,31.0111,-7.16378,-3.49469,-40.8398,-29.1844,-1.91703,-16.7645,18.9075,-27.3367,30.8665,25.7024,-4.99471,-27.638,-28.0709,25.4675,-3.87178,0.472189,8.50228,31.0898,-7.08503,-3.41594,-40.8398,-29.1056,-1.91703,-16.7645,18.9075,-27.258,30.9453,25.7812,-4.99471,-27.5593,-27.9922,25.5462,-3.87178,0.472189,25.6053
41,8.46569,31.0898,-7.12161,-3.45252,-40.8764,-29.1056,-1.95361,-16.7645,18.9075,-27.258,30.9087,25.7446,-5.03129,-27.5593,-28.0288,25.5096,-3.90836,0.472189,8.4003,31.0898,-7.187,-3.51791,-40.9418,-29.1056,-2.019,-16.8299,18.9075,-27.258,30.8433,25.7446,-5.03129,-27.5593,-28.0942,25.5096,-3.90836,0.472189,8.24234,30.9318,-7.34496,-3.67587,-40.9418,-29.2636,-2.17696,-16.8299,18.9075,-27.4159,30.8433,25.7446,-5.03129,-27.7172,-28.0942,25.5096,-3.90836,0.472189,8.41902,31.1085,-7.16828,-3.49919,-40.9418,-29.2636,-2.00028,-16.8299,18.9075,-27.4159,31.02,25.7446,-5.03129,-27.7172,-28.0942,25.5096,-3.90836,0.472189,8.43288,31.1085,-7.16828,-3.49919,-40.9418,-29.2636,-1.98642,-16.816,18.9214,-27.4159,31.02,25.7584,-5.03129,-27.7172,-28.0942,25.5235,-3.90836,0.472189,8.50594,31.1816,-7.09522,-3.42613,-40.9418,-29.1905,-1.98642,-16.816,18.9214,-27.3429,31.0931,25.8315,-5.03129,-27.6442,-28.0211,25.5966,-3.90836,0.472189,21.7562
42,8.47168,31.1816,-7.12948,-3.46039,-40.976,-29.1905,-2.02069,-16.816,18.9214,-27.3429,31.0588,25.7972,-5.06555,-27.6442,-28.0554,25.5623,-3.94263,0.472189,8.41209,31.1816,-7.18907,-3.51998,-41.0356,-29.1905,-2.08027,-16.8756,18.9214,-27.3429,30.9992,25.7972,-5.06555,-27.6442,-28.1149,25.5623,-3.94263,0.472189,8.26616,31.0357,-7.335,-3.66591,-41.0356,-29.3364,-2.2262,-16.8756,18.9214,-27.4888,30.9992,25.7972,-5.06555,-27.7901,-28.1149,25.5623,-3.94263,0.472189,8.42872,31.1982,-7.17244,-3.50335,-41.0356,-29.3364,-2.06364,-16.8756,18.9214,-27.4888,31.1618,25.7972,-5.06555,-27.7901,-28.1149,25.5623,-3.94263,0.472189,8.44148,31.1982,-7.17244,-3.50335,-41.0356,-29.3364,-2.05088,-16.8629,18.9341,-27.4888,31.1618,25.81,-5.06555,-27.7901,-28.1149,25.5751,-3.94263,0.472189,8.50924,31.266,-7.10468,-3.43559,-41.0356,-29.2687,-2.05088,-16.8629,18.9341,-27.421,31.2295,25.8777,-5.06555,-27.7224,-28.0472,25.6428,-3.94263,0.472189,18.4855
43,8.47717,31.266,-7.13675,-3.46766,-41.0677,-29.2687,-2.08295,-16.8629,18.9341,-27.421,31.1975,25.8457,-5.09762,-27.7224,-28.0793,25.6107,-3.97469,0.472189,8.42287,31.266,-7.19105,-3.52196,-41.122,-29.2687,-2.13725,-16.9172,18.9341,-27.421,31.1432,25.8457,-5.09762,-27.7224,-28.1336,25.6107,-3.97469,0.472189,8.28806,31.1312,-7.32586,-3.65677,-41.122,-29.4035,-2.27205,-16.9172,18.9341,-27.5559,31.1432,25.8457,-5.09762,-27.8572,-28.1336,25.6107,-3.97469,0.472189,8.43763,31.2807,-7.17628,-3.50719,-41.122,-29.4035,-2.12248,-16.9172,18.9341,-27.5559,31.2927,25.8457,-5.09762,-27.8572,-28.1336,25.6107,-3.97469,0.472189,8.44938,31.2807,-7.17628,-3.50719,-41.122,-29.4035,-2.11073,-16.9054,18.9459,-27.5559,31.2927,25.8574,-5.09762,-27.8572,-28.1336,25.6225,-3.97469,0.472189,8.51221,31.3436,-7.11346,-3.44437,-41.122,-29.3407,-2.11073,-16.9054,18.9459,-27.493,31.3555,25.9202,-5.09762,-27.7943,-28.0707,25.6853,-3.97469,0.472189,15.7063
44,8.48222,31.3436,-7.14345,-3.47436,-41.152,-29.3407,-2.14072,-16.9054,18.9459,-27.493,31.3256,25.8903,-5.1276,-27.7943,-28.1007,25.6553,-4.00468,0.472189,8.43271,31.3436,-7.19296,-3.52387,-41.2015,-29.3407,-2.19023,-16.9549,18.9459,-27.493,31.2761,25.8903,-5.1276,-27.7943,-28.1502,25.6553,-4.00468,0.472189,8.3082,31.219,-7.31747,-3.64838,-41.2015,-29.4652,-2.31474,-16.9549,18.9459,-27.6175,31.2761,25.8903,-5.1276,-27.9189,-28.1502,25.6553,-4.00468,0.472189,8.44583,31.3567,-7.17984,-3.51075,-41.2015,-29.4652,-2.17711,-16.9549,18.9459,-27.6175,31.4137,25.8903,-5.1276,-27.9189,-28.1502,25.6553,-4.00468,0.472189,8.45665,31.3567,-7.17984,-3.51075,-41.2015,-29.4652,-2.16629,-16.9441,18.9567,-27.6175,31.4137,25.9011,-5.1276,-27.9189,-28.1502,25.6662,-4.00468,0.472189,8.51488,31.4149,-7.12161,-3.45252,-41.2015,-29.407,-2.16629,-16.9441,18.9567,-27.5593,31.4719,25.9593,-5.1276,-27.8606,-28.092,25.7244,-4.00468,0.472189,13.3448
45,8.48686,31.4149,-7.14963,-3.48054,-41.2295,-29.407,-2.19431,-16.9441,18.9567,-27.5593,31.4439,25.9313,-5.15562,-27.8606,-28.12,25.6964,-4.03269,0.472189,8.44171,31.4149,-7.19477,-3.52568,-41.2746,-29.407,-2.23946,-16.9892,18.9567,-27.5593,31.3987,25.9313,-5.15562,-27.8606,-28.1652,25.6964,-4.03269,0.472189,8.32672,31.2999,-7.30976,-3.64067,-41.2746,-29.5219,-2.35445,-16.9892,18.9567,-27.6743,31.3987,25.9313,-5.15562,-27.9756,-28.1652,25.6964,-4.03269,0.472189,8.45336,31.4266,-7.18313,-3.51404,-41.2746,-29.5219,-2.22781,-16.9892,18.9567,-27.6743,31.5254,25.9313,-5.15562,-27.9756,-28.1652,25.6964,-4.03269,0.472189,8.46333,31.4266,-7.18313,-3.51404,-41.2746,-29.5219,-2.21784,-16.9793,18.9666,-27.6743,31.5254,25.9413,-5.15562,-27.9756,-28.1652,25.7063,-4.03269,0.472189,8.51729,31.4805,-7.12916,-3.46007,-41.2746,-29.468,-2.21784,-16.9793,18.9666,-27.6203,31.5793,25.9952,-5.15562,-27.9217,-28.1112,25.7603,-4.03269,0.472189,11.3381
46,8.49113,31.4805,-7.15532,-3.48623,-41.3008,-29.468,-2.24401,-16.9793,18.9666,-27.6203,31.5532,25.9691,-5.18178,-27.9217,-28.1374,25.7341,-4.05885,0.472189,8.44994,31.4805,-7.19651,-3.52742,-41.342,-29.468,-2.28519,-17.0205,18.9666,-27.6203,31.512,25.9691,-5.18178,-27.9217,-28.1785,25.7341,-4.05885,0.472189,8.34376,31.3743,-7.3027,-3.63361,-41.342,-29.5742,-2.39138,-17.0205,18.9666,-27.7265,31.512,25.9691,-5.18178,-28.0278,-28.1785,25.7341,-4.05885,0.472189,8.46029,31.4909,-7.18616,-3.51707,-41.342,-29.5742,-2.27484,-17.0205,18.9666,-27.7265,31.6285,25.9691,-5.18178,-28.0278,-28.1785,25.7341,-4.05885,0.472189,8.46947,31.4909,-7.18616,-3.51707,-41.342,-29.5742,-2.26567,-17.0113,18.9758,-27.7265,31.6285,25.9782,-5.18178,-28.0278,-28.1785,25.7433,-4.05885,0.472189,8.51946,31.5409,-7.13617,-3.46708,-41.342,-29.5242,-2.26567,-17.0113,18.9758,-27.6765,31.6785,26.0282,-5.18178,-27.9778,-28.1286,25.7933,-4.05885,0.472189,9.63298
47,8.49505,31.5409,-7.16058,-3.49149,-41.3664,-29.5242,-2.29008,-17.0113,18.9758,-27.6765,31.6541,26.0038,-5.20619,-27.9778,-28.153,25.7689,-4.08327,0.472189,8.45747,31.5409,-7.19816,-3.52907,-41.404,-29.5242,-2.32765,-17.0489,18.9758,-27.6765,31.6165,26.0038,-5.20619,-27.9778,-28.1905,25.7689,-4.08327,0.472189,8.35942,31.4428,-7.29621,-3.62712,-41.404,-29.6222,-2.4257,-17.0489,18.9758,-27.7746,31.6165,26.0038,-5.20619,-28.0759,-28.1905,25.7689,-4.08327,0.472189,8.46666,31.55,-7.18897,-3.51988,-41.404,-29.6222,-2.31847,-17.0489,18.9758,-27.7746,31.7238,26.0038,-5.20619,-28.0759,-28.1905,25.7689,-4.08327,0.472189,8.47511,31.55,-7.18897,-3.51988,-41.404,-29.6222,-2.31002,-17.0404,18.9843,-27.7746,31.7238,26.0123,-5.20619,-28.0759,-28.1905,25.7773,-4.08327,0.472189,8.52142,31.5964,-7.14266,-3.47357,-41.404,-29.5759,-2.31002,-17.0404,18.9843,-27.7283,31.7701,26.0586,-5.20619,-28.0296,-28.1442,25.8236,-4.08327,0.472189,8.18412
48,8.49865,31.5964,-7.16543,-3.49634,-41.4267,-29.5759,-2.33278,-17.0404,18.9843,-27.7283,31.7473,26.0358,-5.22896,-28.0296,-28.167,25.8009,-4.10603,0.472189,8.46436,31.5964,-7.19972,-3.53063,-41.461,-29.5759,-2.36708,-17.0747,18.9843,-27.7283,31.713,26.0358,-5.22896,-28.0296,-28.2013,25.8009,-4.10603,0.472189,8.37383,31.5058,-7.29025,-3.62116,-41.461,-29.6664,-2.4576,-17.0747,18.9843,-27.8188,31.713,26.0358,-5.22896,-28.1201,-28.2013,25.8009,-4.10603,0.472189,8.47252,31.6045,-7.19157,-3.52248,-41.461,-29.6664,-2.35892,-17.0747,18.9843,-27.8188,31.8117,26.0358,-5.22896,-28.1201,-28.2013,25.8009,-4.10603,0.472189,8.4803,31.6045,-7.19157,-3.52248,-41.461,-29.6664,-2.35113,-17.0669,18.9921,-27.8188,31.8117,26.0436,-5.22896,-28.1201,-28.2013,25.8087,-4.10603,0.472189,8.52319,31.6474,-7.14868,-3.47959,-41.461,-29.6236,-2.35113,-17.0669,18.9921,-27.7759,31.8546,26.0865,-5.22896,-28.0772,-28.1584,25.8516,-4.10603,0.472189,6.95303
49,8.50197,31.6474,-7.1699,-3.50081,-41.4823,-29.6236,-2.37235,-17.0669,18.9921,-27.7759,31.8334,26.0653,-5.25018,-28.0772,-28.1796,25.8303,-4.12725,0.472189,8.47066,31.6474,-7.20121,-3.53212,-41.5136,-29.6236,-2.40366,-17.0982,18.9921,-27.7759,31.8021,26.0653,-5.25018,-28.0772,-28.2109,25.8303,-4.12725,0.472189,8.38709,31.5638,-7.28478,-3.61569,-41.5136,-29.7071,-2.48723,-17.0982,18.9921,-27.8595,31.8021,26.0653,-5.25018,-28.1608,-28.2109,25.8303,-4.12725,0.472189,8.4779,31.6546,-7.19396,-3.52487,-41.5136,-29.7071,-2.39641,-17.0982,18.9921,-27.8595,31.8929,26.0653,-5.25018,-28.1608,-28.2109,25.8303,-4.12725,0.472189,8.48508,31.6546,-7.19396,-3.52487,-41.5136,-29.7071,-2.38924,-17.0911,18.9992,-27.8595,31.8929,26.0724,-5.25018,-28.1608,-28.2109,25.8375,-4.12725,0.472189,8.52478,31.6943,-7.15426,-3.48517,-41.5136,-29.6674,-2.38924,-17.0911,18.9992,-27.8198,31.9326,26.1121,-5.25018,-28.1211,-28.1712,25.8772,-4.12725,0.472189,5.90699
50,8.50501,31.6943,-7.17403,-3.50494,-41.5333,-29.6674,-2.40901,-17.0911,18.9992,-27.8198,31.9128,26.0924,-5.26995,-28.1211,-28.191,25.8574,-4.14702,0.472189,8.47643,31.6943,-7.20261,-3.53352,-41.5619,-29.6674,-2.43759,-17.1196,18.9992,-27.8198,31.8842,26.0924,-5.26995,-28.1211,-28.2196,25.8574,-4.14702,0.472189,8.39928,31.6172,-7.27976,-3.61067,-41.5619,-29.7446,-2.51474,-17.1196,18.9992,-27.8969,31.8842,26.0924,-5.26995,-28.1983,-28.2196,25.8574,-4.14702,0.472189,8.48286,31.7008,-7.19618,-3.52709,-41.5619,-29.7446,-2.43116,-17.1196,18.9992,-27.8969,31.9678,26.0924,-5.26995,-28.1983,-28.2196,25.8574,-4.14702,0.472189,8.48947,31.7008,-7.19618,-3.52709,-41.5619,-29.7446,-2.42456,-17.113,19.0058,-27.8969,31.9678,26.099,-5.26995,-28.1983,-28.2196,25.864,-4.14702,0.472189,8.52622,31.7375,-7.15943,-3.49034,-41.5619,-29.7078,-2.42456,-17.113,19.0058,-27.8602,32.0046,26.1357,-5.26995,-28.1615,-28.1828,25.9008,-4.14702,0.472189,5.01819
51,8.50781,31.7375,-7.17783,-3.50874,-41.5803,-29.7078,-2.44296,-17.113,19.0058,-27.8602,31.9862,26.1173,-5.28835,-28.1615,-28.2012,25.8824,-4.16543,0.472189,8.48171,31.7375,-7.20394,-3.53485,-41.6064,-29.7078,-2.46907,-17.1391,19.0058,-27.8602,31.9601,26.1173,-5.28835,-28.1615,-28.2273,25.8824,-4.16543,0.472189,8.41049,31.6663,-7.27515,-3.60606,-41.6064,-29.779,-2.54028,-17.1391,19.0058,-27.9314,31.9601,26.1173,-5.28835,-28.2327,-28.2273,25.8824,-4.16543,0.472189,8.48742,31.7432,-7.19823,-3.52914,-41.6064,-29.779,-2.46336,-17.1391,19.0058,-27.9314,32.037,26.1173,-5.28835,-28.2327,-28.2273,25.8824,-4.16543,0.472189,8.4935,31.7432,-7.19823,-3.52914,-41.6064,-29.779,-2.45727,-17.133,19.0119,-27.9314,32.037,26.1234,-5.28835,-28.2327,-28.2273,25.8885,-4.16543,0.472189,8.52752,31.7772,-7.16421,-3.49512,-41.6064,-29.745,-2.45727,-17.133,19.0119,-27.8974,32.071,26.1574,-5.28835,-28.1987,-28.1933,25.9225,-4.16543,0.472189,4.26303
52,8.51039,31.7772,-7.18134,-3.51225,-41.6236,-29.745,-2.4744,-17.133,19.0119,-27.8974,32.0539,26.1403,-5.30548,-28.1987,-28.2104,25.9054,-4.18256,0.472189,8.48654,31.7772,-7.20519,-3.5361,-41.6474,-29.745,-2.49825,-17.1569,19.0119,-27.8974,32.03,26.1403,-5.30548,-28.1987,-28.2343,25.9054,-4.18256,0.472189,8.42081,31.7115,-7.27092,-3.60183,-41.6474,-29.8108,-2.56398,-17.1569,19.0119,-27.9631,32.03,26.1403,-5.30548,-28.2644,-28.2343,25.9054,-4.18256,0.472189,8.49161,31.7823,-7.20012,-3.53103,-41.6474,-29.8108,-2.49318,-17.1569,19.0119,-27.9631,32.1008,26.1403,-5.30548,-28.2644,-28.2343,25.9054,-4.18256,0.472189,8.49722,31.7823,-7.20012,-3.53103,-41.6474,-29.8108,-2.48757,-17.1513,19.0175,-27.9631,32.1008,26.1459,-5.30548,-28.2644,-28.2343,25.911,-4.18256,0.472189,8.52869,31.8138,-7.16864,-3.49956,-41.6474,-29.7793,-2.48757,-17.1513,19.0175,-27.9316,32.1323,26.1774,-5.30548,-28.233,-28.2028,25.9424,-4.18256,0.472189,3.62141
53,8.51276,31.8138,-7.18458,-3.51549,-41.6633,-29.7793,-2.50351,-17.1513,19.0175,-27.9316,32.1164,26.1614,-5.32141,-28.233,-28.2188,25.9265,-4.19849,0.472189,8.49097,31.8138,-7.20637,-3.53728,-41.6851,-29.7793,-2.52529,-17.1731,19.0175,-27.9316,32.0946,26.1614,-5.32141,-28.233,-28.2405,25.9265,-4.19849,0.472189,8.43031,31.7531,-7.26703,-3.59794,-41.6851,-29.8399,-2.58596,-17.1731,19.0175,-27.9923,32.0946,26.1614,-5.32141,-28.2936,-28.2405,25.9265,-4.19849,0.472189,8.49547,31.8183,-7.20187,-3.53278,-41.6851,-29.8399,-2.5208,-17.1731,19.0175,-27.9923,32.1597,26.1614,-5.32141,-28.2936,-28.2405,25.9265,-4.19849,0.472189,8.50063,31.8183,-7.20187,-3.53278,-41.6851,-29.8399,-2.51563,-17.1679,19.0227,-27.9923,32.1597,26.1666,-5.32141,-28.2936,-28.2405,25.9317,-4.19849,0.472189,8.52975,31.8474,-7.17275,-3.50366,-41.6851,-29.8108,-2.51563,-17.1679,19.0227,-27.9632,32.1889,26.1957,-5.32141,-28.2645,-28.2114,25.9608,-4.19849,0.472189,3.07629
54,8.51494,31.8474,-7.18756,-3.51847,-41.6999,-29.8108,-2.53045,-17.1679,19.0227,-27.9632,32.1741,26.1809,-5.33623,-28.2645,-28.2262,25.946,-4.2133,0.472189,8.49502,31.8474,-7.20747,-3.53838,-41.7198,-29.8108,-2.55036,-17.1878,19.0227,-27.9632,32.1541,26.1809,-5.33623,-28.2645,-28.2461,25.946,-4.2133,0.472189,8.43904,31.7914,-7.26346,-3.59437,-41.7198,-29.8668,-2.60634,-17.1878,19.0227,-28.0192,32.1541,26.1809,-5.33623,-28.3205,-28.2461,25.946,-4.2133,0.472189,8.49902,31.8514,-7.20348,-3.53439,-41.7198,-29.8668,-2.54637,-17.1878,19.0227,-28.0192,32.2141,26.1809,-5.33623,-28.3205,-28.2461,25.946,-4.2133,0.472189,8.50377,31.8514,-7.20348,-3.53439,-41.7198,-29.8668,-2.54161,-17.1831,19.0274,-28.0192,32.2141,26.1857,-5.33623,-28.3205,-28.2461,25.9507,-4.2133,0.472189,8.53071,31.8783,-7.17655,-3.50746,-41.7198,-29.8399,-2.54161,-17.1831,19.0274,-27.9922,32.241,26.2126,-5.33623,-28.2936,-28.2192,25.9777,-4.2133,0.472189,2.61315
55,8.51694,31.8783,-7.19031,-3.52122,-41.7336,-29.8399,-2.55538,-17.1831,19.0274,-27.9922,32.2273,26.1988,-5.34999,-28.2936,-28.233,25.9639,-4.22707,0.472189,8.49874,31.8783,-7.20852,-3.53943,-41.7518,-29.8399,-2.57358,-17.2013,19.0274,-27.9922,32.2091,26.1988,-5.34999,-28.2936,-28.2512,25.9639,-4.22707,0.472189,8.44708,31.8267,-7.26018,-3.59109,-41.7518,-29.8915,-2.62524,-17.2013,19.0274,-28.0439,32.2091,26.1988,-5.34999,-28.3452,-28.2512,25.9639,-4.22707,0.472189,8.50228,31.8819,-7.20497,-3.53588,-41.7518,-29.8915,-2.57003,-17.2013,19.0274,-28.0439,32.2643,26.1988,-5.34999,-28.3452,-28.2512,25.9639,-4.22707,0.472189,8.50666,31.8819,-7.20497,-3.53588,-41.7518,-29.8915,-2.56565,-17.1969,19.0318,-28.0439,32.2643,26.2032,-5.34999,-28.3452,-28.2512,25.9683,-4.22707,0.472189,8.53157,31.9068,-7.18006,-3.51097,-41.7518,-29.8666,-2.56565,-17.1969,19.0318,-28.019,32.2892,26.2281,-5.34999,-28.3203,-28.2263,25.9932,-4.22707,0.472189,2.21968
56,8.51878,31.9068,-7.19285,-3.52376,-41.7646,-29.8666,-2.57844,-17.1969,19.0318,-28.019,32.2764,26.2153,-5.36278,-28.3203,-28.2391,25.9804,-4.23986,0.472189,8.50214,31.9068,-7.2095,-3.54041,-41.7812,-29.8666,-2.59509,-17.2135,19.0318,-28.019,32.2598,26.2153,-5.36278,-28.3203,-28.2557,25.9804,-4.23986,0.472189,8.45447,31.8591,-7.25716,-3.58807,-41.7812,-29.9143,-2.64275,-17.2135,19.0318,-28.0667,32.2598,26.2153,-5.36278,-28.368,-28.2557,25.9804,-4.23986,0.472189,8.50528,31.9099,-7.20635,-3.53726,-41.7812,-29.9143,-2.59194,-17.2135,19.0318,-28.0667,32.3106,26.2153,-5.36278,-28.368,-28.2557,25.9804,-4.23986,0.472189,8.50932,31.9099,-7.20635,-3.53726,-41.7812,-29.9143,-2.58791,-17.2095,19.0359,-28.0667,32.3106,26.2194,-5.36278,-28.368,-28.2557,25.9844,-4.23986,0.472189,8.53235,31.933,-7.18332,-3.51423,-41.7812,-29.8913,-2.58791,-17.2095,19.0359,-28.0436,32.3336,26.2424,-5.36278,-28.3449,-28.2327,26.0075,-4.23986,0.472189,1.8854
57,8.52048,31.933,-7.19519,-3.5261,-41.7931,-29.8913,-2.59978,-17.2095,19.0359,-28.0436,32.3217,26.2305,-5.37466,-28.3449,-28.2446,25.9956,-4.25174,0.472189,8.50526,31.933,-7.21041,-3.54132,-41.8083,-29.8913,-2.615,-17.2247,19.0359,-28.0436,32.3065,26.2305,-5.37466,-28.3449,-28.2598,25.9956,-4.25174,0.472189,8.46128,31.889,-7.25439,-3.5853,-41.8083,-29.9352,-2.65898,-17.2247,19.0359,-28.0876,32.3065,26.2305,-5.37466,-28.3889,-28.2598,25.9956,-4.25174,0.472189,8.50805,31.9358,-7.20762,-3.53853,-41.8083,-29.9352,-2.61221,-17.2247,19.0359,-28.0876,32.3533,26.2305,-5.37466,-28.3889,-28.2598,25.9956,-4.25174,0.472189,8.51177,31.9358,-7.20762,-3.53853,-41.8083,-29.9352,-2.60849,-17.221,19.0396,-28.0876,32.3533,26.2342,-5.37466,-28.3889,-28.2598,25.9993,-4.25174,0.472189,8.53306,31.9571,-7.18632,-3.51724,-41.8083,-29.9139,-2.60849,-17.221,19.0396,-28.0663,32.3746,26.2555,-5.37466,-28.3676,-28.2385,26.0206,-4.25174,0.472189,1.60143
58,8.52203,31.9571,-7.19735,-3.52826,-41.8194,-29.9139,-2.61952,-17.221,19.0396,-28.0663,32.3636,26.2445,-5.38569,-28.3676,-28.2495,26.0096,-4.26277,0.472189,8.50811,31.9571,-7.21127,-3.54218,-41.8333,-29.9139,-2.63344,-17.2349,19.0396,-28.0663,32.3496,26.2445,-5.38569,-28.3676,-28.2634,26.0096,-4.26277,0.472189,8.46754,31.9165,-7.25185,-3.58276,-41.8333,-29.9545,-2.67402,-17.2349,19.0396,-28.1069,32.3496,26.2445,-5.38569,-28.4082,-28.2634,26.0096,-4.26277,0.472189,8.51059,31.9595,-7.2088,-3.53971,-41.8333,-29.9545,-2.63097,-17.2349,19.0396,-28.1069,32.3927,26.2445,-5.38569,-28.4082,-28.2634,26.0096,-4.26277,0.472189,8.51402,31.9595,-7.2088,-3.53971,-41.8333,-29.9545,-2.62754,-17.2315,19.043,-28.1069,32.3927,26.2479,-5.38569,-28.4082,-28.2634,26.013,-4.26277,0.472189,8.5337,31.9792,-7.18911,-3.52002,-41.8333,-29.9348,-2.62754,-17.2315,19.043,-28.0872,32.4124,26.2676,-5.38569,-28.3885,-28.2437,26.0327,-4.26277,0.472189,1.36019
59,8.52347,31.9792,-7.19934,-3.53025,-41.8435,-29.9348,-2.63778,-17.2315,19.043,-28.0872,32.4021,26.2574,-5.39593,-28.3885,-28.254,26.0225,-4.273,0.472189,8.51073,31.9792,-7.21208,-3.54299,-41.8563,-29.9348,-2.65051,-17.2442,19.043,-28.0872,32.3894,26.2574,-5.39593,-28.3885,-28.2667,26.0225,-4.273,0.472189,8.4733,31.9418,-7.24951,-3.58042,-41.8563,-29.9723,-2.68795,-17.2442,19.043,-28.1246,32.3894,26.2574,-5.39593,-28.4259,-28.2667,26.0225,-4.273,0.472189,8.51293,31.9814,-7.20988,-3.54079,-41.8563,-29.9723,-2.64831,-17.2442,19.043,-28.1246,32.429,26.2574,-5.39593,-28.4259,-28.2667,26.0225,-4.273,0.472189,8.51609,31.9814,-7.20988,-3.54079,-41.8563,-29.9723,-2.64516,-17.2411,19.0462,-28.1246,32.429,26.2605,-5.39593,-28.4259,-28.2667,26.0256,-4.273,0.472189,8.53428,31.9996,-7.19168,-3.52259,-41.8563,-29.9541,-2.64516,-17.2411,19.0462,-28.1064,32.4472,26.2787,-5.39593,-28.4078,-28.2485,26.0438,-4.273,0.472189,1.15526
60,8.52479,31.9996,-7.20118,-3.53209,-41.8658,-29.9541,-2.65465,-17.2411,19.0462,-28.1064,32.4377,26.2692,-5.40542,-28.4078,-28.258,26.0343,-4.2825,0.472189,8.51313,31.9996,-7.21283,-3.54374,-41.8774,-29.9541,-2.66631,-17.2527,19.0462,-28.1064,32.4261,26.2692,-5.40542,-28.4078,-28.2697,26.0343,-4.2825,0.472189,8.4786,31.9651,-7.24737,-3.57828,-41.8774,-29.9886,-2.70084,-17.2527,19.0462,-28.141,32.4261,26.2692,-5.40542,-28.4423,-28.2697,26.0343,-4.2825,0.472189,8.51508,32.0016,-7.21088,-3.54179,-41.8774,-29.9886,-2.66436,-17.2527,19.0462,-28.141,32.4626,26.2692,-5.40542,-28.4423,-28.2697,26.0343,-4.2825,0.472189,8.51799,32.0016,-7.21088,-3.54179,-41.8774,-29.9886,-2.66145,-17.2498,19.0491,-28.141,32.4626,26.2721,-5.40542,-28.4423,-28.2697,26.0372,-4.2825,0.472189,8.53481,32.0184,-7.19406,-3.52497,-41.8774,-29.9718,-2.66145,-17.2498,19.0491,-28.1241,32.4794,26.289,-5.40542,-28.4255,-28.2528,26.054,-4.2825,0.472189,0.981176
61,8.526,32.0184,-7.20287,-3.53378,-41.8862,-29.9718,-2.67026,-17.2498,19.0491,-28.1241,32.4706,26.2802,-5.41423,-28.4255,-28.2616,26.0452,-4.2913,0.472189,8.51533,32.0184,-7.21354,-3.54445,-41.8969,-29.9718,-2.68092,-17.2605,19.0491,-28.1241,32.4599,26.2802,-5.41423,-28.4255,-28.2723,26.0452,-4.2913,0.472189,8.48348,31.9865,-7.24539,-3.5763,-41.8969,-30.0036,-2.71278,-17.2605,19.0491,-28.156,32.4599,26.2802,-5.41423,-28.4573,-28.2723,26.0452,-4.2913,0.472189,8.51707,32.0201,-7.21181,-3.54272,-41.8969,-30.0036,-2.67919,-17.2605,19.0491,-28.156,32.4935,26.2802,-5.41423,-28.4573,-28.2723,26.0452,-4.2913,0.472189,8.51974,32.0201,-7.21181,-3.54272,-41.8969,-30.0036,-2.67652,-17.2578,19.0517,-28.156,32.4935,26.2828,-5.41423,-28.4573,-28.2723,26.0479,-4.2913,0.472189,8.53528,32.0357,-7.19627,-3.52718,-41.8969,-29.9881,-2.67652,-17.2578,19.0517,-28.1405,32.509,26.2984,-5.41423,-28.4418,-28.2568,26.0634,-4.2913,0.472189,0.833305
62,8.52712,32.0357,-7.20443,-3.53534,-41.905,-29.9881,-2.68468,-17.2578,19.0517,-28.1405,32.5009,26.2902,-5.42239,-28.4418,-28.2649,26.0553,-4.29947,0.472189,8.51735,32.0357,-7.21419,-3.5451,-41.9148,-29.9881,-2.69444,-17.2676,19.0517,-28.1405,32.4911,26.2902,-5.42239,-28.4418,-28.2747,26.0553,-4.29947,0.472189,8.48797,32.0063,-7.24358,-3.57449,-41.9148,-30.0175,-2.72383,-17.2676,19.0517,-28.1698,32.4911,26.2902,-5.42239,-28.4712,-28.2747,26.0553,-4.29947,0.472189,8.51889,32.0372,-7.21266,-3.54357,-41.9148,-30.0175,-2.69291,-17.2676,19.0517,-28.1698,32.522,26.2902,-5.42239,-28.4712,-28.2747,26.0553,-4.29947,0.472189,8.52135,32.0372,-7.21266,-3.54357,-41.9148,-30.0175,-2.69044,-17.2651,19.0542,-28.1698,32.522,26.2927,-5.42239,-28.4712,-28.2747,26.0577,-4.29947,0.472189,8.53571,32.0515,-7.1983,-3.52921,-41.9148,-30.0031,-2.69044,-17.2651,19.0542,-28.1555,32.5364,26.307,-5.42239,-28.4568,-28.2603,26.0721,-4.29947,0.472189,0.707701
63,8.52814,32.0515,-7.20587,-3.53678,-41.9224,-30.0031,-2.69801,-17.2651,19.0542,-28.1555,32.5288,26.2995,-5.42996,-28.4568,-28.2679,26.0645,-4.30704,0.472189,8.5192,32.0515,-7.21481,-3.54572,-41.9313,-30.0031,-2.70695,-17.2741,19.0542,-28.1555,32.5199,26.2995,-5.42996,-28.4568,-28.2769,26.0645,-4.30704,0.472189,8.4921,32.0244,-7.24191,-3.57282,-41.9313,-30.0302,-2.73405,-17.2741,19.0542,-28.1826,32.5199,26.2995,-5.42996,-28.4839,-28.2769,26.0645,-4.30704,0.472189,8.52057,32.0529,-7.21345,-3.54436,-41.9313,-30.0302,-2.70559,-17.2741,19.0542,-28.1826,32.5483,26.2995,-5.42996,-28.4839,-28.2769,26.0645,-4.30704,0.472189,8.52284,32.0529,-7.21345,-3.54436,-41.9313,-30.0302,-2.70332,-17.2718,19.0565,-28.1826,32.5483,26.3017,-5.42996,-28.4839,-28.2769,26.0668,-4.30704,0.472189,8.5361,32.0662,-7.20018,-3.53109,-41.9313,-30.017,-2.70332,-17.2718,19.0565,-28.1693,32.5616,26.315,-5.42996,-28.4706,-28.2636,26.0801,-4.30704,0.472189,0.601014
64,8.52909,32.0662,-7.2072,-3.53811,-41.9383,-30.017,-2.71033,-17.2718,19.0565,-28.1693,32.5546,26.308,-5.43698,-28.4706,-28.2706,26.0731,-4.31405,0.472189,8.5209,32.0662,-7.21538,-3.54629,-41.9465,-30.017,-2.71852,-17.28,19.0565,-28.1693,32.5464,26.308,-5.43698,-28.4706,-28.2788,26.0731,-4.31405,0.472189,8.49591,32.0412,-7.24038,-3.57129,-41.9465,-30.042,-2.74352,-17.28,19.0565,-28.1943,32.5464,26.308,-5.43698,-28.4956,-28.2788,26.0731,-4.31405,0.472189,8.52211,32.0674,-7.21417,-3.54508,-41.9465,-30.042,-2.71731,-17.28,19.0565,-28.1943,32.5726,26.308,-5.43698,-28.4956,-28.2788,26.0731,-4.31405,0.472189,8.5242,32.0674,-7.21417,-3.54508,-41.9465,-30.042,-2.71522,-17.2779,19.0586,-28.1943,32.5726,26.3101,-5.43698,-28.4956,-28.2788,26.0751,-4.31405,0.472189,8.53646,32.0796,-7.20192,-3.53283,-41.9465,-30.0297,-2.71522,-17.2779,19.0586,-28.1821,32.5849,26.3223,-5.43698,-28.4834,-28.2665,26.0874,-4.31405,0.472189,0.510398
65,8.52996,32.0796,-7.20842,-3.53933,-41.953,-30.0297,-2.72172,-17.2779,19.0586,-28.1821,32.5784,26.3158,-5.44348,-28.4834,-28.273,26.0809,-4.32055,0.472189,8.52246,32.0796,-7.21592,-3.54683,-41.9605,-30.0297,-2.72921,-17.2854,19.0586,-28.1821,32.5709,26.3158,-5.44348,-28.4834,-28.2805,26.0809,-4.32055,0.472189,8.49941,32.0566,-7.23897,-3.56988,-41.9605,-30.0528,-2.75227,-17.2854,19.0586,-28.2051,32.5709,26.3158,-5.44348,-28.5064,-28.2805,26.0809,-4.32055,0.472189,8.52353,32.0807,-7.21484,-3.54575,-41.9605,-30.0528,-2.72814,-17.2854,19.0586,-28.2051,32.595,26.3158,-5.44348,-28.5064,-28.2805,26.0809,-4.32055,0.472189,8.52546,32.0807,-7.21484,-3.54575,-41.9605,-30.0528,-2.72622,-17.2834,19.0605,-28.2051,32.595,26.3178,-5.44348,-28.5064,-28.2805,26.0828,-4.32055,0.472189,8.53678,32.092,-7.20353,-3.53444,-41.9605,-30.0414,-2.72622,-17.2834,19.0605,-28.1938,32.6063,26.3291,-5.44348,-28.4951,-28.2692,26.0941,-4.32055,0.472189,0.433433
66,8.53076,32.092,-7.20955,-3.54046,-41.9665,-30.0414,-2.73224,-17.2834,19.0605,-28.1938,32.6003,26.323,-5.4495,-28.4951,-28.2752,26.0881,-4.32657,0.472189,8.52389,32.092,-7.21641,-3.54732,-41.9734,-30.0414,-2.7391,-17.2903,19.0605,-28.1938,32.5934,26.323,-5.4495,-28.4951,-28.2821,26.0881,-4.32657,0.472189,8.50263,32.0708,-7.23767,-3.56858,-41.9734,-30.0627,-2.76036,-17.2903,19.0605,-28.2151,32.5934,26.323,-5.4495,-28.5164,-28.2821,26.0881,-4.32657,0.472189,8.52484,32.093,-7.21546,-3.54637,-41.9734,-30.0627,-2.73815,-17.2903,19.0605,-28.2151,32.6156,26.323,-5.4495,-28.5164,-28.2821,26.0881,-4.32657,0.472189,8.52662,32.093,-7.21546,-3.54637,-41.9734,-30.0627,-2.73638,-17.2885,19.0623,-28.2151,32.6156,26.3248,-5.4495,-28.5164,-28.2821,26.0899,-4.32657,0.472189,8.53707,32.1034,-7.20501,-3.53592,-41.9734,-30.0523,-2.73638,-17.2885,19.0623,-28.2046,32.6261,26.3353,-5.4495,-28.5059,-28.2716,26.1003,-4.32657,0.472189,0.368065
67,8.53149,32.1034,-7.21059,-3.5415,-41.979,-30.0523,-2.74195,-17.2885,19.0623,-28.2046,32.6205,26.3297,-5.45507,-28.5059,-28.2772,26.0948,-4.33215,0.472189,8.5252,32.1034,-7.21688,-3.54779,-41.9853,-30.0523,-2.74824,-17.2948,19.0623,-28.2046,32.6142,26.3297,-5.45507,-28.5059,-28.2835,26.0948,-4.33215,0.472189,8.5056,32.0838,-7.23648,-3.56739,-41.9853,-30.0719,-2.76785,-17.2948,19.0623,-28.2242,32.6142,26.3297,-5.45507,-28.5255,-28.2835,26.0948,-4.33215,0.472189,8.52604,32.1043,-7.21603,-3.54694,-41.9853,-30.0719,-2.7474,-17.2948,19.0623,-28.2242,32.6347,26.3297,-5.45507,-28.5255,-28.2835,26.0948,-4.33215,0.472189,8.52768,32.1043,-7.21603,-3.54694,-41.9853,-30.0719,-2.74577,-17.2932,19.0639,-28.2242,32.6347,26.3313,-5.45507,-28.5255,-28.2835,26.0964,-4.33215,0.472189,8.53733,32.1139,-7.20638,-3.53729,-41.9853,-30.0622,-2.74577,-17.2932,19.0639,-28.2146,32.6443,26.341,-5.45507,-28.5159,-28.2739,26.1061,-4.33215,0.472189,0.312548
68,8.53217,32.1139,-7.21154,-3.54245,-41.9904,-30.0622,-2.75093,-17.2932,19.0639,-28.2146,32.6392,26.3358,-5.46024,-28.5159,-28.279,26.1009,-4.33731,0.472189,8.52641,32.1139,-7.21731,-3.54822,-41.9962,-30.0622,-2.75669,-17.299,19.0639,-28.2146,32.6334,26.3358,-5.46024,-28.5159,-28.2848,26.1009,-4.33731,0.472189,8.50833,32.0958,-7.23539,-3.5663,-41.9962,-30.0803,-2.77477,-17.299,19.0639,-28.2326,32.6334,26.3358,-5.46024,-28.534,-28.2848,26.1009,-4.33731,0.472189,8.52715,32.1147,-7.21656,-3.54747,-41.9962,-30.0803,-2.75595,-17.299,19.0639,-28.2326,32.6522,26.3358,-5.46024,-28.534,-28.2848,26.1009,-4.33731,0.472189,8.52866,32.1147,-7.21656,-3.54747,-41.9962,-30.0803,-2.75444,-17.2974,19.0654,-28.2326,32.6522,26.3373,-5.46024,-28.534,-28.2848,26.1024,-4.33731,0.472189,8.53757,32.1236,-7.20765,-3.53856,-41.9962,-30.0714,-2.75444,-17.2974,19.0654,-28.2237,32.6611,26.3462,-5.46024,-28.5251,-28.2759,26.1113,-4.33731,0.472189,0.265398
69,8.53279,32.1236,-7.21243,-3.54334,-42.001,-30.0714,-2.75922,-17.2974,19.0654,-28.2237,32.6564,26.3415,-5.46501,-28.5251,-28.2807,26.1065,-4.34209,0.472189,8.52751,32.1236,-7.21771,-3.54862,-42.0063,-30.0714,-2.7645,-17.3027,19.0654,-28.2237,32.6511,26.3415,-5.46501,-28.5251,-28.2859,26.1065,-4.34209,0.472189,8.51084,32.1069,-7.23438,-3.56529,-42.0063,-30.088,-2.78117,-17.3027,19.0654,-28.2404,32.6511,26.3415,-5.46501,-28.5417,-28.2859,26.1065,-4.34209,0.472189,8.52817,32.1242,-7.21705,-3.54796,-42.0063,-30.088,-2.76384,-17.3027,19.0654,-28.2404,32.6684,26.3415,-5.46501,-28.5417,-28.2859,26.1065,-4.34209,0.472189,8.52956,32.1242,-7.21705,-3.54796,-42.0063,-30.088,-2.76245,-17.3013,19.0668,-28.2404,32.6684,26.3429,-5.46501,-28.5417,-28.2859,26.1079,-4.34209,0.472189,8.53779,32.1325,-7.20882,-3.53973,-42.0063,-30.0798,-2.76245,-17.3013,19.0668,-28.2322,32.6766,26.3511,-5.46501,-28.5335,-28.2777,26.1162,-4.34209,0.472189,0.225356
70,8.53337,32.1325,-7.21324,-3.54415,-42.0107,-30.0798,-2.76687,-17.3013,19.0668,-28.2322,32.6722,26.3467,-5.46944,-28.5335,-28.2821,26.1117,-4.34651,0.472189,8.52852,32.1325,-7.21808,-3.54899,-42.0155,-30.0798,-2.77172,-17.3062,19.0668,-28.2322,32.6674,26.3467,-5.46944,-28.5335,-28.287,26.1117,-4.34651,0.472189,8.51315,32.1171,-7.23346,-3.56437,-42.0155,-30.0952,-2.78709,-17.3062,19.0668,-28.2476,32.6674,26.3467,-5.46944,-28.5489,-28.287,26.1117,-4.34651,0.472189,8.52911,32.1331,-7.2175,-3.54841,-42.0155,-30.0952,-2.77113,-17.3062,19.0668,-28.2476,32.6833,26.3467,-5.46944,-28.5489,-28.287,26.1117,-4.34651,0.472189,8.53039,32.1331,-7.2175,-3.54841,-42.0155,-30.0952,-2.76985,-17.3049,19.0681,-28.2476,32.6833,26.3479,-5.46944,-28.5489,-28.287,26.113,-4.34651,0.472189,8.53799,32.1407,-7.2099,-3.54081,-42.0155,-30.0876,-2.76985,-17.3049,19.0681,-28.24,32.6909,26.3555,-5.46944,-28.5413,-28.2794,26.1206,-4.34651,0.472189,0.191351
71,8.53389,32.1407,-7.21399,-3.5449,-42.0196,-30.0876,-2.77394,-17.3049,19.0681,-28.24,32.6868,26.3514,-5.47353,-28.5413,-28.2835,26.1165,-4.3506,0.472189,8.52945,32.1407,-7.21843,-3.54934,-42.0241,-30.0876,-2.77838,-17.3093,19.0681,-28.24,32.6824,26.3514,-5.47353,-28.5413,-28.2879,26.1165,-4.3506,0.472189,8.51528,32.1265,-7.23261,-3.56352,-42.0241,-30.1018,-2.79256,-17.3093,19.0681,-28.2541,32.6824,26.3514,-5.47353,-28.5554,-28.2879,26.1165,-4.3506,0.472189,8.52998,32.1412,-7.21791,-3.54882,-42.0241,-30.1018,-2.77786,-17.3093,19.0681,-28.2541,32.6971,26.3514,-5.47353,-28.5554,-28.2879,26.1165,-4.3506,0.472189,8.53115,32.1412,-7.21791,-3.54882,-42.0241,-30.1018,-2.77668,-17.3082,19.0693,-28.2541,32.6971,26.3526,-5.47353,-28.5554,-28.2879,26.1177,-4.3506,0.472189,8.53817,32.1482,-7.2109,-3.54181,-42.0241,-30.0948,-2.77668,-17.3082,19.0693,-28.2471,32.7041,26.3596,-5.47353,-28.5484,-28.2809,26.1247,-4.3506,0.472189,0.162474
72,8.53438,32.1482,-7.21468,-3.54559,-42.0278,-30.0948,-2.78047,-17.3082,19.0693,-28.2471,32.7003,26.3559,-5.47732,-28.5484,-28.2847,26.1209,-4.35439,0.472189,8.53031,32.1482,-7.21875,-3.54966,-42.0319,-30.0948,-2.78454,-17.3122,19.0693,-28.2471,32.6963,26.3559,-5.47732,-28.5484,-28.2887,26.1209,-4.35439,0.472189,8.51724,32.1351,-7.23182,-3.56273,-42.0319,-30.1078,-2.79761,-17.3122,19.0693,-28.2602,32.6963,26.3559,-5.47732,-28.5615,-28.2887,26.1209,-4.35439,0.472189,8.53077,32.1487,-7.21829,-3.5492,-42.0319,-30.1078,-2.78408,-17.3122,19.0693,-28.2602,32.7098,26.3559,-5.47732,-28.5615,-28.2887,26.1209,-4.35439,0.472189,8.53186,32.1487,-7.21829,-3.5492,-42.0319,-30.1078,-2.78299,-17.3112,19.0703,-28.2602,32.7098,26.3569,-5.47732,-28.5615,-28.2887,26.122,-4.35439,0.472189,8.53833,32.1551,-7.21182,-3.54273,-42.0319,-30.1014,-2.78299,-17.3112,19.0703,-28.2537,32.7163,26.3634,-5.47732,-28.555,-28.2823,26.1285,-4.35439,0.472189,0.137951
73,8.53483,32.1551,-7.21532,-3.54623,-42.0354,-30.1014,-2.7865,-17.3112,19.0703,-28.2537,32.7128,26.3599,-5.48082,-28.555,-28.2858,26.125,-4.35789,0.472189,8.53109,32.1551,-7.21905,-3.54996,-42.0391,-30.1014,-2.79023,-17.3149,19.0703,-28.2537,32.709,26.3599,-5.48082,-28.555,-28.2895,26.125,-4.35789,0.472189,8.51905,32.1431,-7.2311,-3.56201,-42.0391,-30.1134,-2.80228,-17.3149,19.0703,-28.2658,32.709,26.3599,-5.48082,-28.5671,-28.2895,26.125,-4.35789,0.472189,8.5315,32.1555,-7.21864,-3.54955,-42.0391,-30.1134,-2.78982,-17.3149,19.0703,-28.2658,32.7215,26.3599,-5.48082,-28.5671,-28.2895,26.125,-4.35789,0.472189,8.5325,32.1555,-7.21864,-3.54955,-42.0391,-30.1134,-2.78882,-17.3139,19.0713,-28.2658,32.7215,26.3609,-5.48082,-28.5671,-28.2895,26.126,-4.35789,0.472189,8.53848,32.1615,-7.21267,-3.54358,-42.0391,-30.1074,-2.78882,-17.3139,19.0713,-28.2598,32.7275,26.3669,-5.48082,-28.5611,-28.2835,26.132,-4.35789,0.472189,0.117128
74,8.53524,32.1615,-7.21591,-3.54682,-42.0424,-30.1074,-2.79206,-17.3139,19.0713,-28.2598,32.7242,26.3636,-5.48406,-28.5611,-28.2868,26.1287,-4.36113,0.472189,8.53182,32.1615,-7.21933,-3.55024,-42.0458,-30.1074,-2.79548,-17.3173,19.0713,-28.2598,32.7208,26.3636,-5.48406,-28.5611,-28.2902,26.1287,-4.36113,0.472189,8.52071,32.1504,-7.23044,-3.56135,-42.0458,-30.1185,-2.80659,-17.3173,19.0713,-28.2709,32.7208,26.3636,-5.48406,-28.5722,-28.2902,26.1287,-4.36113,0.472189,8.53218,32.1619,-7.21897,-3.54988,-42.0458,-30.1185,-2.79512,-17.3173,19.0713,-28.2709,32.7323,26.3636,-5.48406,-28.5722,-28.2902,26.1287,-4.36113,0.472189,8.5331,32.1619,-7.21897,-3.54988,-42.0458,-30.1185,-2.7942,-17.3164,19.0723,-28.2709,32.7323,26.3646,-5.48406,-28.5722,-28.2902,26.1296,-4.36113,0.472189,8.53861,32.1674,-7.21346,-3.54437,-42.0458,-30.113,-2.7942,-17.3164,19.0723,-28.2654,32.7378,26.3701,-5.48406,-28.5667,-28.2847,26.1351,-4.36113,0.472189,0.0994453
75,8.53562,32.1674,-7.21645,-3.54736,-42.0488,-30.113,-2.7972,-17.3164,19.0723,-28.2654,32.7348,26.3671,-5.48705,-28.5667,-28.2877,26.1322,-4.36413,0.472189,8.53248,32.1674,-7.21959,-3.5505,-42.0519,-30.113,-2.80034,-17.3195,19.0723,-28.2654,32.7316,26.3671,-5.48705,-28.5667,-28.2908,26.1322,-4.36413,0.472189,8.52224,32.1571,-7.22983,-3.56074,-42.0519,-30.1233,-2.81058,-17.3195,19.0723,-28.2756,32.7316,26.3671,-5.48705,-28.5769,-28.2908,26.1322,-4.36413,0.472189,8.5328,32.1677,-7.21927,-3.55018,-42.0519,-30.1233,-2.80001,-17.3195,19.0723,-28.2756,32.7422,26.3671,-5.48705,-28.5769,-28.2908,26.1322,-4.36413,0.472189,8.53365,32.1677,-7.21927,-3.55018,-42.0519,-30.1233,-2.79917,-17.3187,19.0731,-28.2756,32.7422,26.3679,-5.48705,-28.5769,-28.2908,26.133,-4.36413,0.472189,8.53873,32.1728,-7.21418,-3.54509,-42.0519,-30.1182,-2.79917,-17.3187,19.0731,-28.2705,32.7473,26.373,-5.48705,-28.5719,-28.2857,26.1381,-4.36413,0.472189,0.0844305
76,8.53597,32.1728,-7.21695,-3.54786,-42.0547,-30.1182,-2.80194,-17.3187,19.0731,-28.2705,32.7445,26.3702,-5.48982,-28.5719,-28.2885,26.1353,-4.3669,0.472189,8.53308,32.1728,-7.21983,-3.55074,-42.0576,-30.1182,-2.80482,-17.3216,19.0731,-28.2705,32.7416,26.3702,-5.48982,-28.5719,-28.2914,26.1353,-4.3669,0.472189,8.52364,32.1634,-7.22927,-3.56018,-42.0576,-30.1276,-2.81426,-17.3216,19.0731,-28.28,32.7416,26.3702,-5.48982,-28.5813,-28.2914,26.1353,-4.3669,0.472189,8.53337,32.1731,-7.21955,-3.55046,-42.0576,-30.1276,-2.80453,-17.3216,19.0731,-28.28,32.7514,26.3702,-5.48982,-28.5813,-28.2914,26.1353,-4.3669,0.472189,8.53415,32.1731,-7.21955,-3.55046,-42.0576,-30.1276,-2.80375,-17.3208,19.0739,-28.28,32.7514,26.371,-5.48982,-28.5813,-28.2914,26.1361,-4.3669,0.472189,8.53885,32.1778,-7.21485,-3.54576,-42.0576,-30.1229,-2.80375,-17.3208,19.0739,-28.2753,32.7561,26.3757,-5.48982,-28.5766,-28.2867,26.1408,-4.3669,0.472189,0.0716814
77,8.53629,32.1778,-7.21741,-3.54832,-42.0602,-30.1229,-2.80631,-17.3208,19.0739,-28.2753,32.7535,26.3732,-5.49238,-28.5766,-28.2892,26.1382,-4.36946,0.472189,8.53364,32.1778,-7.22005,-3.55096,-42.0628,-30.1229,-2.80895,-17.3234,19.0739,-28.2753,32.7509,26.3732,-5.49238,-28.5766,-28.2919,26.1382,-4.36946,0.472189,8.52494,32.1691,-7.22876,-3.55967,-42.0628,-30.1316,-2.81766,-17.3234,19.0739,-28.284,32.7509,26.3732,-5.49238,-28.5853,-28.2919,26.1382,-4.36946,0.472189,8.5339,32.178,-7.2198,-3.55071,-42.0628,-30.1316,-2.8087,-17.3234,19.0739,-28.284,32.7598,26.3732,-5.49238,-28.5853,-28.2919,26.1382,-4.36946,0.472189,8.53461,32.178,-7.2198,-3.55071,-42.0628,-30.1316,-2.80798,-17.3227,19.0746,-28.284,32.7598,26.3739,-5.49238,-28.5853,-28.2919,26.139,-4.36946,0.472189,8.53895,32.1824,-7.21547,-3.54638,-42.0628,-30.1273,-2.80798,-17.3227,19.0746,-28.2796,32.7642,26.3782,-5.49238,-28.581,-28.2876,26.1433,-4.36946,0.472189,0.0608562
78,8.53658,32.1824,-7.21783,-3.54874,-42.0652,-30.1273,-2.81035,-17.3227,19.0746,-28.2796,32.7618,26.3759,-5.49475,-28.581,-28.2899,26.1409,-4.37182,0.472189,8.53416,32.1824,-7.22026,-3.55117,-42.0676,-30.1273,-2.81277,-17.3251,19.0746,-28.2796,32.7594,26.3759,-5.49475,-28.581,-28.2923,26.1409,-4.37182,0.472189,8.52613,32.1743,-7.22828,-3.55919,-42.0676,-30.1353,-2.8208,-17.3251,19.0746,-28.2877,32.7594,26.3759,-5.49475,-28.589,-28.2923,26.1409,-4.37182,0.472189,8.53438,32.1826,-7.22004,-3.55095,-42.0676,-30.1353,-2.81255,-17.3251,19.0746,-28.2877,32.7676,26.3759,-5.49475,-28.589,-28.2923,26.1409,-4.37182,0.472189,8.53504,32.1826,-7.22004,-3.55095,-42.0676,-30.1353,-2.81189,-17.3245,19.0753,-28.2877,32.7676,26.3765,-5.49475,-28.589,-28.2923,26.1416,-4.37182,0.472189,8.53904,32.1866,-7.21604,-3.54695,-42.0676,-30.1313,-2.81189,-17.3245,19.0753,-28.2837,32.7716,26.3805,-5.49475,-28.585,-28.2883,26.1456,-4.37182,0.472189,0.0516648
79,8.53685,32.1866,-7.21822,-3.54913,-42.0698,-30.1313,-2.81407,-17.3245,19.0753,-28.2837,32.7694,26.3783,-5.49693,-28.585,-28.2905,26.1434,-4.37401,0.472189,8.53463,32.1866,-7.22045,-3.55136,-42.072,-30.1313,-2.8163,-17.3267,19.0753,-28.2837,32.7672,26.3783,-5.49693,-28.585,-28.2928,26.1434,-4.37401,0.472189,8.52723,32.1792,-7.22785,-3.55876,-42.072,-30.1387,-2.8237,-17.3267,19.0753,-28.2911,32.7672,26.3783,-5.49693,-28.5924,-28.2928,26.1434,-4.37401,0.472189,8.53483,32.1868,-7.22025,-3.55116,-42.072,-30.1387,-2.8161,-17.3267,19.0753,-28.2911,32.7748,26.3783,-5.49693,-28.5924,-28.2928,26.1434,-4.37401,0.472189,8.53544,32.1868,-7.22025,-3.55116,-42.072,-30.1387,-2.81549,-17.3261,19.0759,-28.2911,32.7748,26.3789,-5.49693,-28.5924,-28.2928,26.144,-4.37401,0.472189,8.53912,32.1905,-7.21656,-3.54747,-42.072,-30.135,-2.81549,-17.3261,19.0759,-28.2874,32.7785,26.3826,-5.49693,-28.5887,-28.2891,26.1477,-4.37401,0.472189,0.0438609
80,8.5371,32.1905,-7.21858,-3.54949,-42.074,-30.135,-2.81751,-17.3261,19.0759,-28.2874,32.7765,26.3806,-5.49895,-28.5887,-28.2911,26.1457,-4.37603,0.472189,8.53506,32.1905,-7.22063,-3.55154,-42.0761,-30.135,-2.81956,-17.3281,19.0759,-28.2874,32.7744,26.3806,-5.49895,-28.5887,-28.2931,26.1457,-4.37603,0.472189,8.52824,32.1837,-7.22744,-3.55835,-42.0761,-30.1418,-2.82637,-17.3281,19.0759,-28.2942,32.7744,26.3806,-5.49895,-28.5955,-28.2931,26.1457,-4.37603,0.472189,8.53524,32.1906,-7.22045,-3.55136,-42.0761,-30.1418,-2.81938,-17.3281,19.0759,-28.2942,32.7814,26.3806,-5.49895,-28.5955,-28.2931,26.1457,-4.37603,0.472189,8.5358,32.1906,-7.22045,-3.55136,-42.0761,-30.1418,-2.81882,-17.3276,19.0764,-28.2942,32.7814,26.3812,-5.49895,-28.5955,-28.2931,26.1462,-4.37603,0.472189,8.5392,32.194,-7.21705,-3.54796,-42.0761,-30.1384,-2.81882,-17.3276,19.0764,-28.2908,32.7848,26.3846,-5.49895,-28.5921,-28.2897,26.1496,-4.37603,0.472189,0.037235
81,8.53733,32.194,-7.21892,-3.54983,-42.0779,-30.1384,-2.82069,-17.3276,19.0764,-28.2908,32.7829,26.3827,-5.50082,-28.5921,-28.2916,26.1478,-4.3779,0.472189,8.53546,32.194,-7.22079,-3.5517,-42.0798,-30.1384,-2.82256,-17.3294,19.0764,-28.2908,32.7811,26.3827,-5.50082,-28.5921,-28.2935,26.1478,-4.3779,0.472189,8.52917,32.1878,-7.22708,-3.55799,-42.0798,-30.1447,-2.82884,-17.3294,19.0764,-28.2971,32.7811,26.3827,-5.50082,-28.5984,-28.2935,26.1478,-4.3779,0.472189,8.53561,32.1942,-7.22064,-3.55155,-42.0798,-30.1447,-2.82241,-17.3294,19.0764,-28.2971,32.7875,26.3827,-5.50082,-28.5984,-28.2935,26.1478,-4.3779,0.472189,8.53613,32.1942,-7.22064,-3.55155,-42.0798,-30.1447,-2.82189,-17.3289,19.077,-28.2971,32.7875,26.3832,-5.50082,-28.5984,-28.2935,26.1483,-4.3779,0.472189,8.53927,32.1973,-7.2175,-3.54841,-42.0798,-30.1416,-2.82189,-17.3289,19.077,-28.2939,32.7906,26.3864,-5.50082,-28.5953,-28.2903,26.1514,-4.3779,0.472189,0.0316096
82,8.53755,32.1973,-7.21922,-3.55013,-42.0815,-30.1416,-2.82361,-17.3289,19.077,-28.2939,32.7889,26.3846,-5.50255,-28.5953,-28.2921,26.1497,-4.37962,0.472189,8.53582,32.1973,-7.22094,-3.55185,-42.0833,-30.1416,-2.82533,-17.3306,19.077,-28.2939,32.7872,26.3846,-5.50255,-28.5953,-28.2938,26.1497,-4.37962,0.472189,8.53003,32.1916,-7.22674,-3.55765,-42.0833,-30.1474,-2.83113,-17.3306,19.077,-28.2997,32.7872,26.3846,-5.50255,-28.601,-28.2938,26.1497,-4.37962,0.472189,8.53596,32.1975,-7.22081,-3.55172,-42.0833,-30.1474,-2.8252,-17.3306,19.077,-28.2997,32.7931,26.3846,-5.50255,-28.601,-28.2938,26.1497,-4.37962,0.472189,8.53644,32.1975,-7.22081,-3.55172,-42.0833,-30.1474,-2.82472,-17.3302,19.0774,-28.2997,32.7931,26.3851,-5.50255,-28.601,-28.2938,26.1502,-4.37962,0.472189,8.53933,32.2004,-7.21791,-3.54882,-42.0833,-30.1445,-2.82472,-17.3302,19.0774,-28.2968,32.796,26.388,-5.50255,-28.5982,-28.2909,26.1531,-4.37962,0.472189,0.0268335
83,8.53774,32.2004,-7.2195,-3.55041,-42.0848,-30.1445,-2.82631,-17.3302,19.0774,-28.2968,32.7944,26.3864,-5.50414,-28.5982,-28.2925,26.1515,-4.38121,0.472189,8.53616,32.2004,-7.22108,-3.55199,-42.0864,-30.1445,-2.82789,-17.3317,19.0774,-28.2968,32.7928,26.3864,-5.50414,-28.5982,-28.2941,26.1515,-4.38121,0.472189,8.53082,32.195,-7.22642,-3.55733,-42.0864,-30.1498,-2.83323,-17.3317,19.0774,-28.3022,32.7928,26.3864,-5.50414,-28.6035,-28.2941,26.1515,-4.38121,0.472189,8.53628,32.2005,-7.22096,-3.55187,-42.0864,-30.1498,-2.82777,-17.3317,19.0774,-28.3022,32.7983,26.3864,-5.50414,-28.6035,-28.2941,26.1515,-4.38121,0.472189,8.53672,32.2005,-7.22096,-3.55187,-42.0864,-30.1498,-2.82733,-17.3313,19.0779,-28.3022,32.7983,26.3869,-5.50414,-28.6035,-28.2941,26.1519,-4.38121,0.472189,8.53939,32.2032,-7.21829,-3.5492,-42.0864,-30.1471,-2.82733,-17.3313,19.0779,-28.2995,32.801,26.3895,-5.50414,-28.6008,-28.2914,26.1546,-4.38121,0.472189,0.0227788
84,8.53792,32.2032,-7.21976,-3.55067,-42.0879,-30.1471,-2.8288,-17.3313,19.0779,-28.2995,32.7995,26.3881,-5.50561,-28.6008,-28.2929,26.1531,-4.38269,0.472189,8.53647,32.2032,-7.22121,-3.55212,-42.0893,-30.1471,-2.83026,-17.3328,19.0779,-28.2995,32.7981,26.3881,-5.50561,-28.6008,-28.2943,26.1531,-4.38269,0.472189,8.53155,32.1982,-7.22614,-3.55705,-42.0893,-30.1521,-2.83518,-17.3328,19.0779,-28.3044,32.7981,26.3881,-5.50561,-28.6057,-28.2943,26.1531,-4.38269,0.472189,8.53658,32.2033,-7.22111,-3.55202,-42.0893,-30.1521,-2.83015,-17.3328,19.0779,-28.3044,32.8031,26.3881,-5.50561,-28.6057,-28.2943,26.1531,-4.38269,0.472189,8.53698,32.2033,-7.22111,-3.55202,-42.0893,-30.1521,-2.82974,-17.3324,19.0783,-28.3044,32.8031,26.3885,-5.50561,-28.6057,-28.2943,26.1535,-4.38269,0.472189,8.53944,32.2057,-7.21864,-3.54955,-42.0893,-30.1496,-2.82974,-17.3324,19.0783,-28.302,32.8055,26.3909,-5.50561,-28.6033,-28.2918,26.156,-4.38269,0.472189,0.0193364
85,8.53809,32.2057,-7.22,-3.55091,-42.0907,-30.1496,-2.8311,-17.3324,19.0783,-28.302,32.8042,26.3896,-5.50697,-28.6033,-28.2932,26.1546,-4.38405,0.472189,8.53675,32.2057,-7.22134,-3.55225,-42.092,-30.1496,-2.83244,-17.3337,19.0783,-28.302,32.8029,26.3896,-5.50697,-28.6033,-28.2945,26.1546,-4.38405,0.472189,8.53222,32.2012,-7.22587,-3.55678,-42.092,-30.1541,-2.83697,-17.3337,19.0783,-28.3065,32.8029,26.3896,-5.50697,-28.6078,-28.2945,26.1546,-4.38405,0.472189,8.53685,32.2058,-7.22124,-3.55215,-42.092,-30.1541,-2.83234,-17.3337,19.0783,-28.3065,32.8075,26.3896,-5.50697,-28.6078,-28.2945,26.1546,-4.38405,0.472189,8.53722,32.2058,-7.22124,-3.55215,-42.092,-30.1541,-2.83197,-17.3333,19.0787,-28.3065,32.8075,26.3899,-5.50697,-28.6078,-28.2945,26.155,-4.38405,0.472189,8.53949,32.2081,-7.21897,-3.54988,-42.092,-30.1519,-2.83197,-17.3333,19.0787,-28.3042,32.8098,26.3922,-5.50697,-28.6055,-28.2923,26.1573,-4.38405,0.472189,0.016414
86,8.53824,32.2081,-7.22022,-3.55113,-42.0933,-30.1519,-2.83322,-17.3333,19.0787,-28.3042,32.8085,26.3909,-5.50823,-28.6055,-28.2935,26.156,-4.3853,0.472189,8.53701,32.2081,-7.22145,-3.55236,-42.0945,-30.1519,-2.83445,-17.3345,19.0787,-28.3042,32.8073,26.3909,-5.50823,-28.6055,-28.2947,26.156,-4.3853,0.472189,8.53283,32.2039,-7.22563,-3.55654,-42.0945,-30.156,-2.83863,-17.3345,19.0787,-28.3084,32.8073,26.3909,-5.50823,-28.6097,-28.2947,26.156,-4.3853,0.472189,8.5371,32.2082,-7.22136,-3.55227,-42.0945,-30.156,-2.83436,-17.3345,19.0787,-28.3084,32.8115,26.3909,-5.50823,-28.6097,-28.2947,26.156,-4.3853,0.472189,8.53744,32.2082,-7.22136,-3.55227,-42.0945,-30.156,-2.83402,-17.3342,19.079,-28.3084,32.8115,26.3913,-5.50823,-28.6097,-28.2947,26.1564,-4.3853,0.472189,8.53954,32.2103,-7.21927,-3.55018,-42.0945,-30.1539,-2.83402,-17.3342,19.079,-28.3063,32.8136,26.3934,-5.50823,-28.6076,-28.2927,26.1585,-4.3853,0.472189,0.013933
87,8.53838,32.2103,-7.22043,-3.55134,-42.0957,-30.1539,-2.83518,-17.3342,19.079,-28.3063,32.8125,26.3922,-5.50939,-28.6076,-28.2938,26.1573,-4.38646,0.472189,8.53725,32.2103,-7.22155,-3.55246,-42.0968,-30.1539,-2.8363,-17.3353,19.079,-28.3063,32.8114,26.3922,-5.50939,-28.6076,-28.2949,26.1573,-4.38646,0.472189,8.5334,32.2064,-7.2254,-3.55631,-42.0968,-30.1578,-2.84015,-17.3353,19.079,-28.3102,32.8114,26.3922,-5.50939,-28.6115,-28.2949,26.1573,-4.38646,0.472189,8.53733,32.2104,-7.22148,-3.55239,-42.0968,-30.1578,-2.83623,-17.3353,19.079,-28.3102,32.8153,26.3922,-5.50939,-28.6115,-28.2949,26.1573,-4.38646,0.472189,8.53764,32.2104,-7.22148,-3.55239,-42.0968,-30.1578,-2.83591,-17.335,19.0793,-28.3102,32.8153,26.3925,-5.50939,-28.6115,-28.2949,26.1576,-4.38646,0.472189,8.53958,32.2123,-7.21954,-3.55045,-42.0968,-30.1559,-2.83591,-17.335,19.0793,-28.3082,32.8172,26.3945,-5.50939,-28.6095,-28.293,26.1595,-4.38646,0.472189,0.0118269
88,8.53851,32.2123,-7.22061,-3.55152,-42.0979,-30.1559,-2.83698,-17.335,19.0793,-28.3082,32.8161,26.3934,-5.51046,-28.6095,-28.2941,26.1585,-4.38753,0.472189,8.53747,32.2123,-7.22165,-3.55256,-42.0989,-30.1559,-2.83801,-17.336,19.0793,-28.3082,32.8151,26.3934,-5.51046,-28.6095,-28.2951,26.1585,-4.38753,0.472189,8.53392,32.2087,-7.2252,-3.55611,-42.0989,-30.1594,-2.84156,-17.336,19.0793,-28.3118,32.8151,26.3934,-5.51046,-28.6131,-28.2951,26.1585,-4.38753,0.472189,8.53754,32.2124,-7.22158,-3.55249,-42.0989,-30.1594,-2.83795,-17.336,19.0793,-28.3118,32.8187,26.3934,-5.51046,-28.6131,-28.2951,26.1585,-4.38753,0.472189,8.53783,32.2124,-7.22158,-3.55249,-42.0989,-30.1594,-2.83766,-17.3357,19.0796,-28.3118,32.8187,26.3937,-5.51046,-28.6131,-28.2951,26.1588,-4.38753,0.472189,8.53961,32.2141,-7.2198,-3.55071,-42.0989,-30.1576,-2.83766,-17.3357,19.0796,-28.31,32.8205,26.3955,-5.51046,-28.6113,-28.2933,26.1606,-4.38753,0.472189,0.010039
89,8.53863,32.2141,-7.22079,-3.5517,-42.0999,-30.1576,-2.83865,-17.3357,19.0796,-28.31,32.8195,26.3945,-5.51144,-28.6113,-28.2943,26.1596,-4.38852,0.472189,8.53768,32.2141,-7.22174,-3.55265,-42.1008,-30.1576,-2.83959,-17.3367,19.0796,-28.31,32.8186,26.3945,-5.51144,-28.6113,-28.2953,26.1596,-4.38852,0.472189,8.53441,32.2109,-7.22501,-3.55592,-42.1008,-30.1609,-2.84287,-17.3367,19.0796,-28.3133,32.8186,26.3945,-5.51144,-28.6146,-28.2953,26.1596,-4.38852,0.472189,8.53774,32.2142,-7.22168,-3.55259,-42.1008,-30.1609,-2.83954,-17.3367,19.0796,-28.3133,32.8219,26.3945,-5.51144,-28.6146,-28.2953,26.1596,-4.38852,0.472189,8.538,32.2142,-7.22168,-3.55259,-42.1008,-30.1609,-2.83927,-17.3364,19.0799,-28.3133,32.8219,26.3948,-5.51144,-28.6146,-28.2953,26.1598,-4.38852,0.472189,8.53965,32.2158,-7.22003,-3.55094,-42.1008,-30.1593,-2.83927,-17.3364,19.0799,-28.3116,32.8235,26.3964,-5.51144,-28.6129,-28.2936,26.1615,-4.38852,0.472189,0.00852124
90,8.53874,32.2158,-7.22095,-3.55186,-42.1018,-30.1593,-2.84018,-17.3364,19.0799,-28.3116,32.8226,26.3955,-5.51236,-28.6129,-28.2945,26.1606,-4.38943,0.472189,8.53786,32.2158,-7.22182,-3.55273,-42.1026,-30.1593,-2.84105,-17.3373,19.0799,-28.3116,32.8218,26.3955,-5.51236,-28.6129,-28.2954,26.1606,-4.38943,0.472189,8.53485,32.2128,-7.22483,-3.55574,-42.1026,-30.1623,-2.84407,-17.3373,19.0799,-28.3146,32.8218,26.3955,-5.51236,-28.616,-28.2954,26.1606,-4.38943,0.472189,8.53792,32.2159,-7.22177,-3.55268,-42.1026,-30.1623,-2.841,-17.3373,19.0799,-28.3146,32.8248,26.3955,-5.51236,-28.616,-28.2954,26.1606,-4.38943,0.472189,8.53816,32.2159,-7.22177,-3.55268,-42.1026,-30.1623,-2.84075,-17.337,19.0801,-28.3146,32.8248,26.3957,-5.51236,-28.616,-28.2954,26.1608,-4.38943,0.472189,8.53968,32.2174,-7.22025,-3.55116,-42.1026,-30.1608,-2.84075,-17.337,19.0801,-28.3131,32.8263,26.3973,-5.51236,-28.6144,-28.2939,26.1623,-4.38943,0.472189,0.00723286
91,8.53884,32.2174,-7.22109,-3.552,-42.1035,-30.1608,-2.84159,-17.337,19.0801,-28.3131,32.8255,26.3964,-5.5132,-28.6144,-28.2947,26.1615,-4.39027,0.472189,8.53804,32.2174,-7.22189,-3.5528,-42.1043,-30.1608,-2.84239,-17.3378,19.0801,-28.3131,32.8247,26.3964,-5.5132,-28.6144,-28.2955,26.1615,-4.39027,0.472189,8.53526,32.2146,-7.22467,-3.55558,-42.1043,-30.1635,-2.84517,-17.3378,19.0801,-28.3159,32.8247,26.3964,-5.5132,-28.6172,-28.2955,26.1615,-4.39027,0.472189,8.53808,32.2175,-7.22185,-3.55276,-42.1043,-30.1635,-2.84235,-17.3378,19.0801,-28.3159,32.8275,26.3964,-5.5132,-28.6172,-28.2955,26.1615,-4.39027,0.472189,8.53831,32.2175,-7.22185,-3.55276,-42.1043,-30.1635,-2.84212,-17.3376,19.0803,-28.3159,32.8275,26.3966,-5.5132,-28.6172,-28.2955,26.1617,-4.39027,0.472189,8.53971,32.2189,-7.22045,-3.55136,-42.1043,-30.1621,-2.84212,-17.3376,19.0803,-28.3145,32.8289,26.398,-5.5132,-28.6158,-28.2941,26.1631,-4.39027,0.472189,0.0061392
92,8.53893,32.2189,-7.22123,-3.55214,-42.105,-30.1621,-2.8429,-17.3376,19.0803,-28.3145,32.8281,26.3973,-5.51397,-28.6158,-28.2949,26.1623,-4.39105,0.472189,8.53819,32.2189,-7.22196,-3.55287,-42.1058,-30.1621,-2.84363,-17.3384,19.0803,-28.3145,32.8274,26.3973,-5.51397,-28.6158,-28.2956,26.1623,-4.39105,0.472189,8.53563,32.2163,-7.22452,-3.55543,-42.1058,-30.1647,-2.8462,-17.3384,19.0803,-28.3171,32.8274,26.3973,-5.51397,-28.6184,-28.2956,26.1623,-4.39105,0.472189,8.53823,32.2189,-7.22192,-3.55283,-42.1058,-30.1647,-2.84359,-17.3384,19.0803,-28.3171,32.83,26.3973,-5.51397,-28.6184,-28.2956,26.1623,-4.39105,0.472189,8.53844,32.2189,-7.22192,-3.55283,-42.1058,-30.1647,-2.84338,-17.3381,19.0806,-28.3171,32.83,26.3975,-5.51397,-28.6184,-28.2956,26.1625,-4.39105,0.472189,8.53973,32.2202,-7.22063,-3.55154,-42.1058,-30.1634,-2.84338,-17.3381,19.0806,-28.3158,32.8313,26.3988,-5.51397,-28.6171,-28.2944,26.1638,-4.39105,0.472189,0.00521084
93,8.53901,32.2202,-7.22135,-3.55226,-42.1065,-30.1634,-2.8441,-17.3381,19.0806,-28.3158,32.8306,26.398,-5.51469,-28.6171,-28.2951,26.1631,-4.39177,0.472189,8.53834,32.2202,-7.22203,-3.55294,-42.1072,-30.1634,-2.84478,-17.3388,19.0806,-28.3158,32.8299,26.398,-5.51469,-28.6171,-28.2957,26.1631,-4.39177,0.472189,8.53598,32.2178,-7.22439,-3.5553,-42.1072,-30.1658,-2.84714,-17.3388,19.0806,-28.3181,32.8299,26.398,-5.51469,-28.6195,-28.2957,26.1631,-4.39177,0.472189,8.53837,32.2202,-7.22199,-3.5529,-42.1072,-30.1658,-2.84474,-17.3388,19.0806,-28.3181,32.8323,26.398,-5.51469,-28.6195,-28.2957,26.1631,-4.39177,0.472189,8.53857,32.2202,-7.22199,-3.5529,-42.1072,-30.1658,-2.84455,-17.3386,19.0807,-28.3181,32.8323,26.3982,-5.51469,-28.6195,-28.2957,26.1633,-4.39177,0.472189,8.53975,32.2214,-7.2208,-3.55171,-42.1072,-30.1646,-2.84455,-17.3386,19.0807,-28.3169,32.8335,26.3994,-5.51469,-28.6183,-28.2946,26.1645,-4.39177,0.472189,0.00442281
94,8.53909,32.2214,-7.22147,-3.55238,-42.1078,-30.1646,-2.84521,-17.3386,19.0807,-28.3169,32.8328,26.3988,-5.51535,-28.6183,-28.2952,26.1638,-4.39243,0.472189,8.53847,32.2214,-7.22209,-3.553,-42.1085,-30.1646,-2.84583,-17.3393,19.0807,-28.3169,32.8322,26.3988,-5.51535,-28.6183,-28.2958,26.1638,-4.39243,0.472189,8.5363,32.2192,-7.22426,-3.55517,-42.1085,-30.1668,-2.84801,-17.3393,19.0807,-28.3191,32.8322,26.3988,-5.51535,-28.6204,-28.2958,26.1638,-4.39243,0.472189,8.5385,32.2214,-7.22206,-3.55297,-42.1085,-30.1668,-2.8458,-17.3393,19.0807,-28.3191,32.8344,26.3988,-5.51535,-28.6204,-28.2958,26.1638,-4.39243,0.472189,8.53868,32.2214,-7.22206,-3.55297,-42.1085,-30.1668,-2.84562,-17.3391,19.0809,-28.3191,32.8344,26.3989,-5.51535,-28.6204,-28.2958,26.164,-4.39243,0.472189,8.53978,32.2225,-7.22096,-3.55187,-42.1085,-30.1657,-2.84562,-17.3391,19.0809,-28.318,32.8355,26.4,-5.51535,-28.6193,-28.2947,26.1651,-4.39243,0.472189,0.00375391
95,8.53917,32.2225,-7.22157,-3.55248,-42.1091,-30.1657,-2.84623,-17.3391,19.0809,-28.318,32.8349,26.3994,-5.51596,-28.6193,-28.2954,26.1645,-4.39304,0.472189,8.53859,32.2225,-7.22214,-3.55305,-42.1096,-30.1657,-2.84681,-17.3396,19.0809,-28.318,32.8343,26.3994,-5.51596,-28.6193,-28.2959,26.1645,-4.39304,0.472189,8.53659,32.2205,-7.22415,-3.55506,-42.1096,-30.1677,-2.84881,-17.3396,19.0809,-28.32,32.8343,26.3994,-5.51596,-28.6214,-28.2959,26.1645,-4.39304,0.472189,8.53862,32.2226,-7.22212,-3.55303,-42.1096,-30.1677,-2.84678,-17.3396,19.0809,-28.32,32.8364,26.3994,-5.51596,-28.6214,-28.2959,26.1645,-4.39304,0.472189,8.53879,32.2226,-7.22212,-3.55303,-42.1096,-30.1677,-2.84661,-17.3395,19.0811,-28.32,32.8364,26.3996,-5.51596,-28.6214,-28.2959,26.1647,-4.39304,0.472189,8.5398,32.2236,-7.22111,-3.55202,-42.1096,-30.1667,-2.84661,-17.3395,19.0811,-28.319,32.8374,26.4006,-5.51596,-28.6203,-28.2949,26.1657,-4.39304,0.472189,0.00318613
96,8.53923,32.2236,-7.22167,-3.55258,-42.1102,-30.1667,-2.84718,-17.3395,19.0811,-28.319,32.8368,26.4,-5.51653,-28.6203,-28.2955,26.1651,-4.3936,0.472189,8.53871,32.2236,-7.22219,-3.5531,-42.1107,-30.1667,-2.8477,-17.34,19.0811,-28.319,32.8363,26.4,-5.51653,-28.6203,-28.296,26.1651,-4.3936,0.472189,8.53686,32.2217,-7.22404,-3.55495,-42.1107,-30.1685,-2.84955,-17.34,19.0811,-28.3209,32.8363,26.4,-5.51653,-28.6222,-28.296,26.1651,-4.3936,0.472189,8.53873,32.2236,-7.22217,-3.55308,-42.1107,-30.1685,-2.84768,-17.34,19.0811,-28.3209,32.8382,26.4,-5.51653,-28.6222,-28.296,26.1651,-4.3936,0.472189,8.53888,32.2236,-7.22217,-3.55308,-42.1107,-30.1685,-2.84753,-17.3399,19.0812,-28.3209,32.8382,26.4002,-5.51653,-28.6222,-28.296,26.1653,-4.3936,0.472189,8.53981,32.2245,-7.22124,-3.55215,-42.1107,-30.1676,-2.84753,-17.3399,19.0812,-28.3199,32.8391,26.4011,-5.51653,-28.6213,-28.2951,26.1662,-4.3936,0.472189,0.0027042
97,8.53929,32.2245,-7.22176,-3.55267,-42.1112,-30.1676,-2.84805,-17.3399,19.0812,-28.3199,32.8386,26.4006,-5.51705,-28.6213,-28.2956,26.1657,-4.39412,0.472189,8.53881,32.2245,-7.22224,-3.55315,-42.1117,-30.1676,-2.84853,-17.3403,19.0812,-28.3199,32.8381,26.4006,-5.51705,-28.6213,-28.2961,26.1657,-4.39412,0.472189,8.53711,32.2228,-7.22394,-3.55485,-42.1117,-30.1693,-2.85023,-17.3403,19.0812,-28.3216,32.8381,26.4006,-5.51705,-28.623,-28.2961,26.1657,-4.39412,0.472189,8.53883,32.2245,-7.22222,-3.55313,-42.1117,-30.1693,-2.84851,-17.3403,19.0812,-28.3216,32.8398,26.4006,-5.51705,-28.623,-28.2961,26.1657,-4.39412,0.472189,8.53897,32.2245,-7.22222,-3.55313,-42.1117,-30.1693,-2.84837,-17.3402,19.0814,-28.3216,32.8398,26.4007,-5.51705,-28.623,-28.2961,26.1658,-4.39412,0.472189,8.53983,32.2254,-7.22136,-3.55227,-42.1117,-30.1684,-2.84837,-17.3402,19.0814,-28.3208,32.8407,26.4016,-5.51705,-28.6221,-28.2952,26.1667,-4.39412,0.472189,0.00229514
98,8.53935,32.2254,-7.22184,-3.55275,-42.1122,-30.1684,-2.84885,-17.3402,19.0814,-28.3208,32.8402,26.4011,-5.51753,-28.6221,-28.2957,26.1662,-4.3946,0.472189,8.53891,32.2254,-7.22229,-3.5532,-42.1127,-30.1684,-2.84929,-17.3406,19.0814,-28.3208,32.8397,26.4011,-5.51753,-28.6221,-28.2961,26.1662,-4.3946,0.472189,8.53734,32.2238,-7.22385,-3.55476,-42.1127,-30.17,-2.85086,-17.3406,19.0814,-28.3224,32.8397,26.4011,-5.51753,-28.6237,-28.2961,26.1662,-4.3946,0.472189,8.53892,32.2254,-7.22227,-3.55318,-42.1127,-30.17,-2.84927,-17.3406,19.0814,-28.3224,32.8413,26.4011,-5.51753,-28.6237,-28.2961,26.1662,-4.3946,0.472189,8.53905,32.2254,-7.22227,-3.55318,-42.1127,-30.17,-2.84915,-17.3405,19.0815,-28.3224,32.8413,26.4012,-5.51753,-28.6237,-28.2961,26.1663,-4.3946,0.472189,8.53984,32.2262,-7.22148,-3.55239,-42.1127,-30.1692,-2.84915,-17.3405,19.0815,-28.3216,32.8421,26.402,-5.51753,-28.6229,-28.2954,26.1671,-4.3946,0.472189,0.00194794
99,8.5394,32.2262,-7.22192,-3.55283,-42.1131,-30.1692,-2.84959,-17.3405,19.0815,-28.3216,32.8417,26.4016,-5.51797,-28.6229,-28.2958,26.1667,-4.39504,0.472189,8.53899,32.2262,-7.22233,-3.55324,-42.1135,-30.1692,-2.85,-17.3409,19.0815,-28.3216,32.8413,26.4016,-5.51797,-28.6229,-28.2962,26.1667,-4.39504,0.472189,8.53755,32.2248,-7.22377,-3.55468,-42.1135,-30.1706,-2.85144,-17.3409,19.0815,-28.323,32.8413,26.4016,-5.51797,-28.6243,-28.2962,26.1667,-4.39504,0.472189,8.53901,32.2262,-7.22231,-3.55322,-42.1135,-30.1706,-2.84998,-17.3409,19.0815,-28.323,32.8427,26.4016,-5.51797,-28.6243,-28.2962,26.1667,-4.39504,0.472189,8.53913,32.2262,-7.22231,-3.55322,-42.1135,-30.1706,-2.84986,-17.3408,19.0816,-28.323,32.8427,26.4017,-5.51797,-28.6243,-28.2962,26.1668,-4.39504,0.472189,8.53986,32.227,-7.22158,-3.55249,-42.1135,-30.1699,-2.84986,-17.3408,19.0816,-28.3223,32.8435,26.4024,-5.51797,-28.6236,-28.2955,26.1675,-4.39504,0.472189,0.00165324
