1,17.7757,2.99415,0.170555,1.95015,3.75177,0.12001,0.681799,0.909084,0.363453,0.706976,0.27627,0.195563,1.71784,2.48866,6.10377,0.0915583,0.203992,3.2112,12.6857,2.99415,-4.91939,-3.1398,-1.33817,0.12001,-4.40815,-4.18086,0.363453,0.706976,-4.81368,0.195563,1.71784,2.48866,1.01382,0.0915583,0.203992,3.2112,8.98969,-0.701863,-8.6154,-6.83581,-1.33817,-3.576,-8.10416,-4.18086,0.363453,-2.98903,-4.81368,0.195563,1.71784,-1.20735,1.01382,0.0915583,0.203992,3.2112,13.4387,3.74709,-4.16644,-2.38685,-1.33817,-3.576,-3.6552,-4.18086,0.363453,-2.98903,-0.364721,0.195563,1.71784,-1.20735,1.01382,0.0915583,0.203992,3.2112,16.4246,3.74709,-4.16644,-2.38685,-1.33817,-3.576,-0.669265,-1.19493,3.34939,-2.98903,-0.364721,3.1815,1.71784,-1.20735,1.01382,3.07749,0.203992,3.2112,15.716,3.03853,-4.87501,-3.09541,-1.33817,-4.28456,-0.669265,-1.19493,3.34939,-3.69759,-1.07328,2.47294,1.71784,-1.91591,0.305258,2.36893,0.203992,3.2112,22422.1
2,15.0641,3.03853,-5.52689,-3.74729,-1.99005,-4.28456,-1.32115,-1.19493,3.34939,-3.69759,-1.72516,1.82106,1.06595,-1.91591,-0.346622,1.71705,-0.447888,3.2112,11.7746,3.03853,-8.81644,-7.03685,-5.27961,-4.28456,-4.6107,-4.48449,3.34939,-3.69759,-5.01472,1.82106,1.06595,-1.91591,-3.63618,1.71705,-0.447888,3.2112,9.30508,0.569029,-11.2859,-9.50635,-5.27961,-6.75406,-7.08021,-4.48449,3.34939,-6.1671,-5.01472,1.82106,1.06595,-4.38542,-3.63618,1.71705,-0.447888,3.2112,13.9169,5.18087,-6.67411,-4.89451,-5.27961,-6.75406,-2.46837,-4.48449,3.34939,-6.1671,-0.402881,1.82106,1.06595,-4.38542,-3.63618,1.71705,-0.447888,3.2112,16.4807,5.18087,-6.67411,-4.89451,-5.27961,-6.75406,0.0954346,-1.92068,5.91319,-6.1671,-0.402881,4.38486,1.06595,-4.38542,-3.63618,4.28085,-0.447888,3.2112,16.6244,5.32459,-6.53039,-4.75079,-5.27961,-6.61034,0.0954346,-1.92068,5.91319,-6.02338,-0.259161,4.52858,1.06595,-4.2417,-3.49246,4.42457,-0.447888,3.2112,14545.3
3,16.2923,5.32459,-6.86254,-5.08294,-5.61176,-6.61034,-0.236714,-1.92068,5.91319,-6.02338,-0.59131,4.19643,0.733806,-4.2417,-3.82461,4.09243,-0.780037,3.2112,13.3944,5.32459,-9.76041,-7.98082,-8.50963,-6.61034,-3.13459,-4.81856,5.91319,-6.02338,-3.48918,4.19643,0.733806,-4.2417,-6.72248,4.09243,-0.780037,3.2112,11.1184,3.0486,-12.0364,-10.2568,-8.50963,-8.88633,-5.41058,-4.81856,5.91319,-8.29936,-3.48918,4.19643,0.733806,-6.51768,-6.72248,4.09243,-0.780037,3.2112,15.3977,7.32782,-7.75718,-5.97759,-8.50963,-8.88633,-1.13136,-4.81856,5.91319,-8.29936,0.790034,4.19643,0.733806,-6.51768,-6.72248,4.09243,-0.780037,3.2112,17.4171,7.32782,-7.75718,-5.97759,-8.50963,-8.88633,0.888099,-2.7991,7.93265,-8.29936,0.790034,6.21589,0.733806,-6.51768,-6.72248,6.11188,-0.780037,3.2112,17.767,7.6777,-7.4073,-5.6277,-8.50963,-8.53645,0.888099,-2.7991,7.93265,-7.94948,1.13992,6.56577,0.733806,-6.1678,-6.3726,6.46177,-0.780037,3.2112,11716.8
4,17.497,7.6777,-7.67725,-5.89765,-8.77958,-8.53645,0.61815,-2.7991,7.93265,-7.94948,0.869969,6.29582,0.463857,-6.1678,-6.64255,6.19182,-1.04999,3.2112,14.8754,7.6777,-10.2989,-8.51927,-11.4012,-8.53645,-2.00346,-5.42072,7.93265,-7.94948,-1.75164,6.29582,0.463857,-6.1678,-9.26416,6.19182,-1.04999,3.2112,12.7044,5.50671,-12.4698,-10.6903,-11.4012,-10.7074,-4.17445,-5.42072,7.93265,-10.1205,-1.75164,6.29582,0.463857,-8.33879,-9.26416,6.19182,-1.04999,3.2112,16.6419,9.44422,-8.53235,-6.75275,-11.4012,-10.7074,-0.23695,-5.42072,7.93265,-10.1205,2.18586,6.29582,0.463857,-8.33879,-9.26416,6.19182,-1.04999,3.2112,18.2306,9.44422,-8.53235,-6.75275,-11.4012,-10.7074,1.35169,-3.83208,9.52128,-10.1205,2.18586,7.88446,0.463857,-8.33879,-9.26416,7.78045,-1.04999,3.2112,18.6856,9.89924,-8.07732,-6.29773,-11.4012,-10.2524,1.35169,-3.83208,9.52128,-9.66545,2.64088,8.33948,0.463857,-7.88377,-8.80914,8.23547,-1.04999,3.2112,9678.59
5,18.4588,9.89924,-8.30408,-6.52449,-11.628,-10.2524,1.12493,-3.83208,9.52128,-9.66545,2.41413,8.11272,0.237102,-7.88377,-9.0359,8.00872,-1.27674,3.2112,16.0881,9.89924,-10.6748,-8.89523,-13.9987,-10.2524,-1.24581,-6.20282,9.52128,-9.66545,0.0433804,8.11272,0.237102,-7.88377,-11.4066,8.00872,-1.27674,3.2112,14.012,7.82314,-12.7509,-10.9713,-13.9987,-12.3285,-3.32192,-6.20282,9.52128,-11.7416,0.0433804,8.11272,0.237102,-9.95987,-11.4066,8.00872,-1.27674,3.2112,17.6323,11.4434,-9.13061,-7.35102,-13.9987,-12.3285,0.298398,-6.20282,9.52128,-11.7416,3.66369,8.11272,0.237102,-9.95987,-11.4066,8.00872,-1.27674,3.2112,18.8895,11.4434,-9.13061,-7.35102,-13.9987,-12.3285,1.55559,-4.94564,10.7785,-11.7416,3.66369,9.36991,0.237102,-9.95987,-11.4066,9.26591,-1.27674,3.2112,19.4054,11.9593,-8.61474,-6.83514,-13.9987,-11.8126,1.55559,-4.94564,10.7785,-11.2257,4.17957,9.88579,0.237102,-9.444,-10.8908,9.78178,-1.27674,3.2112,8074.16
6,19.2149,11.9593,-8.80524,-7.02565,-14.1892,-11.8126,1.36508,-4.94564,10.7785,-11.2257,3.98906,9.69528,0.0465954,-9.444,-11.0813,9.59128,-1.46725,3.2112,17.0748,11.9593,-10.9454,-9.16576,-16.3293,-11.8126,-0.775032,-7.08575,10.7785,-11.2257,1.84895,9.69528,0.0465954,-9.444,-13.2214,9.59128,-1.46725,3.2112,15.0933,9.9779,-12.9268,-11.1472,-16.3293,-13.7941,-2.75646,-7.08575,10.7785,-13.2071,1.84895,9.69528,0.0465954,-11.4254,-13.2214,9.59128,-1.46725,3.2112,18.4217,13.3062,-9.59843,-7.81884,-16.3293,-13.7941,0.571891,-7.08575,10.7785,-13.2071,5.1773,9.69528,0.0465954,-11.4254,-13.2214,9.59128,-1.46725,3.2112,19.4232,13.3062,-9.59843,-7.81884,-16.3293,-13.7941,1.5734,-6.08424,11.78,-13.2071,5.1773,10.6968,0.0465954,-11.4254,-13.2214,10.5928,-1.46725,3.2112,19.9715,13.8545,-9.05016,-7.27056,-16.3293,-13.2458,1.5734,-6.08424,11.78,-12.6588,5.72557,11.2451,0.0465954,-10.8771,-12.6731,11.1411,-1.46725,3.2112,6776.08
7,19.8096,13.8545,-9.21198,-7.43238,-16.4911,-13.2458,1.41158,-6.08424,11.78,-12.6588,5.56375,11.0832,-0.115224,-10.8771,-12.8349,10.9792,-1.62907,3.2112,17.8802,13.8545,-11.1414,-9.36185,-18.4206,-13.2458,-0.517882,-8.0137,11.78,-12.6588,3.63429,11.0832,-0.115224,-10.8771,-14.7644,10.9792,-1.62907,3.2112,15.9951,11.9694,-13.0265,-11.2469,-18.4206,-15.1309,-2.40298,-8.0137,11.78,-14.5439,3.63429,11.0832,-0.115224,-12.7622,-14.7644,10.9792,-1.62907,3.2112,19.055,15.0293,-9.96667,-8.18707,-18.4206,-15.1309,0.65689,-8.0137,11.78,-14.5439,6.69416,11.0832,-0.115224,-12.7622,-14.7644,10.9792,-1.62907,3.2112,19.8583,15.0293,-9.96667,-8.18707,-18.4206,-15.1309,1.46019,-7.2104,12.5833,-14.5439,6.69416,11.8865,-0.115224,-12.7622,-14.7644,11.7825,-1.62907,3.2112,20.4196,15.5906,-9.40531,-7.62572,-18.4206,-14.5695,1.46019,-7.2104,12.5833,-13.9826,7.25552,12.4479,-0.115224,-12.2009,-14.203,12.3439,-1.62907,3.2112,5708.67
8,20.2792,15.5906,-9.54576,-7.76617,-18.561,-14.5695,1.31974,-7.2104,12.5833,-13.9826,7.11506,12.3074,-0.255677,-12.2009,-14.3435,12.2034,-1.76952,3.2112,18.541,15.5906,-11.2839,-9.50434,-20.2992,-14.5695,-0.418434,-8.94857,12.5833,-13.9826,5.37689,12.3074,-0.255677,-12.2009,-16.0817,12.2034,-1.76952,3.2112,16.7537,13.8033,-13.0713,-11.2917,-20.2992,-16.3569,-2.20576,-8.94857,12.5833,-15.7699,5.37689,12.3074,-0.255677,-13.9882,-16.0817,12.2034,-1.76952,3.2112,19.5667,16.6164,-10.2582,-8.47863,-20.2992,-16.3569,0.607282,-8.94857,12.5833,-15.7699,8.18994,12.3074,-0.255677,-13.9882,-16.0817,12.2034,-1.76952,3.2112,20.2156,16.6164,-10.2582,-8.47863,-20.2992,-16.3569,1.25619,-8.29966,13.2322,-15.7699,8.18994,12.9564,-0.255677,-13.9882,-16.0817,12.8524,-1.76952,3.2112,20.7769,17.1776,-9.69695,-7.91736,-20.2992,-15.7956,1.25619,-8.29966,13.2322,-15.2086,8.75121,13.5176,-0.255677,-13.4269,-15.5204,13.4136,-1.76952,3.2112,4821.39
9,20.6515,17.1776,-9.82231,-8.04271,-20.4246,-15.7956,1.13084,-8.29966,13.2322,-15.2086,8.62585,13.3923,-0.381034,-13.4269,-15.6457,13.2883,-1.89488,3.2112,19.0863,17.1776,-11.3875,-9.60789,-21.9898,-15.7956,-0.434341,-9.86484,13.2322,-15.2086,7.06067,13.3923,-0.381034,-13.4269,-17.2109,13.2883,-1.89488,3.2112,17.3973,15.4886,-13.0765,-11.297,-21.9898,-17.4847,-2.1234,-9.86484,13.2322,-16.8977,7.06067,13.3923,-0.381034,-15.116,-17.2109,13.2883,-1.89488,3.2112,19.9834,18.0747,-10.4904,-8.71082,-21.9898,-17.4847,0.46273,-9.86484,13.2322,-16.8977,9.6468,13.3923,-0.381034,-15.116,-17.2109,13.2883,-1.89488,3.2112,20.5115,18.0747,-10.4904,-8.71082,-21.9898,-17.4847,0.990839,-9.33673,13.7603,-16.8977,9.6468,13.9204,-0.381034,-15.116,-17.2109,13.8164,-1.89488,3.2112,21.0638,18.627,-9.93815,-8.15856,-21.9898,-16.9324,0.990839,-9.33673,13.7603,-16.3454,10.1991,14.4726,-0.381034,-14.5637,-16.6587,14.3686,-1.89488,3.2112,4078.5
10,20.9486,18.627,-10.0534,-8.27378,-22.105,-16.9324,0.87562,-9.33673,13.7603,-16.3454,10.0838,14.3574,-0.496253,-14.5637,-16.7739,14.2534,-2.0101,3.2112,19.5394,18.627,-11.4626,-9.68296,-23.5142,-16.9324,-0.533563,-10.7459,13.7603,-16.3454,8.67466,14.3574,-0.496253,-14.5637,-18.1831,14.2534,-2.0101,3.2112,17.948,17.0355,-13.054,-11.2744,-23.5142,-18.5238,-2.12499,-10.7459,13.7603,-17.9369,8.67466,14.3574,-0.496253,-16.1552,-18.1831,14.2534,-2.0101,3.2112,20.3255,19.4131,-10.6765,-8.89688,-23.5142,-18.5238,0.252519,-10.7459,13.7603,-17.9369,11.0522,14.3574,-0.496253,-16.1552,-18.1831,14.2534,-2.0101,3.2112,20.7586,19.4131,-10.6765,-8.89688,-23.5142,-18.5238,0.685674,-10.3128,14.1935,-17.9369,11.0522,14.7906,-0.496253,-16.1552,-18.1831,14.6866,-2.0101,3.2112,21.2959,19.9503,-10.1392,-8.35959,-23.5142,-17.9865,0.685674,-10.3128,14.1935,-17.3996,11.5895,15.3279,-0.496253,-15.6179,-17.6458,15.2239,-2.0101,3.2112,3453.56
11,21.1872,19.9503,-10.2479,-8.46835,-23.6229,-17.9865,0.57691,-10.3128,14.1935,-17.3996,11.4807,15.2191,-0.605017,-15.6179,-17.7545,15.1151,-2.11886,3.2112,19.9184,19.9503,-11.5167,-9.73714,-24.8917,-17.9865,-0.691882,-11.5816,14.1935,-17.3996,10.2119,15.2191,-0.605017,-15.6179,-19.0233,15.1151,-2.11886,3.2112,18.4229,18.4548,-13.0122,-11.2326,-24.8917,-19.482,-2.18738,-11.5816,14.1935,-18.8951,10.2119,15.2191,-0.605017,-17.1134,-19.0233,15.1151,-2.11886,3.2112,20.6086,20.6405,-10.8265,-9.04694,-24.8917,-19.482,-0.00167876,-11.5816,14.1935,-18.8951,12.3976,15.2191,-0.605017,-17.1134,-19.0233,15.1151,-2.11886,3.2112,20.9667,20.6405,-10.8265,-9.04694,-24.8917,-19.482,0.356488,-11.2234,14.5516,-18.8951,12.3976,15.5773,-0.605017,-17.1134,-19.0233,15.4733,-2.11886,3.2112,21.4852,21.159,-10.3081,-8.5285,-24.8917,-18.9636,0.356488,-11.2234,14.5516,-18.3766,12.916,16.0957,-0.605017,-16.5949,-18.5049,15.9917,-2.11886,3.2112,2926.27
12,21.3803,21.159,-10.413,-8.63339,-24.9966,-18.9636,0.251597,-11.2234,14.5516,-18.3766,12.8112,15.9908,-0.709907,-16.5949,-18.6098,15.8868,-2.22375,3.2112,20.2377,21.159,-11.5556,-9.776,-26.1392,-18.9636,-0.891007,-12.366,14.5516,-18.3766,11.6686,15.9908,-0.709907,-16.5949,-19.7524,15.8868,-2.22375,3.2112,18.8355,19.7568,-12.9578,-11.1782,-26.1392,-20.3658,-2.29317,-12.366,14.5516,-19.7788,11.6686,15.9908,-0.709907,-17.9971,-19.7524,15.8868,-2.22375,3.2112,20.8449,21.7662,-10.9484,-9.16882,-26.1392,-20.3658,-0.283824,-12.366,14.5516,-19.7788,13.6779,15.9908,-0.709907,-17.9971,-19.7524,15.8868,-2.22375,3.2112,21.1435,21.7662,-10.9484,-9.16882,-26.1392,-20.3658,0.0148265,-12.0673,14.8503,-19.7788,13.6779,16.2895,-0.709907,-17.9971,-19.7524,16.1855,-2.22375,3.2112,21.6407,22.2633,-10.4513,-8.67166,-26.1392,-19.8686,0.0148265,-12.0673,14.8503,-19.2816,14.1751,16.7866,-0.709907,-17.5,-19.2552,16.6826,-2.22375,3.2112,2480.53
13,21.538,22.2633,-10.554,-8.77437,-26.2419,-19.8686,-0.0878821,-12.0673,14.8503,-19.2816,14.0723,16.6839,-0.812616,-17.5,-19.3579,16.5799,-2.32646,3.2112,20.5087,22.2633,-11.5832,-9.80364,-27.2712,-19.8686,-1.11715,-13.0966,14.8503,-19.2816,13.0431,16.6839,-0.812616,-17.5,-20.3872,16.5799,-2.32646,3.2112,19.1966,20.9512,-12.8953,-11.1157,-27.2712,-21.1807,-2.42925,-13.0966,14.8503,-20.5937,13.0431,16.6839,-0.812616,-18.8121,-20.3872,16.5799,-2.32646,3.2112,21.0438,22.7984,-11.0481,-9.26855,-27.2712,-21.1807,-0.58206,-13.0966,14.8503,-20.5937,14.8903,16.6839,-0.812616,-18.8121,-20.3872,16.5799,-2.32646,3.2112,21.2949,22.7984,-11.0481,-9.26855,-27.2712,-21.1807,-0.330904,-12.8455,15.1014,-20.5937,14.8903,16.9351,-0.812616,-18.8121,-20.3872,16.8311,-2.32646,3.2112,21.7694,23.2729,-10.5737,-8.79407,-27.2712,-20.7062,-0.330904,-12.8455,15.1014,-20.1193,15.3647,17.4095,-0.812616,-18.3376,-19.9127,17.3055,-2.32646,3.2112,2103.29
14,21.6679,23.2729,-10.6752,-8.8956,-27.3727,-20.7062,-0.432439,-12.8455,15.1014,-20.1193,15.2632,17.308,-0.91415,-18.3376,-20.0143,17.204,-2.42799,3.2112,20.7404,23.2729,-11.6027,-9.82312,-28.3002,-20.7062,-1.35996,-13.773,15.1014,-20.1193,14.3357,17.308,-0.91415,-18.3376,-20.9418,17.204,-2.42799,3.2112,19.5146,22.0471,-12.8285,-11.0489,-28.3002,-21.932,-2.58576,-13.773,15.1014,-21.3451,14.3357,17.308,-0.91415,-19.5634,-20.9418,17.204,-2.42799,3.2112,21.2127,23.7452,-11.1304,-9.35082,-28.3002,-21.932,-0.887657,-13.773,15.1014,-21.3451,16.0338,17.308,-0.91415,-19.5634,-20.9418,17.204,-2.42799,3.2112,21.4257,23.7452,-11.1304,-9.35082,-28.3002,-21.932,-0.674628,-13.5599,15.3145,-21.3451,16.0338,17.521,-0.91415,-19.5634,-20.9418,17.417,-2.42799,3.2112,21.8768,24.1963,-10.6793,-8.89967,-28.3002,-21.4809,-0.674628,-13.5599,15.3145,-20.8939,16.4849,17.9722,-0.91415,-19.1122,-20.4906,17.8682,-2.42799,3.2112,1783.79
15,21.776,24.1963,-10.7801,-9.00054,-28.4011,-21.4809,-0.775493,-13.5599,15.3145,-20.8939,16.3841,17.8713,-1.01502,-19.1122,-20.5915,17.7673,-2.52886,3.2112,20.9398,24.1963,-11.6163,-9.83672,-29.2373,-21.4809,-1.61168,-14.3961,15.3145,-20.8939,15.5479,17.8713,-1.01502,-19.1122,-21.4277,17.7673,-2.52886,3.2112,19.7962,23.0528,-12.7599,-10.9803,-29.2373,-22.6244,-2.75526,-14.3961,15.3145,-22.0375,15.5479,17.8713,-1.01502,-20.2558,-21.4277,17.7673,-2.52886,3.2112,21.3572,24.6138,-11.1989,-9.41927,-29.2373,-22.6244,-1.19423,-14.3961,15.3145,-22.0375,17.1089,17.8713,-1.01502,-20.2558,-21.4277,17.7673,-2.52886,3.2112,21.5395,24.6138,-11.1989,-9.41927,-29.2373,-22.6244,-1.012,-14.2139,15.4967,-22.0375,17.1089,18.0536,-1.01502,-20.2558,-21.4277,17.9495,-2.52886,3.2112,21.9671,25.0415,-10.7712,-8.99159,-29.2373,-22.1968,-1.012,-14.2139,15.4967,-21.6098,17.5366,18.4812,-1.01502,-19.8281,-21,18.3772,-2.52886,3.2112,1513.08
16,21.8668,25.0415,-10.8715,-9.09193,-29.3376,-22.1968,-1.11235,-14.2139,15.4967,-21.6098,17.4363,18.3809,-1.11536,-19.8281,-21.1004,18.2769,-2.62921,3.2112,21.1126,25.0415,-11.6257,-9.84612,-30.0918,-22.1968,-1.86654,-14.9681,15.4967,-21.6098,16.6821,18.3809,-1.11536,-19.8281,-21.8545,18.2769,-2.62921,3.2112,20.047,23.9759,-12.6913,-10.9117,-30.0918,-23.2624,-2.93215,-14.9681,15.4967,-22.6754,16.6821,18.3809,-1.11536,-20.8937,-21.8545,18.2769,-2.62921,3.2112,21.482,25.4109,-11.2563,-9.47672,-30.0918,-23.2624,-1.49713,-14.9681,15.4967,-22.6754,18.1171,18.3809,-1.11536,-20.8937,-21.8545,18.2769,-2.62921,3.2112,21.6392,25.4109,-11.2563,-9.47672,-30.0918,-23.2624,-1.33998,-14.8109,15.6538,-22.6754,18.1171,18.538,-1.11536,-20.8937,-21.8545,18.434,-2.62921,3.2112,22.0436,25.8153,-10.8519,-9.07228,-30.0918,-22.8579,-1.33998,-14.8109,15.6538,-22.271,18.5215,18.9425,-1.11536,-20.4893,-21.4501,18.8385,-2.62921,3.2112,1283.63
17,21.9439,25.8153,-10.9516,-9.17203,-30.1916,-22.8579,-1.43973,-14.8109,15.6538,-22.271,18.4218,18.8427,-1.21511,-20.4893,-21.5499,18.7387,-2.72895,3.2112,21.2633,25.8153,-11.6322,-9.85258,-30.8721,-22.8579,-2.12028,-15.4915,15.6538,-22.271,17.7412,18.8427,-1.21511,-20.4893,-22.2304,18.7387,-2.72895,3.2112,20.2713,24.8234,-12.6241,-10.8445,-30.8721,-23.8499,-3.11224,-15.4915,15.6538,-23.2629,17.7412,18.8427,-1.21511,-21.4813,-22.2304,18.7387,-2.72895,3.2112,21.5905,26.1425,-11.305,-9.52538,-30.8721,-23.8499,-1.79308,-15.4915,15.6538,-23.2629,19.0604,18.8427,-1.21511,-21.4813,-22.2304,18.7387,-2.72895,3.2112,21.7271,26.1425,-11.305,-9.52538,-30.8721,-23.8499,-1.65648,-15.3549,15.7904,-23.2629,19.0604,18.9793,-1.21511,-21.4813,-22.2304,18.8753,-2.72895,3.2112,22.1088,26.5242,-10.9233,-9.1437,-30.8721,-23.4682,-1.65648,-15.3549,15.7904,-22.8813,19.4421,19.361,-1.21511,-21.0996,-21.8487,19.257,-2.72895,3.2112,1089.12
18,22.0099,26.5242,-11.0222,-9.24261,-30.971,-23.4682,-1.75539,-15.3549,15.7904,-22.8813,19.3432,19.2621,-1.31403,-21.0996,-21.9476,19.1581,-2.82787,3.2112,21.3955,26.5242,-11.6366,-9.85702,-31.5854,-23.4682,-2.3698,-15.9693,15.7904,-22.8813,18.7288,19.2621,-1.31403,-21.0996,-22.562,19.1581,-2.82787,3.2112,20.4728,25.6016,-12.5592,-10.7796,-31.5854,-24.3909,-3.29242,-15.9693,15.7904,-23.8039,18.7288,19.2621,-1.31403,-22.0222,-22.562,19.1581,-2.82787,3.2112,21.6855,26.8142,-11.3466,-9.56696,-31.5854,-24.3909,-2.07974,-15.9693,15.7904,-23.8039,19.9414,19.2621,-1.31403,-22.0222,-22.562,19.1581,-2.82787,3.2112,21.8051,26.8142,-11.3466,-9.56696,-31.5854,-24.3909,-1.96014,-15.8497,15.91,-23.8039,19.9414,19.3817,-1.31403,-22.0222,-22.562,19.2777,-2.82787,3.2112,22.1647,27.1738,-10.987,-9.20739,-31.5854,-24.0313,-1.96014,-15.8497,15.91,-23.4443,20.301,19.7413,-1.31403,-21.6626,-22.2025,19.6373,-2.82787,3.2112,924.194
19,22.0669,27.1738,-11.0848,-9.30516,-31.6832,-24.0313,-2.05791,-15.8497,15.91,-23.4443,20.2032,19.6435,-1.4118,-21.6626,-22.3002,19.5395,-2.92564,3.2112,21.512,27.1738,-11.6397,-9.86012,-32.2382,-24.0313,-2.61286,-16.4046,15.91,-23.4443,19.6483,19.6435,-1.4118,-21.6626,-22.8552,19.5395,-2.92564,3.2112,20.6545,26.3163,-12.4972,-10.7176,-32.2382,-24.8888,-3.47036,-16.4046,15.91,-24.3018,19.6483,19.6435,-1.4118,-22.5201,-22.8552,19.5395,-2.92564,3.2112,21.7693,27.4311,-11.3824,-9.60283,-32.2382,-24.8888,-2.35557,-16.4046,15.91,-24.3018,20.7631,19.6435,-1.4118,-22.5201,-22.8552,19.5395,-2.92564,3.2112,21.8747,27.4311,-11.3824,-9.60283,-32.2382,-24.8888,-2.25013,-16.2992,16.0155,-24.3018,20.7631,19.7489,-1.4118,-22.5201,-22.8552,19.6449,-2.92564,3.2112,22.2129,27.7694,-11.0442,-9.26458,-32.2382,-24.5505,-2.25013,-16.2992,16.0155,-23.9636,21.1013,20.0872,-1.4118,-22.1819,-22.517,19.9832,-2.92564,3.2112,784.342
20,22.1167,27.7694,-11.1405,-9.36087,-32.3345,-24.5505,-2.34642,-16.2992,16.0155,-23.9636,21.005,19.9909,-1.50808,-22.1819,-22.6132,19.8869,-3.02193,3.2112,21.6152,27.7694,-11.642,-9.86237,-32.836,-24.5505,-2.84792,-16.8007,16.0155,-23.9636,20.5035,19.9909,-1.50808,-22.1819,-23.1147,19.8869,-3.02193,3.2112,20.8187,26.9729,-12.4384,-10.6588,-32.836,-25.347,-3.64438,-16.8007,16.0155,-24.76,20.5035,19.9909,-1.50808,-22.9783,-23.1147,19.8869,-3.02193,3.2112,21.8435,27.9977,-11.4136,-9.63402,-32.836,-25.347,-2.61957,-16.8007,16.0155,-24.76,21.5283,19.9909,-1.50808,-22.9783,-23.1147,19.8869,-3.02193,3.2112,21.937,27.9977,-11.4136,-9.63402,-32.836,-25.347,-2.52605,-16.7072,16.109,-24.76,21.5283,20.0844,-1.50808,-22.9783,-23.1147,19.9804,-3.02193,3.2112,22.2548,28.3155,-11.0958,-9.31626,-32.836,-25.0292,-2.52605,-16.7072,16.109,-24.4423,21.8461,20.4022,-1.50808,-22.6606,-22.797,20.2982,-3.02193,3.2112,665.732
21,22.1603,28.3155,-11.1903,-9.41071,-32.9304,-25.0292,-2.6205,-16.7072,16.109,-24.4423,21.7516,20.3077,-1.60254,-22.6606,-22.8914,20.2037,-3.11638,3.2112,21.7069,28.3155,-11.6437,-9.86412,-33.3838,-25.0292,-3.07391,-17.1606,16.109,-24.4423,21.2982,20.3077,-1.60254,-22.6606,-23.3448,20.2037,-3.11638,3.2112,20.9676,27.5761,-12.3831,-10.6035,-33.3838,-25.7686,-3.81328,-17.1606,16.109,-25.1816,21.2982,20.3077,-1.60254,-23.3999,-23.3448,20.2037,-3.11638,3.2112,21.9097,28.5182,-11.441,-9.66138,-33.3838,-25.7686,-2.87117,-17.1606,16.109,-25.1816,22.2403,20.3077,-1.60254,-23.3999,-23.3448,20.2037,-3.11638,3.2112,21.9931,28.5182,-11.441,-9.66138,-33.3838,-25.7686,-2.78775,-17.0772,16.1924,-25.1816,22.2403,20.3912,-1.60254,-23.3999,-23.3448,20.2872,-3.11638,3.2112,22.2913,28.8164,-11.1428,-9.36319,-33.3838,-25.4704,-2.78775,-17.0772,16.1924,-24.8834,22.5385,20.6893,-1.60254,-23.1018,-23.0467,20.5853,-3.11638,3.2112,565.125
22,22.199,28.8164,-11.2351,-9.45549,-33.4761,-25.4704,-2.88005,-17.0772,16.1924,-24.8834,22.4462,20.5971,-1.69484,-23.1018,-23.1389,20.493,-3.20868,3.2112,21.7889,28.8164,-11.6452,-9.86562,-33.8863,-25.4704,-3.29018,-17.4873,16.1924,-24.8834,22.0361,20.5971,-1.69484,-23.1018,-23.5491,20.493,-3.20868,3.2112,21.1028,28.1304,-12.3313,-10.5517,-33.8863,-26.1564,-3.97621,-17.4873,16.1924,-25.5695,22.0361,20.5971,-1.69484,-23.7878,-23.5491,20.493,-3.20868,3.2112,21.9689,28.9965,-11.4651,-9.68556,-33.8863,-26.1564,-3.11011,-17.4873,16.1924,-25.5695,22.9022,20.5971,-1.69484,-23.7878,-23.5491,20.493,-3.20868,3.2112,22.0437,28.9965,-11.4651,-9.68556,-33.8863,-26.1564,-3.03534,-17.4125,16.2672,-25.5695,22.9022,20.6718,-1.69484,-23.7878,-23.5491,20.5678,-3.20868,3.2112,22.3232,29.276,-11.1856,-9.40603,-33.8863,-25.8769,-3.03534,-17.4125,16.2672,-25.2899,23.1817,20.9514,-1.69484,-23.5083,-23.2696,20.8473,-3.20868,3.2112,479.775
23,22.2334,29.276,-11.2755,-9.49588,-33.9761,-25.8769,-3.12519,-17.4125,16.2672,-25.2899,23.0919,20.8615,-1.78469,-23.5083,-23.3594,20.7575,-3.29853,3.2112,21.8622,29.276,-11.6466,-9.86703,-34.3473,-25.8769,-3.49634,-17.7837,16.2672,-25.2899,22.7207,20.8615,-1.78469,-23.5083,-23.7306,20.7575,-3.29853,3.2112,21.2259,28.6397,-12.2829,-10.5033,-34.3473,-26.5132,-4.13262,-17.7837,16.2672,-25.9262,22.7207,20.8615,-1.78469,-24.1445,-23.7306,20.7575,-3.29853,3.2112,22.0222,29.436,-11.4867,-9.70707,-34.3473,-26.5132,-3.33637,-17.7837,16.2672,-25.9262,23.517,20.8615,-1.78469,-24.1445,-23.7306,20.7575,-3.29853,3.2112,22.0895,29.436,-11.4867,-9.70707,-34.3473,-26.5132,-3.26906,-17.7164,16.3345,-25.9262,23.517,20.9288,-1.78469,-24.1445,-23.7306,20.8248,-3.29853,3.2112,22.3513,29.6977,-11.2249,-9.44528,-34.3473,-26.2514,-3.26906,-17.7164,16.3345,-25.6644,23.7788,21.1906,-1.78469,-23.8828,-23.4688,21.0866,-3.29853,3.2112,407.359
24,22.2641,29.6977,-11.312,-9.53243,-34.4344,-26.2514,-3.35621,-17.7164,16.3345,-25.6644,23.6916,21.1034,-1.87184,-23.8828,-23.5559,20.9994,-3.38569,3.2112,21.9281,29.6977,-11.648,-9.86845,-34.7704,-26.2514,-3.69223,-18.0524,16.3345,-25.6644,23.3556,21.1034,-1.87184,-23.8828,-23.8919,20.9994,-3.38569,3.2112,21.3382,29.1078,-12.238,-10.4584,-34.7704,-26.8413,-4.28215,-18.0524,16.3345,-26.2544,23.3556,21.1034,-1.87184,-24.4727,-23.8919,20.9994,-3.38569,3.2112,22.0702,29.8399,-11.5059,-9.72632,-34.7704,-26.8413,-3.5501,-18.0524,16.3345,-26.2544,24.0876,21.1034,-1.87184,-24.4727,-23.8919,20.9994,-3.38569,3.2112,22.1311,29.8399,-11.5059,-9.72632,-34.7704,-26.8413,-3.48928,-17.9916,16.3953,-26.2544,24.0876,21.1643,-1.87184,-24.4727,-23.8919,21.0603,-3.38569,3.2112,22.376,30.0848,-11.2609,-9.48136,-34.7704,-26.5964,-3.48928,-17.9916,16.3953,-26.0094,24.3326,21.4092,-1.87184,-24.2277,-23.647,21.3052,-3.38569,3.2112,345.908
25,22.2918,30.0848,-11.3452,-9.56561,-34.8547,-26.5964,-3.57353,-17.9916,16.3953,-26.0094,24.2483,21.325,-1.9561,-24.2277,-23.7312,21.221,-3.46994,3.2112,21.9874,30.0848,-11.6496,-9.86996,-35.159,-26.5964,-3.87789,-18.2959,16.3953,-26.0094,23.944,21.325,-1.9561,-24.2277,-24.0356,21.221,-3.46994,3.2112,21.4407,29.5381,-12.1963,-10.4167,-35.159,-27.1431,-4.42463,-18.2959,16.3953,-26.5561,23.944,21.325,-1.9561,-24.7745,-24.0356,21.221,-3.46994,3.2112,22.1137,30.2111,-11.5233,-9.74366,-35.159,-27.1431,-3.75158,-18.2959,16.3953,-26.5561,24.617,21.325,-1.9561,-24.7745,-24.0356,21.221,-3.46994,3.2112,22.1689,30.2111,-11.5233,-9.74366,-35.159,-27.1431,-3.69645,-18.2408,16.4505,-26.5561,24.617,21.3801,-1.9561,-24.7745,-24.0356,21.2761,-3.46994,3.2112,22.3979,30.4402,-11.2942,-9.51461,-35.159,-26.9141,-3.69645,-18.2408,16.4505,-26.3271,24.8461,21.6092,-1.9561,-24.5454,-23.8065,21.5052,-3.46994,3.2112,293.755
26,22.3167,30.4402,-11.3754,-9.5958,-35.2402,-26.9141,-3.77764,-18.2408,16.4505,-26.3271,24.7649,21.528,-2.03729,-24.5454,-23.8877,21.424,-3.55114,3.2112,22.0409,30.4402,-11.6512,-9.87158,-35.516,-26.9141,-4.05342,-18.5165,16.4505,-26.3271,24.4891,21.528,-2.03729,-24.5454,-24.1635,21.424,-3.55114,3.2112,21.5344,29.9336,-12.1578,-10.3782,-35.516,-27.4206,-4.56,-18.5165,16.4505,-26.8337,24.4891,21.528,-2.03729,-25.052,-24.1635,21.424,-3.55114,3.2112,22.1532,30.5524,-11.5389,-9.75934,-35.516,-27.4206,-3.94118,-18.5165,16.4505,-26.8337,25.1079,21.528,-2.03729,-25.052,-24.1635,21.424,-3.55114,3.2112,22.2033,30.5524,-11.5389,-9.75934,-35.516,-27.4206,-3.89106,-18.4664,16.5006,-26.8337,25.1079,21.5781,-2.03729,-25.052,-24.1635,21.4741,-3.55114,3.2112,22.4173,30.7665,-11.3249,-9.54533,-35.516,-27.2066,-3.89106,-18.4664,16.5006,-26.6197,25.3219,21.7921,-2.03729,-24.838,-23.9495,21.6881,-3.55114,3.2112,249.486
27,22.3393,30.7665,-11.4029,-9.62334,-35.594,-27.2066,-3.96907,-18.4664,16.5006,-26.6197,25.2439,21.7141,-2.1153,-24.838,-24.0275,21.6101,-3.62915,3.2112,22.0893,30.7665,-11.6529,-9.87334,-35.844,-27.2066,-4.21907,-18.7164,16.5006,-26.6197,24.9939,21.7141,-2.1153,-24.838,-24.2775,21.6101,-3.62915,3.2112,21.6201,30.2972,-12.1222,-10.3426,-35.844,-27.6759,-4.6883,-18.7164,16.5006,-27.0889,24.9939,21.7141,-2.1153,-25.3072,-24.2775,21.6101,-3.62915,3.2112,22.1891,30.8662,-11.5532,-9.77358,-35.844,-27.6759,-4.11931,-18.7164,16.5006,-27.0889,25.5629,21.7141,-2.1153,-25.3072,-24.2775,21.6101,-3.62915,3.2112,22.2347,30.8662,-11.5532,-9.77358,-35.844,-27.6759,-4.07365,-18.6708,16.5463,-27.0889,25.5629,21.7598,-2.1153,-25.3072,-24.2775,21.6557,-3.62915,3.2112,22.4345,31.066,-11.3533,-9.57376,-35.844,-27.476,-4.07365,-18.6708,16.5463,-26.8891,25.7628,21.9596,-2.1153,-25.1074,-24.0777,21.8556,-3.62915,3.2112,211.905
28,22.3598,31.066,-11.4281,-9.64851,-35.9188,-27.476,-4.1484,-18.6708,16.5463,-26.8891,25.688,21.8848,-2.19006,-25.1074,-24.1524,21.7808,-3.7039,3.2112,22.1331,31.066,-11.6548,-9.87522,-36.1455,-27.476,-4.37511,-18.8975,16.5463,-26.8891,25.4613,21.8848,-2.19006,-25.1074,-24.3791,21.7808,-3.7039,3.2112,21.6986,30.6315,-12.0893,-10.3097,-36.1455,-27.9106,-4.80964,-18.8975,16.5463,-27.3236,25.4613,21.8848,-2.19006,-25.5419,-24.3791,21.7808,-3.7039,3.2112,22.2217,31.1547,-11.5662,-9.78656,-36.1455,-27.9106,-4.28645,-18.8975,16.5463,-27.3236,25.9845,21.8848,-2.19006,-25.5419,-24.3791,21.7808,-3.7039,3.2112,22.2634,31.1547,-11.5662,-9.78656,-36.1455,-27.9106,-4.24477,-18.8558,16.5879,-27.3236,25.9845,21.9265,-2.19006,-25.5419,-24.3791,21.8225,-3.7039,3.2112,22.4499,31.3412,-11.3797,-9.6001,-36.1455,-27.7241,-4.24477,-18.8558,16.5879,-27.1371,26.1709,22.113,-2.19006,-25.3554,-24.1927,22.009,-3.7039,3.2112,179.998
29,22.3784,31.3412,-11.4511,-9.67155,-36.2169,-27.7241,-4.31622,-18.8558,16.5879,-27.1371,26.0995,22.0415,-2.26151,-25.3554,-24.2641,21.9375,-3.77535,3.2112,22.1728,31.3412,-11.6568,-9.87722,-36.4226,-27.7241,-4.5219,-19.0615,16.5879,-27.1371,25.8938,22.0415,-2.26151,-25.3554,-24.4698,21.9375,-3.77535,3.2112,21.7705,30.9389,-12.0591,-10.2795,-36.4226,-28.1264,-4.92419,-19.0615,16.5879,-27.5394,25.8938,22.0415,-2.26151,-25.7577,-24.4698,21.9375,-3.77535,3.2112,22.2516,31.42,-11.578,-9.79843,-36.4226,-28.1264,-4.4431,-19.0615,16.5879,-27.5394,26.3749,22.0415,-2.26151,-25.7577,-24.4698,21.9375,-3.77535,3.2112,22.2897,31.42,-11.578,-9.79843,-36.4226,-28.1264,-4.40499,-19.0234,16.6261,-27.5394,26.3749,22.0796,-2.26151,-25.7577,-24.4698,21.9756,-3.77535,3.2112,22.4636,31.5938,-11.4041,-9.62454,-36.4226,-27.9525,-4.40499,-19.0234,16.6261,-27.3655,26.5488,22.2535,-2.26151,-25.5839,-24.2959,22.1495,-3.77535,3.2112,152.904
30,22.3954,31.5938,-11.4723,-9.69267,-36.4907,-27.9525,-4.47312,-19.0234,16.6261,-27.3655,26.4807,22.1854,-2.32964,-25.5839,-24.364,22.0814,-3.84348,3.2112,22.2088,31.5938,-11.6589,-9.87933,-36.6774,-27.9525,-4.65978,-19.21,16.6261,-27.3655,26.294,22.1854,-2.32964,-25.5839,-24.5507,22.0814,-3.84348,3.2112,21.8364,31.2215,-12.0313,-10.2517,-36.6774,-28.3249,-5.03215,-19.21,16.6261,-27.7379,26.294,22.1854,-2.32964,-25.9562,-24.5507,22.0814,-3.84348,3.2112,22.2788,31.6639,-11.5889,-9.8093,-36.6774,-28.3249,-4.58975,-19.21,16.6261,-27.7379,26.7364,22.1854,-2.32964,-25.9562,-24.5507,22.0814,-3.84348,3.2112,22.3137,31.6639,-11.5889,-9.8093,-36.6774,-28.3249,-4.55485,-19.1751,16.6609,-27.7379,26.7364,22.2203,-2.32964,-25.9562,-24.5507,22.1163,-3.84348,3.2112,22.4758,31.8259,-11.4268,-9.64722,-36.6774,-28.1628,-4.55485,-19.1751,16.6609,-27.5758,26.8985,22.3824,-2.32964,-25.7942,-24.3886,22.2784,-3.84348,3.2112,129.896
31,22.4109,31.8259,-11.4916,-9.71205,-36.7422,-28.1628,-4.61968,-19.1751,16.6609,-27.5758,26.8337,22.3175,-2.39447,-25.7942,-24.4535,22.2135,-3.90831,3.2112,22.2415,31.8259,-11.6611,-9.88152,-36.9117,-28.1628,-4.78915,-19.3446,16.6609,-27.5758,26.6642,22.3175,-2.39447,-25.7942,-24.6229,22.2135,-3.90831,3.2112,21.8969,31.4813,-12.0057,-10.2261,-36.9117,-28.5074,-5.13375,-19.3446,16.6609,-27.9204,26.6642,22.3175,-2.39447,-26.1388,-24.6229,22.2135,-3.90831,3.2112,22.3037,31.8882,-11.5989,-9.81928,-36.9117,-28.5074,-4.72691,-19.3446,16.6609,-27.9204,27.071,22.3175,-2.39447,-26.1388,-24.6229,22.2135,-3.90831,3.2112,22.3357,31.8882,-11.5989,-9.81928,-36.9117,-28.5074,-4.69492,-19.3126,16.6929,-27.9204,27.071,22.3495,-2.39447,-26.1388,-24.6229,22.2455,-3.90831,3.2112,22.4867,32.0392,-11.4479,-9.6683,-36.9117,-28.3564,-4.69492,-19.3126,16.6929,-27.7695,27.222,22.5005,-2.39447,-25.9878,-24.4719,22.3965,-3.90831,3.2112,110.355
32,22.4251,32.0392,-11.5095,-9.72986,-36.9733,-28.3564,-4.75649,-19.3126,16.6929,-27.7695,27.1604,22.4389,-2.45603,-25.9878,-24.5335,22.3349,-3.96988,3.2112,22.2712,32.0392,-11.6634,-9.88377,-37.1272,-28.3564,-4.9104,-19.4665,16.6929,-27.7695,27.0065,22.4389,-2.45603,-25.9878,-24.6874,22.3349,-3.96988,3.2112,21.9524,31.7203,-11.9822,-10.2026,-37.1272,-28.6753,-5.22924,-19.4665,16.6929,-28.0883,27.0065,22.4389,-2.45603,-26.3066,-24.6874,22.3349,-3.96988,3.2112,22.3265,32.0945,-11.6081,-9.82846,-37.1272,-28.6753,-4.85508,-19.4665,16.6929,-28.0883,27.3807,22.4389,-2.45603,-26.3066,-24.6874,22.3349,-3.96988,3.2112,22.3559,32.0945,-11.6081,-9.82846,-37.1272,-28.6753,-4.82574,-19.4372,16.7223,-28.0883,27.3807,22.4683,-2.45603,-26.3066,-24.6874,22.3643,-3.96988,3.2112,22.4965,32.2351,-11.4675,-9.68788,-37.1272,-28.5347,-4.82574,-19.4372,16.7223,-27.9477,27.5213,22.6089,-2.45603,-26.166,-24.5468,22.5049,-3.96988,3.2112,93.7576
33,22.4381,32.2351,-11.5258,-9.74624,-37.1855,-28.5347,-4.8841,-19.4372,16.7223,-27.9477,27.4629,22.5505,-2.51439,-26.166,-24.6052,22.4465,-4.02823,3.2112,22.2983,32.2351,-11.6657,-9.88607,-37.3254,-28.5347,-5.02393,-19.577,16.7223,-27.9477,27.3231,22.5505,-2.51439,-26.166,-24.745,22.4465,-4.02823,3.2112,22.0033,31.9401,-11.9606,-10.181,-37.3254,-28.8296,-5.31888,-19.577,16.7223,-28.2427,27.3231,22.5505,-2.51439,-26.461,-24.745,22.4465,-4.02823,3.2112,22.3474,32.2842,-11.6165,-9.83691,-37.3254,-28.8296,-4.97477,-19.577,16.7223,-28.2427,27.6672,22.5505,-2.51439,-26.461,-24.745,22.4465,-4.02823,3.2112,22.3744,32.2842,-11.6165,-9.83691,-37.3254,-28.8296,-4.94783,-19.55,16.7492,-28.2427,27.6672,22.5775,-2.51439,-26.461,-24.745,22.4735,-4.02823,3.2112,22.5052,32.4151,-11.4857,-9.70608,-37.3254,-28.6988,-4.94783,-19.55,16.7492,-28.1118,27.798,22.7083,-2.51439,-26.3302,-24.6142,22.6043,-4.02823,3.2112,79.659
34,22.45,32.4151,-11.5409,-9.7613,-37.3806,-28.6988,-5.00305,-19.55,16.7492,-28.1118,27.7428,22.6531,-2.56962,-26.3302,-24.6694,22.5491,-4.08346,3.2112,22.3229,32.4151,-11.668,-9.88838,-37.5077,-28.6988,-5.13013,-19.6771,16.7492,-28.1118,27.6157,22.6531,-2.56962,-26.3302,-24.7965,22.5491,-4.08346,3.2112,22.0501,32.1422,-11.9408,-10.1612,-37.5077,-28.9716,-5.40295,-19.6771,16.7492,-28.3847,27.6157,22.6531,-2.56962,-26.603,-24.7965,22.5491,-4.08346,3.2112,22.3666,32.4587,-11.6243,-9.84471,-37.5077,-28.9716,-5.08645,-19.6771,16.7492,-28.3847,27.9322,22.6531,-2.56962,-26.603,-24.7965,22.5491,-4.08346,3.2112,22.3913,32.4587,-11.6243,-9.84471,-37.5077,-28.9716,-5.0617,-19.6524,16.774,-28.3847,27.9322,22.6778,-2.56962,-26.603,-24.7965,22.5738,-4.08346,3.2112,22.513,32.5804,-11.5026,-9.72299,-37.5077,-28.8499,-5.0617,-19.6524,16.774,-28.2629,28.0539,22.7995,-2.56962,-26.4813,-24.6748,22.6955,-4.08346,3.2112,67.6821
35,22.4609,32.5804,-11.5548,-9.77517,-37.5599,-28.8499,-5.11388,-19.6524,16.774,-28.2629,28.0018,22.7474,-2.6218,-26.4813,-24.727,22.6434,-4.13564,3.2112,22.3453,32.5804,-11.6703,-9.89071,-37.6754,-28.8499,-5.22941,-19.7679,16.774,-28.2629,27.8862,22.7474,-2.6218,-26.4813,-24.8425,22.6434,-4.13564,3.2112,22.093,32.3282,-11.9226,-10.143,-37.6754,-29.1022,-5.4817,-19.7679,16.774,-28.5152,27.8862,22.7474,-2.6218,-26.7336,-24.8425,22.6434,-4.13564,3.2112,22.3841,32.6193,-11.6315,-9.8519,-37.6754,-29.1022,-5.1906,-19.7679,16.774,-28.5152,28.1773,22.7474,-2.6218,-26.7336,-24.8425,22.6434,-4.13564,3.2112,22.4069,32.6193,-11.6315,-9.8519,-37.6754,-29.1022,-5.16784,-19.7451,16.7967,-28.5152,28.1773,22.7701,-2.6218,-26.7336,-24.8425,22.6661,-4.13564,3.2112,22.5201,32.7324,-11.5183,-9.73872,-37.6754,-28.989,-5.16784,-19.7451,16.7967,-28.4021,28.2905,22.8833,-2.6218,-26.6204,-24.7293,22.7793,-4.13564,3.2112,57.5072
36,22.4708,32.7324,-11.5675,-9.78795,-37.7246,-28.989,-5.21707,-19.7451,16.7967,-28.4021,28.2413,22.8341,-2.67103,-26.6204,-24.7786,22.7301,-4.18487,3.2112,22.3658,32.7324,-11.6726,-9.89302,-37.8297,-28.989,-5.32214,-19.8502,16.7967,-28.4021,28.1362,22.8341,-2.67103,-26.6204,-24.8836,22.7301,-4.18487,3.2112,22.1325,32.4992,-11.9059,-10.1263,-37.8297,-29.2223,-5.55541,-19.8502,16.7967,-28.6353,28.1362,22.8341,-2.67103,-26.8537,-24.8836,22.7301,-4.18487,3.2112,22.4003,32.7669,-11.6381,-9.85853,-37.8297,-29.2223,-5.28765,-19.8502,16.7967,-28.6353,28.404,22.8341,-2.67103,-26.8537,-24.8836,22.7301,-4.18487,3.2112,22.4212,32.7669,-11.6381,-9.85853,-37.8297,-29.2223,-5.26672,-19.8293,16.8177,-28.6353,28.404,22.855,-2.67103,-26.8537,-24.8836,22.751,-4.18487,3.2112,22.5264,32.8721,-11.5329,-9.75334,-37.8297,-29.1171,-5.26672,-19.8293,16.8177,-28.5301,28.5092,22.9602,-2.67103,-26.7485,-24.7784,22.8562,-4.18487,3.2112,48.8626
37,22.48,32.8721,-11.5793,-9.79972,-37.8761,-29.1171,-5.31311,-19.8293,16.8177,-28.5301,28.4628,22.9138,-2.71741,-26.7485,-24.8248,22.8098,-4.23125,3.2112,22.3844,32.8721,-11.6749,-9.8953,-37.9716,-29.1171,-5.40869,-19.9249,16.8177,-28.5301,28.3672,22.9138,-2.71741,-26.7485,-24.9204,22.8098,-4.23125,3.2112,22.1688,32.6565,-11.8906,-10.111,-37.9716,-29.3328,-5.62435,-19.9249,16.8177,-28.7458,28.3672,22.9138,-2.71741,-26.9641,-24.9204,22.8098,-4.23125,3.2112,22.4151,32.9028,-11.6443,-9.86466,-37.9716,-29.3328,-5.37805,-19.9249,16.8177,-28.7458,28.6135,22.9138,-2.71741,-26.9641,-24.9204,22.8098,-4.23125,3.2112,22.4343,32.9028,-11.6443,-9.86466,-37.9716,-29.3328,-5.35879,-19.9056,16.8369,-28.7458,28.6135,22.9331,-2.71741,-26.9641,-24.9204,22.8291,-4.23125,3.2112,22.5321,33.0005,-11.5465,-9.76692,-37.9716,-29.235,-5.35879,-19.9056,16.8369,-28.6481,28.7112,23.0308,-2.71741,-26.8664,-24.8227,22.9268,-4.23125,3.2112,41.5179
38,22.4884,33.0005,-11.5902,-9.81057,-38.0153,-29.235,-5.40244,-19.9056,16.8369,-28.6481,28.6676,22.9871,-2.76106,-26.8664,-24.8663,22.8831,-4.2749,3.2112,22.4014,33.0005,-11.6771,-9.89755,-38.1023,-29.235,-5.48942,-19.9926,16.8369,-28.6481,28.5806,22.9871,-2.76106,-26.8664,-24.9533,22.8831,-4.2749,3.2112,22.2021,32.8011,-11.8765,-10.0969,-38.1023,-29.4344,-5.68877,-19.9926,16.8369,-28.8474,28.5806,22.9871,-2.76106,-27.0657,-24.9533,22.8831,-4.2749,3.2112,22.4287,33.0277,-11.6499,-9.87033,-38.1023,-29.4344,-5.4622,-19.9926,16.8369,-28.8474,28.8072,22.9871,-2.76106,-27.0657,-24.9533,22.8831,-4.2749,3.2112,22.4464,33.0277,-11.6499,-9.87033,-38.1023,-29.4344,-5.44448,-19.9749,16.8546,-28.8474,28.8072,23.0049,-2.76106,-27.0657,-24.9533,22.9009,-4.2749,3.2112,22.5372,33.1185,-11.5591,-9.77955,-38.1023,-29.3436,-5.44448,-19.9749,16.8546,-28.7566,28.898,23.0956,-2.76106,-26.975,-24.8625,22.9916,-4.2749,3.2112,35.2774
39,22.4961,33.1185,-11.6002,-9.82057,-38.1433,-29.3436,-5.48551,-19.9749,16.8546,-28.7566,28.8569,23.0546,-2.80209,-26.975,-24.9035,22.9506,-4.31593,3.2112,22.417,33.1185,-11.6793,-9.89975,-38.2225,-29.3436,-5.56468,-20.054,16.8546,-28.7566,28.7778,23.0546,-2.80209,-26.975,-24.9827,22.9506,-4.31593,3.2112,22.2327,32.9343,-11.8636,-10.084,-38.2225,-29.5278,-5.74893,-20.054,16.8546,-28.9409,28.7778,23.0546,-2.80209,-27.1592,-24.9827,22.9506,-4.31593,3.2112,22.4411,33.1427,-11.6552,-9.87556,-38.2225,-29.5278,-5.5405,-20.054,16.8546,-28.9409,28.9862,23.0546,-2.80209,-27.1592,-24.9827,22.9506,-4.31593,3.2112,22.4574,33.1427,-11.6552,-9.87556,-38.2225,-29.5278,-5.52419,-20.0377,16.871,-28.9409,28.9862,23.0709,-2.80209,-27.1592,-24.9827,22.9669,-4.31593,3.2112,22.5417,33.227,-11.5709,-9.79128,-38.2225,-29.4436,-5.52419,-20.0377,16.871,-28.8566,29.0705,23.1552,-2.80209,-27.0749,-24.8984,23.0512,-4.31593,3.2112,29.9749
40,22.5032,33.227,-11.6094,-9.8298,-38.261,-29.4436,-5.56271,-20.0377,16.871,-28.8566,29.032,23.1167,-2.84061,-27.0749,-24.9369,23.0127,-4.35445,3.2112,22.4311,33.227,-11.6815,-9.90189,-38.3331,-29.4436,-5.6348,-20.1098,16.871,-28.8566,28.9599,23.1167,-2.84061,-27.0749,-25.009,23.0127,-4.35445,3.2112,22.2608,33.0567,-11.8517,-10.0722,-38.3331,-29.6138,-5.80507,-20.1098,16.871,-29.0269,28.9599,23.1167,-2.84061,-27.2452,-25.009,23.0127,-4.35445,3.2112,22.4526,33.2485,-11.66,-9.8804,-38.3331,-29.6138,-5.61332,-20.1098,16.871,-29.0269,29.1516,23.1167,-2.84061,-27.2452,-25.009,23.0127,-4.35445,3.2112,22.4676,33.2485,-11.66,-9.8804,-38.3331,-29.6138,-5.59831,-20.0948,16.886,-29.0269,29.1516,23.1317,-2.84061,-27.2452,-25.009,23.0277,-4.35445,3.2112,22.5458,33.3267,-11.5818,-9.80217,-38.3331,-29.5356,-5.59831,-20.0948,16.886,-28.9486,29.2299,23.2099,-2.84061,-27.167,-24.9308,23.1059,-4.35445,3.2112,25.4693
41,22.5097,33.3267,-11.6179,-9.8383,-38.3692,-29.5356,-5.63444,-20.0948,16.886,-28.9486,29.1937,23.1738,-2.87674,-27.167,-24.9669,23.0698,-4.39059,3.2112,22.4441,33.3267,-11.6836,-9.90396,-38.4349,-29.5356,-5.7001,-20.1605,16.886,-28.9486,29.1281,23.1738,-2.87674,-27.167,-25.0326,23.0698,-4.39059,3.2112,22.2867,33.1694,-11.8409,-10.0613,-38.4349,-29.6929,-5.85743,-20.1605,16.886,-29.106,29.1281,23.1738,-2.87674,-27.3243,-25.0326,23.0698,-4.39059,3.2112,22.4631,33.3458,-11.6645,-9.88488,-38.4349,-29.6929,-5.68101,-20.1605,16.886,-29.106,29.3045,23.1738,-2.87674,-27.3243,-25.0326,23.0698,-4.39059,3.2112,22.477,33.3458,-11.6645,-9.88488,-38.4349,-29.6929,-5.66719,-20.1467,16.8998,-29.106,29.3045,23.1876,-2.87674,-27.3243,-25.0326,23.0836,-4.39059,3.2112,22.5496,33.4184,-11.5919,-9.81229,-38.4349,-29.6203,-5.66719,-20.1467,16.8998,-29.0334,29.3771,23.2602,-2.87674,-27.2517,-24.96,23.1562,-4.39059,3.2112,21.6409
42,22.5157,33.4184,-11.6257,-9.84615,-38.4687,-29.6203,-5.70105,-20.1467,16.8998,-29.0334,29.3432,23.2264,-2.9106,-27.2517,-24.9939,23.1224,-4.42445,3.2112,22.4559,33.4184,-11.6856,-9.90597,-38.5286,-29.6203,-5.76087,-20.2065,16.8998,-29.0334,29.2834,23.2264,-2.9106,-27.2517,-25.0537,23.1224,-4.42445,3.2112,22.3105,33.273,-11.8309,-10.0513,-38.5286,-29.7657,-5.90623,-20.2065,16.8998,-29.1787,29.2834,23.2264,-2.9106,-27.397,-25.0537,23.1224,-4.42445,3.2112,22.4728,33.4353,-11.6686,-9.88901,-38.5286,-29.7657,-5.74392,-20.2065,16.8998,-29.1787,29.4457,23.2264,-2.9106,-27.397,-25.0537,23.1224,-4.42445,3.2112,22.4856,33.4353,-11.6686,-9.88901,-38.5286,-29.7657,-5.7312,-20.1937,16.9125,-29.1787,29.4457,23.2391,-2.9106,-27.397,-25.0537,23.1351,-4.42445,3.2112,22.5529,33.5026,-11.6013,-9.82168,-38.5286,-29.6984,-5.7312,-20.1937,16.9125,-29.1114,29.513,23.3064,-2.9106,-27.3297,-24.9863,23.2024,-4.42445,3.2112,18.3877
43,22.5212,33.5026,-11.633,-9.85338,-38.5603,-29.6984,-5.7629,-20.1937,16.9125,-29.1114,29.4813,23.2747,-2.94231,-27.3297,-25.018,23.1707,-4.45615,3.2112,22.4667,33.5026,-11.6875,-9.9079,-38.6148,-29.6984,-5.81741,-20.2483,16.9125,-29.1114,29.4268,23.2747,-2.94231,-27.3297,-25.0726,23.1707,-4.45615,3.2112,22.3324,33.3684,-11.8218,-10.0422,-38.6148,-29.8326,-5.95169,-20.2483,16.9125,-29.2457,29.4268,23.2747,-2.94231,-27.464,-25.0726,23.1707,-4.45615,3.2112,22.4817,33.5177,-11.6724,-9.89284,-38.6148,-29.8326,-5.80236,-20.2483,16.9125,-29.2457,29.5762,23.2747,-2.94231,-27.464,-25.0726,23.1707,-4.45615,3.2112,22.4934,33.5177,-11.6724,-9.89284,-38.6148,-29.8326,-5.79064,-20.2365,16.9242,-29.2457,29.5762,23.2864,-2.94231,-27.464,-25.0726,23.1824,-4.45615,3.2112,22.5559,33.5801,-11.61,-9.8304,-38.6148,-29.7702,-5.79064,-20.2365,16.9242,-29.1832,29.6386,23.3489,-2.94231,-27.4016,-25.0101,23.2449,-4.45615,3.2112,15.6234
44,22.5262,33.5801,-11.6397,-9.86006,-38.6444,-29.7702,-5.8203,-20.2365,16.9242,-29.1832,29.6089,23.3192,-2.97197,-27.4016,-25.0398,23.2152,-4.48581,3.2112,22.4765,33.5801,-11.6893,-9.90975,-38.6941,-29.7702,-5.86999,-20.2862,16.9242,-29.1832,29.5593,23.3192,-2.97197,-27.4016,-25.0895,23.2152,-4.48581,3.2112,22.3525,33.4561,-11.8134,-10.0338,-38.6941,-29.8942,-5.99402,-20.2862,16.9242,-29.3073,29.5593,23.3192,-2.97197,-27.5256,-25.0895,23.2152,-4.48581,3.2112,22.4899,33.5935,-11.676,-9.89638,-38.6941,-29.8942,-5.85661,-20.2862,16.9242,-29.3073,29.6967,23.3192,-2.97197,-27.5256,-25.0895,23.2152,-4.48581,3.2112,22.5007,33.5935,-11.676,-9.89638,-38.6941,-29.8942,-5.84582,-20.2754,16.935,-29.3073,29.6967,23.33,-2.97197,-27.5256,-25.0895,23.226,-4.48581,3.2112,22.5586,33.6514,-11.6181,-9.83849,-38.6941,-29.8363,-5.84582,-20.2754,16.935,-29.2494,29.7545,23.3879,-2.97197,-27.4677,-25.0316,23.2839,-4.48581,3.2112,13.2745
45,22.5309,33.6514,-11.6458,-9.86621,-38.7218,-29.8363,-5.87355,-20.2754,16.935,-29.2494,29.7268,23.3602,-2.99969,-27.4677,-25.0593,23.2562,-4.51354,3.2112,22.4856,33.6514,-11.6911,-9.91152,-38.7672,-29.8363,-5.91886,-20.3207,16.935,-29.2494,29.6815,23.3602,-2.99969,-27.4677,-25.1046,23.2562,-4.51354,3.2112,22.371,33.5368,-11.8057,-10.0261,-38.7672,-29.9509,-6.03341,-20.3207,16.935,-29.3639,29.6815,23.3602,-2.99969,-27.5823,-25.1046,23.2562,-4.51354,3.2112,22.4974,33.6633,-11.6792,-9.89965,-38.7672,-29.9509,-5.90698,-20.3207,16.935,-29.3639,29.8079,23.3602,-2.99969,-27.5823,-25.1046,23.2562,-4.51354,3.2112,22.5074,33.6633,-11.6792,-9.89965,-38.7672,-29.9509,-5.89704,-20.3108,16.945,-29.3639,29.8079,23.3701,-2.99969,-27.5823,-25.1046,23.2661,-4.51354,3.2112,22.561,33.7169,-11.6256,-9.84599,-38.7672,-29.8972,-5.89704,-20.3108,16.945,-29.3103,29.8616,23.4238,-2.99969,-27.5286,-25.051,23.3198,-4.51354,3.2112,11.2785
46,22.5351,33.7169,-11.6515,-9.87189,-38.7931,-29.8972,-5.92294,-20.3108,16.945,-29.3103,29.8357,23.3979,-3.02559,-27.5286,-25.0769,23.2939,-4.53944,3.2112,22.4938,33.7169,-11.6928,-9.91321,-38.8344,-29.8972,-5.96426,-20.3521,16.945,-29.3103,29.7944,23.3979,-3.02559,-27.5286,-25.1182,23.2939,-4.53944,3.2112,22.388,33.6111,-11.7986,-10.019,-38.8344,-30.003,-6.07006,-20.3521,16.945,-29.4161,29.7944,23.3979,-3.02559,-27.6344,-25.1182,23.2939,-4.53944,3.2112,22.5043,33.7275,-11.6823,-9.90267,-38.8344,-30.003,-5.95372,-20.3521,16.945,-29.4161,29.9107,23.3979,-3.02559,-27.6344,-25.1182,23.2939,-4.53944,3.2112,22.5135,33.7275,-11.6823,-9.90267,-38.8344,-30.003,-5.94456,-20.343,16.9541,-29.4161,29.9107,23.407,-3.02559,-27.6344,-25.1182,23.303,-4.53944,3.2112,22.5632,33.7772,-11.6325,-9.85295,-38.8344,-29.9533,-5.94456,-20.343,16.9541,-29.3664,29.9604,23.4567,-3.02559,-27.5847,-25.0685,23.3527,-4.53944,3.2112,9.58248
47,22.539,33.7772,-11.6567,-9.87713,-38.8586,-29.9533,-5.96874,-20.343,16.9541,-29.3664,29.9363,23.4326,-3.04977,-27.5847,-25.0926,23.3286,-4.56361,3.2112,22.5013,33.7772,-11.6944,-9.91483,-38.8963,-29.9533,-6.00644,-20.3807,16.9541,-29.3664,29.8986,23.4326,-3.04977,-27.5847,-25.1303,23.3286,-4.56361,3.2112,22.4037,33.6795,-11.7921,-10.0125,-38.8963,-30.051,-6.10413,-20.3807,16.9541,-29.4641,29.8986,23.4326,-3.04977,-27.6824,-25.1303,23.3286,-4.56361,3.2112,22.5107,33.7866,-11.6851,-9.90546,-38.8963,-30.051,-5.99707,-20.3807,16.9541,-29.4641,30.0056,23.4326,-3.04977,-27.6824,-25.1303,23.3286,-4.56361,3.2112,22.5191,33.7866,-11.6851,-9.90546,-38.8963,-30.051,-5.98864,-20.3722,16.9626,-29.4641,30.0056,23.441,-3.04977,-27.6824,-25.1303,23.337,-4.56361,3.2112,22.5652,33.8326,-11.639,-9.85941,-38.8963,-30.005,-5.98864,-20.3722,16.9626,-29.418,30.0517,23.487,-3.04977,-27.6363,-25.0843,23.383,-4.56361,3.2112,8.14133
48,22.5426,33.8326,-11.6616,-9.88196,-38.9188,-30.005,-6.01119,-20.3722,16.9626,-29.418,30.0291,23.4645,-3.07233,-27.6363,-25.1068,23.3605,-4.58617,3.2112,22.5082,33.8326,-11.696,-9.91636,-38.9532,-30.005,-6.04559,-20.4066,16.9626,-29.418,29.9947,23.4645,-3.07233,-27.6363,-25.1412,23.3605,-4.58617,3.2112,22.418,33.7424,-11.7862,-10.0066,-38.9532,-30.0952,-6.1358,-20.4066,16.9626,-29.5082,29.9947,23.4645,-3.07233,-27.7265,-25.1412,23.3605,-4.58617,3.2112,22.5166,33.8409,-11.6876,-9.90805,-38.9532,-30.0952,-6.03728,-20.4066,16.9626,-29.5082,30.0932,23.4645,-3.07233,-27.7265,-25.1412,23.3605,-4.58617,3.2112,22.5243,33.8409,-11.6876,-9.90805,-38.9532,-30.0952,-6.02951,-20.3989,16.9703,-29.5082,30.0932,23.4723,-3.07233,-27.7265,-25.1412,23.3683,-4.58617,3.2112,22.567,33.8836,-11.645,-9.86539,-38.9532,-30.0525,-6.02951,-20.3989,16.9703,-29.4655,30.1359,23.5149,-3.07233,-27.6839,-25.0986,23.4109,-4.58617,3.2112,6.91677
49,22.546,33.8836,-11.666,-9.88642,-38.9742,-30.0525,-6.05054,-20.3989,16.9703,-29.4655,30.1149,23.4939,-3.09336,-27.6839,-25.1196,23.3899,-4.6072,3.2112,22.5146,33.8836,-11.6974,-9.91782,-39.0056,-30.0525,-6.08194,-20.4303,16.9703,-29.4655,30.0835,23.4939,-3.09336,-27.6839,-25.151,23.3899,-4.6072,3.2112,22.4313,33.8003,-11.7807,-10.0011,-39.0056,-30.1358,-6.16522,-20.4303,16.9703,-29.5488,30.0835,23.4939,-3.09336,-27.7671,-25.151,23.3899,-4.6072,3.2112,22.5219,33.891,-11.69,-9.91043,-39.0056,-30.1358,-6.07455,-20.4303,16.9703,-29.5488,30.1741,23.4939,-3.09336,-27.7671,-25.151,23.3899,-4.6072,3.2112,22.5291,33.891,-11.69,-9.91043,-39.0056,-30.1358,-6.0674,-20.4231,16.9775,-29.5488,30.1741,23.501,-3.09336,-27.7671,-25.151,23.397,-4.6072,3.2112,22.5686,33.9305,-11.6505,-9.87094,-39.0056,-30.0963,-6.0674,-20.4231,16.9775,-29.5093,30.2136,23.5405,-3.09336,-27.7277,-25.1115,23.4365,-4.6072,3.2112,5.87627
50,22.549,33.9305,-11.6701,-9.89053,-39.0252,-30.0963,-6.08699,-20.4231,16.9775,-29.5093,30.194,23.5209,-3.11295,-27.7277,-25.1311,23.4169,-4.6268,3.2112,22.5203,33.9305,-11.6988,-9.9192,-39.0539,-30.0963,-6.11566,-20.4518,16.9775,-29.5093,30.1654,23.5209,-3.11295,-27.7277,-25.1598,23.4169,-4.6268,3.2112,22.4435,33.8536,-11.7757,-9.99608,-39.0539,-30.1732,-6.19254,-20.4518,16.9775,-29.5862,30.1654,23.5209,-3.11295,-27.8045,-25.1598,23.4169,-4.6268,3.2112,22.5269,33.937,-11.6922,-9.91264,-39.0539,-30.1732,-6.1091,-20.4518,16.9775,-29.5862,30.2488,23.5209,-3.11295,-27.8045,-25.1598,23.4169,-4.6268,3.2112,22.5335,33.937,-11.6922,-9.91264,-39.0539,-30.1732,-6.10251,-20.4452,16.9841,-29.5862,30.2488,23.5275,-3.11295,-27.8045,-25.1598,23.4235,-4.6268,3.2112,22.57,33.9736,-11.6557,-9.87607,-39.0539,-30.1366,-6.10251,-20.4452,16.9841,-29.5496,30.2854,23.5641,-3.11295,-27.768,-25.1232,23.4601,-4.6268,3.2112,4.99218
51,22.5518,33.9736,-11.6739,-9.89433,-39.0721,-30.1366,-6.12076,-20.4452,16.9841,-29.5496,30.2671,23.5458,-3.1312,-27.768,-25.1414,23.4418,-4.64505,3.2112,22.5256,33.9736,-11.7001,-9.9205,-39.0983,-30.1366,-6.14694,-20.4714,16.9841,-29.5496,30.241,23.5458,-3.1312,-27.768,-25.1676,23.4418,-4.64505,3.2112,22.4546,33.9026,-11.7711,-9.99147,-39.0983,-30.2076,-6.21791,-20.4714,16.9841,-29.6206,30.241,23.5458,-3.1312,-27.8389,-25.1676,23.4418,-4.64505,3.2112,22.5314,33.9794,-11.6943,-9.91468,-39.0983,-30.2076,-6.14112,-20.4714,16.9841,-29.6206,30.3177,23.5458,-3.1312,-27.8389,-25.1676,23.4418,-4.64505,3.2112,22.5375,33.9794,-11.6943,-9.91468,-39.0983,-30.2076,-6.13505,-20.4653,16.9901,-29.6206,30.3177,23.5519,-3.1312,-27.8389,-25.1676,23.4479,-4.64505,3.2112,22.5714,34.0133,-11.6604,-9.88083,-39.0983,-30.1737,-6.13505,-20.4653,16.9901,-29.5868,30.3516,23.5858,-3.1312,-27.8051,-25.1338,23.4818,-4.64505,3.2112,4.24099
52,22.5544,34.0133,-11.6774,-9.89782,-39.1153,-30.1737,-6.15204,-20.4653,16.9901,-29.5868,30.3346,23.5688,-3.14819,-27.8051,-25.1508,23.4648,-4.66204,3.2112,22.5305,34.0133,-11.7013,-9.92173,-39.1392,-30.1737,-6.17594,-20.4892,16.9901,-29.5868,30.3107,23.5688,-3.14819,-27.8051,-25.1747,23.4648,-4.66204,3.2112,22.465,33.9478,-11.7668,-9.98724,-39.1392,-30.2392,-6.24145,-20.4892,16.9901,-29.6523,30.3107,23.5688,-3.14819,-27.8706,-25.1747,23.4648,-4.66204,3.2112,22.5356,34.0184,-11.6962,-9.91656,-39.1392,-30.2392,-6.17078,-20.4892,16.9901,-29.6523,30.3814,23.5688,-3.14819,-27.8706,-25.1747,23.4648,-4.66204,3.2112,22.5412,34.0184,-11.6962,-9.91656,-39.1392,-30.2392,-6.16518,-20.4836,16.9957,-29.6523,30.3814,23.5744,-3.14819,-27.8706,-25.1747,23.4704,-4.66204,3.2112,22.5725,34.0497,-11.6648,-9.88524,-39.1392,-30.2079,-6.16518,-20.4836,16.9957,-29.621,30.4127,23.6057,-3.14819,-27.8393,-25.1434,23.5017,-4.66204,3.2112,3.60275
53,22.5567,34.0497,-11.6806,-9.90105,-39.155,-30.2079,-6.18099,-20.4836,16.9957,-29.621,30.3969,23.5899,-3.164,-27.8393,-25.1592,23.4859,-4.67784,3.2112,22.5349,34.0497,-11.7025,-9.92289,-39.1769,-30.2079,-6.20283,-20.5054,16.9957,-29.621,30.375,23.5899,-3.164,-27.8393,-25.181,23.4859,-4.67784,3.2112,22.4744,33.9893,-11.7629,-9.98335,-39.1769,-30.2684,-6.26329,-20.5054,16.9957,-29.6814,30.375,23.5899,-3.164,-27.8997,-25.181,23.4859,-4.67784,3.2112,22.5395,34.0543,-11.6979,-9.9183,-39.1769,-30.2684,-6.19825,-20.5054,16.9957,-29.6814,30.4401,23.5899,-3.164,-27.8997,-25.181,23.4859,-4.67784,3.2112,22.5446,34.0543,-11.6979,-9.9183,-39.1769,-30.2684,-6.19309,-20.5003,17.0009,-29.6814,30.4401,23.595,-3.164,-27.8997,-25.181,23.491,-4.67784,3.2112,22.5736,34.0833,-11.6689,-9.88932,-39.1769,-30.2394,-6.19309,-20.5003,17.0009,-29.6524,30.4691,23.624,-3.164,-27.8708,-25.152,23.52,-4.67784,3.2112,3.06048
54,22.5589,34.0833,-11.6836,-9.90403,-39.1916,-30.2394,-6.2078,-20.5003,17.0009,-29.6524,30.4544,23.6093,-3.1787,-27.8708,-25.1667,23.5053,-4.69254,3.2112,22.5389,34.0833,-11.7036,-9.92398,-39.2115,-30.2394,-6.22775,-20.5202,17.0009,-29.6524,30.4344,23.6093,-3.1787,-27.8708,-25.1867,23.5053,-4.69254,3.2112,22.4832,34.0275,-11.7594,-9.97978,-39.2115,-30.2952,-6.28355,-20.5202,17.0009,-29.7082,30.4344,23.6093,-3.1787,-27.9266,-25.1867,23.5053,-4.69254,3.2112,22.543,34.0874,-11.6995,-9.91991,-39.2115,-30.2952,-6.22368,-20.5202,17.0009,-29.7082,30.4943,23.6093,-3.1787,-27.9266,-25.1867,23.5053,-4.69254,3.2112,22.5478,34.0874,-11.6995,-9.91991,-39.2115,-30.2952,-6.21894,-20.5155,17.0056,-29.7082,30.4943,23.6141,-3.1787,-27.9266,-25.1867,23.51,-4.69254,3.2112,22.5746,34.1142,-11.6727,-9.8931,-39.2115,-30.2684,-6.21894,-20.5155,17.0056,-29.6814,30.5211,23.6409,-3.1787,-27.8997,-25.1599,23.5369,-4.69254,3.2112,2.59976
55,22.5609,34.1142,-11.6864,-9.90677,-39.2252,-30.2684,-6.2326,-20.5155,17.0056,-29.6814,30.5074,23.6272,-3.19237,-27.8997,-25.1735,23.5232,-4.70621,3.2112,22.5427,34.1142,-11.7046,-9.92501,-39.2434,-30.2684,-6.25085,-20.5337,17.0056,-29.6814,30.4892,23.6272,-3.19237,-27.8997,-25.1918,23.5232,-4.70621,3.2112,22.4912,34.0627,-11.7561,-9.9765,-39.2434,-30.3199,-6.30234,-20.5337,17.0056,-29.7329,30.4892,23.6272,-3.19237,-27.9512,-25.1918,23.5232,-4.70621,3.2112,22.5463,34.1178,-11.701,-9.9214,-39.2434,-30.3199,-6.24723,-20.5337,17.0056,-29.7329,30.5443,23.6272,-3.19237,-27.9512,-25.1918,23.5232,-4.70621,3.2112,22.5507,34.1178,-11.701,-9.9214,-39.2434,-30.3199,-6.24286,-20.5294,17.01,-29.7329,30.5443,23.6316,-3.19237,-27.9512,-25.1918,23.5276,-4.70621,3.2112,22.5754,34.1426,-11.6762,-9.8966,-39.2434,-30.2951,-6.24286,-20.5294,17.01,-29.7081,30.5691,23.6564,-3.19237,-27.9264,-25.167,23.5524,-4.70621,3.2112,2.20834
56,22.5627,34.1426,-11.6889,-9.9093,-39.2561,-30.2951,-6.25556,-20.5294,17.01,-29.7081,30.5564,23.6437,-3.20507,-27.9264,-25.1797,23.5397,-4.71891,3.2112,22.5461,34.1426,-11.7056,-9.92598,-39.2728,-30.2951,-6.27224,-20.546,17.01,-29.7081,30.5397,23.6437,-3.20507,-27.9264,-25.1964,23.5397,-4.71891,3.2112,22.4986,34.0951,-11.7531,-9.97349,-39.2728,-30.3426,-6.31975,-20.546,17.01,-29.7556,30.5397,23.6437,-3.20507,-27.974,-25.1964,23.5397,-4.71891,3.2112,22.5493,34.1458,-11.7024,-9.92277,-39.2728,-30.3426,-6.26903,-20.546,17.01,-29.7556,30.5904,23.6437,-3.20507,-27.974,-25.1964,23.5397,-4.71891,3.2112,22.5533,34.1458,-11.7024,-9.92277,-39.2728,-30.3426,-6.265,-20.542,17.014,-29.7556,30.5904,23.6477,-3.20507,-27.974,-25.1964,23.5437,-4.71891,3.2112,22.5762,34.1687,-11.6794,-9.89984,-39.2728,-30.3197,-6.265,-20.542,17.014,-29.7327,30.6133,23.6706,-3.20507,-27.951,-25.1734,23.5666,-4.71891,3.2112,1.8758
57,22.5644,34.1687,-11.6912,-9.91164,-39.2846,-30.3197,-6.2768,-20.542,17.014,-29.7327,30.6016,23.6588,-3.21686,-27.951,-25.1852,23.5548,-4.73071,3.2112,22.5492,34.1687,-11.7065,-9.92688,-39.2999,-30.3197,-6.29205,-20.5573,17.014,-29.7327,30.5863,23.6588,-3.21686,-27.951,-25.2005,23.5548,-4.73071,3.2112,22.5054,34.1249,-11.7503,-9.97072,-39.2999,-30.3635,-6.33589,-20.5573,17.014,-29.7765,30.5863,23.6588,-3.21686,-27.9949,-25.2005,23.5548,-4.73071,3.2112,22.552,34.1716,-11.7036,-9.92404,-39.2999,-30.3635,-6.2892,-20.5573,17.014,-29.7765,30.633,23.6588,-3.21686,-27.9949,-25.2005,23.5548,-4.73071,3.2112,22.5557,34.1716,-11.7036,-9.92404,-39.2999,-30.3635,-6.28549,-20.5536,17.0177,-29.7765,30.633,23.6625,-3.21686,-27.9949,-25.2005,23.5585,-4.73071,3.2112,22.577,34.1928,-11.6824,-9.90283,-39.2999,-30.3423,-6.28549,-20.5536,17.0177,-29.7553,30.6542,23.6837,-3.21686,-27.9737,-25.1793,23.5797,-4.73071,3.2112,1.5933
58,22.566,34.1928,-11.6934,-9.91379,-39.3108,-30.3423,-6.29645,-20.5536,17.0177,-29.7553,30.6432,23.6728,-3.22782,-27.9737,-25.1902,23.5688,-4.74166,3.2112,22.5521,34.1928,-11.7073,-9.92773,-39.3248,-30.3423,-6.31039,-20.5675,17.0177,-29.7553,30.6293,23.6728,-3.22782,-27.9737,-25.2042,23.5688,-4.74166,3.2112,22.5116,34.1523,-11.7478,-9.96818,-39.3248,-30.3828,-6.35084,-20.5675,17.0177,-29.7958,30.6293,23.6728,-3.22782,-28.0141,-25.2042,23.5688,-4.74166,3.2112,22.5546,34.1953,-11.7048,-9.92521,-39.3248,-30.3828,-6.30787,-20.5675,17.0177,-29.7958,30.6723,23.6728,-3.22782,-28.0141,-25.2042,23.5688,-4.74166,3.2112,22.558,34.1953,-11.7048,-9.92521,-39.3248,-30.3828,-6.30445,-20.5641,17.0212,-29.7958,30.6723,23.6762,-3.22782,-28.0141,-25.2042,23.5722,-4.74166,3.2112,22.5776,34.2149,-11.6852,-9.9056,-39.3248,-30.3632,-6.30445,-20.5641,17.0212,-29.7762,30.6919,23.6958,-3.22782,-27.9945,-25.1846,23.5918,-4.74166,3.2112,1.3533
59,22.5674,34.2149,-11.6954,-9.91577,-39.3349,-30.3632,-6.31462,-20.5641,17.0212,-29.7762,30.6817,23.6856,-3.23799,-27.9945,-25.1947,23.5816,-4.75183,3.2112,22.5547,34.2149,-11.7081,-9.92853,-39.3477,-30.3632,-6.32737,-20.5768,17.0212,-29.7762,30.6689,23.6856,-3.23799,-27.9945,-25.2075,23.5816,-4.75183,3.2112,22.5174,34.1776,-11.7454,-9.96585,-39.3477,-30.4005,-6.36469,-20.5768,17.0212,-29.8135,30.6689,23.6856,-3.23799,-28.0318,-25.2075,23.5816,-4.75183,3.2112,22.5569,34.2172,-11.7059,-9.92629,-39.3477,-30.4005,-6.32513,-20.5768,17.0212,-29.8135,30.7085,23.6856,-3.23799,-28.0318,-25.2075,23.5816,-4.75183,3.2112,22.5601,34.2172,-11.7059,-9.92629,-39.3477,-30.4005,-6.32199,-20.5737,17.0243,-29.8135,30.7085,23.6888,-3.23799,-28.0318,-25.2075,23.5848,-4.75183,3.2112,22.5782,34.2353,-11.6878,-9.90817,-39.3477,-30.3823,-6.32199,-20.5737,17.0243,-29.7954,30.7266,23.7069,-3.23799,-28.0137,-25.1894,23.6029,-4.75183,3.2112,1.14943
60,22.5687,34.2353,-11.6972,-9.9176,-39.3571,-30.3823,-6.33142,-20.5737,17.0243,-29.7954,30.7172,23.6975,-3.24742,-28.0137,-25.1988,23.5935,-4.76126,3.2112,22.5571,34.2353,-11.7089,-9.92927,-39.3688,-30.3823,-6.34309,-20.5854,17.0243,-29.7954,30.7055,23.6975,-3.24742,-28.0137,-25.2105,23.5935,-4.76126,3.2112,22.5226,34.2009,-11.7433,-9.9637,-39.3688,-30.4168,-6.37752,-20.5854,17.0243,-29.8298,30.7055,23.6975,-3.24742,-28.0481,-25.2105,23.5935,-4.76126,3.2112,22.5591,34.2373,-11.7069,-9.92729,-39.3688,-30.4168,-6.3411,-20.5854,17.0243,-29.8298,30.7419,23.6975,-3.24742,-28.0481,-25.2105,23.5935,-4.76126,3.2112,22.562,34.2373,-11.7069,-9.92729,-39.3688,-30.4168,-6.3382,-20.5825,17.0272,-29.8298,30.7419,23.7004,-3.24742,-28.0481,-25.2105,23.5964,-4.76126,3.2112,22.5787,34.254,-11.6901,-9.91054,-39.3688,-30.4,-6.3382,-20.5825,17.0272,-29.8131,30.7587,23.7171,-3.24742,-28.0314,-25.1937,23.6131,-4.76126,3.2112,0.976242
61,22.57,34.254,-11.6989,-9.91929,-39.3775,-30.4,-6.34696,-20.5825,17.0272,-29.8131,30.7499,23.7084,-3.25617,-28.0314,-25.2025,23.6044,-4.77002,3.2112,22.5593,34.254,-11.7096,-9.92997,-39.3882,-30.4,-6.35764,-20.5932,17.0272,-29.8131,30.7393,23.7084,-3.25617,-28.0314,-25.2132,23.6044,-4.77002,3.2112,22.5275,34.2223,-11.7413,-9.96173,-39.3882,-30.4318,-6.3894,-20.5932,17.0272,-29.8448,30.7393,23.7084,-3.25617,-28.0631,-25.2132,23.6044,-4.77002,3.2112,22.561,34.2558,-11.7078,-9.92821,-39.3882,-30.4318,-6.35587,-20.5932,17.0272,-29.8448,30.7728,23.7084,-3.25617,-28.0631,-25.2132,23.6044,-4.77002,3.2112,22.5637,34.2558,-11.7078,-9.92821,-39.3882,-30.4318,-6.3532,-20.5905,17.0299,-29.8448,30.7728,23.711,-3.25617,-28.0631,-25.2132,23.607,-4.77002,3.2112,22.5792,34.2713,-11.6923,-9.91273,-39.3882,-30.4163,-6.3532,-20.5905,17.0299,-29.8293,30.7883,23.7265,-3.25617,-28.0477,-25.1977,23.6225,-4.77002,3.2112,0.829127
62,22.5711,34.2713,-11.7004,-9.92085,-39.3963,-30.4163,-6.36132,-20.5905,17.0299,-29.8293,30.7801,23.7184,-3.26429,-28.0477,-25.2058,23.6144,-4.77813,3.2112,22.5613,34.2713,-11.7102,-9.93062,-39.4061,-30.4163,-6.3711,-20.6003,17.0299,-29.8293,30.7704,23.7184,-3.26429,-28.0477,-25.2156,23.6144,-4.77813,3.2112,22.532,34.242,-11.7395,-9.95992,-39.4061,-30.4456,-6.40039,-20.6003,17.0299,-29.8586,30.7704,23.7184,-3.26429,-28.077,-25.2156,23.6144,-4.77813,3.2112,22.5629,34.2728,-11.7087,-9.92906,-39.4061,-30.4456,-6.36953,-20.6003,17.0299,-29.8586,30.8012,23.7184,-3.26429,-28.077,-25.2156,23.6144,-4.77813,3.2112,22.5653,34.2728,-11.7087,-9.92906,-39.4061,-30.4456,-6.36707,-20.5978,17.0323,-29.8586,30.8012,23.7209,-3.26429,-28.077,-25.2156,23.6168,-4.77813,3.2112,22.5796,34.2871,-11.6943,-9.91476,-39.4061,-30.4313,-6.36707,-20.5978,17.0323,-29.8443,30.8155,23.7352,-3.26429,-28.0627,-25.2013,23.6311,-4.77813,3.2112,0.704164
63,22.5721,34.2871,-11.7019,-9.92228,-39.4136,-30.4313,-6.37459,-20.5978,17.0323,-29.8443,30.808,23.7276,-3.27182,-28.0627,-25.2088,23.6236,-4.78566,3.2112,22.5631,34.2871,-11.7108,-9.93123,-39.4226,-30.4313,-6.38354,-20.6068,17.0323,-29.8443,30.799,23.7276,-3.27182,-28.0627,-25.2178,23.6236,-4.78566,3.2112,22.5361,34.2601,-11.7378,-9.95825,-39.4226,-30.4583,-6.41057,-20.6068,17.0323,-29.8714,30.799,23.7276,-3.27182,-28.0897,-25.2178,23.6236,-4.78566,3.2112,22.5645,34.2885,-11.7094,-9.92984,-39.4226,-30.4583,-6.38216,-20.6068,17.0323,-29.8714,30.8275,23.7276,-3.27182,-28.0897,-25.2178,23.6236,-4.78566,3.2112,22.5668,34.2885,-11.7094,-9.92984,-39.4226,-30.4583,-6.37989,-20.6045,17.0346,-29.8714,30.8275,23.7299,-3.27182,-28.0897,-25.2178,23.6259,-4.78566,3.2112,22.58,34.3017,-11.6962,-9.91663,-39.4226,-30.4451,-6.37989,-20.6045,17.0346,-29.8581,30.8407,23.7431,-3.27182,-28.0765,-25.2045,23.6391,-4.78566,3.2112,0.598019
64,22.573,34.3017,-11.7032,-9.9236,-39.4296,-30.4451,-6.38686,-20.6045,17.0346,-29.8581,30.8337,23.7361,-3.27879,-28.0765,-25.2115,23.6321,-4.79263,3.2112,22.5648,34.3017,-11.7114,-9.9318,-39.4378,-30.4451,-6.39506,-20.6127,17.0346,-29.8581,30.8255,23.7361,-3.27879,-28.0765,-25.2197,23.6321,-4.79263,3.2112,22.5399,34.2768,-11.7363,-9.95672,-39.4378,-30.47,-6.41998,-20.6127,17.0346,-29.8831,30.8255,23.7361,-3.27879,-28.1014,-25.2197,23.6321,-4.79263,3.2112,22.5661,34.303,-11.7102,-9.93057,-39.4378,-30.47,-6.39383,-20.6127,17.0346,-29.8831,30.8517,23.7361,-3.27879,-28.1014,-25.2197,23.6321,-4.79263,3.2112,22.5682,34.303,-11.7102,-9.93057,-39.4378,-30.47,-6.39174,-20.6106,17.0367,-29.8831,30.8517,23.7382,-3.27879,-28.1014,-25.2197,23.6342,-4.79263,3.2112,22.5804,34.3152,-11.698,-9.91836,-39.4378,-30.4578,-6.39174,-20.6106,17.0367,-29.8709,30.8639,23.7504,-3.27879,-28.0892,-25.2075,23.6464,-4.79263,3.2112,0.507861
65,22.5739,34.3152,-11.7044,-9.92482,-39.4442,-30.4578,-6.3982,-20.6106,17.0367,-29.8709,30.8574,23.744,-3.28525,-28.0892,-25.214,23.64,-4.7991,3.2112,22.5664,34.3152,-11.7119,-9.93233,-39.4517,-30.4578,-6.40571,-20.6181,17.0367,-29.8709,30.8499,23.744,-3.28525,-28.0892,-25.2215,23.64,-4.7991,3.2112,22.5434,34.2922,-11.7349,-9.95531,-39.4517,-30.4808,-6.42869,-20.6181,17.0367,-29.8938,30.8499,23.744,-3.28525,-28.1122,-25.2215,23.64,-4.7991,3.2112,22.5675,34.3163,-11.7108,-9.93123,-39.4517,-30.4808,-6.40461,-20.6181,17.0367,-29.8938,30.874,23.744,-3.28525,-28.1122,-25.2215,23.64,-4.7991,3.2112,22.5694,34.3163,-11.7108,-9.93123,-39.4517,-30.4808,-6.40269,-20.6162,17.0386,-29.8938,30.874,23.7459,-3.28525,-28.1122,-25.2215,23.6419,-4.7991,3.2112,22.5807,34.3275,-11.6996,-9.91996,-39.4517,-30.4695,-6.40269,-20.6162,17.0386,-29.8826,30.8852,23.7572,-3.28525,-28.1009,-25.2102,23.6532,-4.7991,3.2112,0.431285
66,22.5747,34.3275,-11.7055,-9.92595,-39.4577,-30.4695,-6.40868,-20.6162,17.0386,-29.8826,30.8793,23.7512,-3.29124,-28.1009,-25.2162,23.6472,-4.80508,3.2112,22.5678,34.3275,-11.7124,-9.93282,-39.4646,-30.4695,-6.41555,-20.623,17.0386,-29.8826,30.8724,23.7512,-3.29124,-28.1009,-25.2231,23.6472,-4.80508,3.2112,22.5466,34.3063,-11.7336,-9.95402,-39.4646,-30.4907,-6.43675,-20.623,17.0386,-29.9038,30.8724,23.7512,-3.29124,-28.1221,-25.2231,23.6472,-4.80508,3.2112,22.5688,34.3285,-11.7114,-9.93185,-39.4646,-30.4907,-6.41458,-20.623,17.0386,-29.9038,30.8946,23.7512,-3.29124,-28.1221,-25.2231,23.6472,-4.80508,3.2112,22.5706,34.3285,-11.7114,-9.93185,-39.4646,-30.4907,-6.41281,-20.6213,17.0404,-29.9038,30.8946,23.7529,-3.29124,-28.1221,-25.2231,23.6489,-4.80508,3.2112,22.581,34.3389,-11.701,-9.92144,-39.4646,-30.4803,-6.41281,-20.6213,17.0404,-29.8934,30.905,23.7634,-3.29124,-28.1117,-25.2126,23.6594,-4.80508,3.2112,0.366246
67,22.5754,34.3389,-11.7066,-9.92698,-39.4701,-30.4803,-6.41836,-20.6213,17.0404,-29.8934,30.8994,23.7578,-3.29679,-28.1117,-25.2182,23.6538,-4.81063,3.2112,22.5691,34.3389,-11.7129,-9.93328,-39.4764,-30.4803,-6.42465,-20.6276,17.0404,-29.8934,30.8931,23.7578,-3.29679,-28.1117,-25.2245,23.6538,-4.81063,3.2112,22.5496,34.3194,-11.7324,-9.95283,-39.4764,-30.4999,-6.4442,-20.6276,17.0404,-29.9129,30.8931,23.7578,-3.29679,-28.1312,-25.2245,23.6538,-4.81063,3.2112,22.57,34.3398,-11.712,-9.93242,-39.4764,-30.4999,-6.42379,-20.6276,17.0404,-29.9129,30.9135,23.7578,-3.29679,-28.1312,-25.2245,23.6538,-4.81063,3.2112,22.5716,34.3398,-11.712,-9.93242,-39.4764,-30.4999,-6.42216,-20.6259,17.042,-29.9129,30.9135,23.7594,-3.29679,-28.1312,-25.2245,23.6554,-4.81063,3.2112,22.5813,34.3494,-11.7024,-9.9228,-39.4764,-30.4903,-6.42216,-20.6259,17.042,-29.9033,30.9232,23.7691,-3.29679,-28.1216,-25.2149,23.6651,-4.81063,3.2112,0.311008
68,22.5761,34.3494,-11.7075,-9.92794,-39.4816,-30.4903,-6.4273,-20.6259,17.042,-29.9033,30.918,23.7639,-3.30192,-28.1216,-25.22,23.6599,-4.81577,3.2112,22.5703,34.3494,-11.7133,-9.93371,-39.4873,-30.4903,-6.43307,-20.6317,17.042,-29.9033,30.9122,23.7639,-3.30192,-28.1216,-25.2258,23.6599,-4.81577,3.2112,22.5523,34.3314,-11.7313,-9.95174,-39.4873,-30.5083,-6.4511,-20.6317,17.042,-29.9213,30.9122,23.7639,-3.30192,-28.1396,-25.2258,23.6599,-4.81577,3.2112,22.5711,34.3502,-11.7125,-9.93295,-39.4873,-30.5083,-6.43231,-20.6317,17.042,-29.9213,30.931,23.7639,-3.30192,-28.1396,-25.2258,23.6599,-4.81577,3.2112,22.5726,34.3502,-11.7125,-9.93295,-39.4873,-30.5083,-6.4308,-20.6302,17.0435,-29.9213,30.931,23.7654,-3.30192,-28.1396,-25.2258,23.6614,-4.81577,3.2112,22.5815,34.359,-11.7037,-9.92407,-39.4873,-30.4994,-6.4308,-20.6302,17.0435,-29.9124,30.9399,23.7743,-3.30192,-28.1308,-25.2169,23.6703,-4.81577,3.2112,0.264094
69,22.5767,34.359,-11.7084,-9.92882,-39.4921,-30.4994,-6.43556,-20.6302,17.0435,-29.9124,30.9352,23.7696,-3.30668,-28.1308,-25.2217,23.6655,-4.82052,3.2112,22.5715,34.359,-11.7137,-9.93411,-39.4974,-30.4994,-6.44084,-20.6355,17.0435,-29.9124,30.9299,23.7696,-3.30668,-28.1308,-25.2269,23.6655,-4.82052,3.2112,22.5548,34.3424,-11.7303,-9.95073,-39.4974,-30.516,-6.45747,-20.6355,17.0435,-29.9291,30.9299,23.7696,-3.30668,-28.1474,-25.2269,23.6655,-4.82052,3.2112,22.5721,34.3597,-11.713,-9.93343,-39.4974,-30.516,-6.44017,-20.6355,17.0435,-29.9291,30.9472,23.7696,-3.30668,-28.1474,-25.2269,23.6655,-4.82052,3.2112,22.5735,34.3597,-11.713,-9.93343,-39.4974,-30.516,-6.43878,-20.6341,17.0449,-29.9291,30.9472,23.7709,-3.30668,-28.1474,-25.2269,23.6669,-4.82052,3.2112,22.5817,34.3679,-11.7048,-9.92523,-39.4974,-30.5078,-6.43878,-20.6341,17.0449,-29.9209,30.9554,23.7791,-3.30668,-28.1392,-25.2187,23.6751,-4.82052,3.2112,0.224252
70,22.5773,34.3679,-11.7092,-9.92963,-39.5018,-30.5078,-6.44318,-20.6341,17.0449,-29.9209,30.951,23.7747,-3.31108,-28.1392,-25.2231,23.6707,-4.82492,3.2112,22.5725,34.3679,-11.7141,-9.93448,-39.5066,-30.5078,-6.44803,-20.639,17.0449,-29.9209,30.9461,23.7747,-3.31108,-28.1392,-25.228,23.6707,-4.82492,3.2112,22.5571,34.3526,-11.7294,-9.94981,-39.5066,-30.5232,-6.46336,-20.639,17.0449,-29.9362,30.9461,23.7747,-3.31108,-28.1545,-25.228,23.6707,-4.82492,3.2112,22.5731,34.3685,-11.7135,-9.93388,-39.5066,-30.5232,-6.44743,-20.639,17.0449,-29.9362,30.9621,23.7747,-3.31108,-28.1545,-25.228,23.6707,-4.82492,3.2112,22.5743,34.3685,-11.7135,-9.93388,-39.5066,-30.5232,-6.44615,-20.6377,17.0462,-29.9362,30.9621,23.776,-3.31108,-28.1545,-25.228,23.672,-4.82492,3.2112,22.5819,34.3761,-11.7059,-9.92631,-39.5066,-30.5156,-6.44615,-20.6377,17.0462,-29.9286,30.9696,23.7836,-3.31108,-28.1469,-25.2204,23.6796,-4.82492,3.2112,0.190416
71,22.5778,34.3761,-11.71,-9.93038,-39.5107,-30.5156,-6.45023,-20.6377,17.0462,-29.9286,30.9656,23.7795,-3.31515,-28.1469,-25.2245,23.6755,-4.82899,3.2112,22.5734,34.3761,-11.7144,-9.93482,-39.5151,-30.5156,-6.45467,-20.6421,17.0462,-29.9286,30.9611,23.7795,-3.31515,-28.1469,-25.2289,23.6755,-4.82899,3.2112,22.5593,34.3619,-11.7286,-9.94896,-39.5151,-30.5297,-6.4688,-20.6421,17.0462,-29.9428,30.9611,23.7795,-3.31515,-28.1611,-25.2289,23.6755,-4.82899,3.2112,22.5739,34.3766,-11.7139,-9.93429,-39.5151,-30.5297,-6.45414,-20.6421,17.0462,-29.9428,30.9758,23.7795,-3.31515,-28.1611,-25.2289,23.6755,-4.82899,3.2112,22.5751,34.3766,-11.7139,-9.93429,-39.5151,-30.5297,-6.45296,-20.6409,17.0473,-29.9428,30.9758,23.7807,-3.31515,-28.1611,-25.2289,23.6767,-4.82899,3.2112,22.5821,34.3836,-11.7069,-9.9273,-39.5151,-30.5227,-6.45296,-20.6409,17.0473,-29.9358,30.9828,23.7877,-3.31515,-28.1541,-25.2219,23.6837,-4.82899,3.2112,0.161682
72,22.5783,34.3836,-11.7107,-9.93107,-39.5189,-30.5227,-6.45673,-20.6409,17.0473,-29.9358,30.979,23.7839,-3.31892,-28.1541,-25.2257,23.6799,-4.83276,3.2112,22.5743,34.3836,-11.7147,-9.93514,-39.523,-30.5227,-6.4608,-20.645,17.0473,-29.9358,30.9749,23.7839,-3.31892,-28.1541,-25.2298,23.6799,-4.83276,3.2112,22.5612,34.3706,-11.7278,-9.94818,-39.523,-30.5358,-6.47384,-20.645,17.0473,-29.9488,30.9749,23.7839,-3.31892,-28.1671,-25.2298,23.6799,-4.83276,3.2112,22.5747,34.3841,-11.7143,-9.93467,-39.523,-30.5358,-6.46033,-20.645,17.0473,-29.9488,30.9884,23.7839,-3.31892,-28.1671,-25.2298,23.6799,-4.83276,3.2112,22.5758,34.3841,-11.7143,-9.93467,-39.523,-30.5358,-6.45925,-20.6439,17.0484,-29.9488,30.9884,23.785,-3.31892,-28.1671,-25.2298,23.681,-4.83276,3.2112,22.5823,34.3905,-11.7078,-9.92822,-39.523,-30.5293,-6.45925,-20.6439,17.0484,-29.9423,30.9949,23.7914,-3.31892,-28.1607,-25.2233,23.6874,-4.83276,3.2112,0.137281
73,22.5788,34.3905,-11.7113,-9.93171,-39.5265,-30.5293,-6.46274,-20.6439,17.0484,-29.9423,30.9914,23.788,-3.3224,-28.1607,-25.2268,23.6839,-4.83625,3.2112,22.575,34.3905,-11.715,-9.93544,-39.5302,-30.5293,-6.46647,-20.6477,17.0484,-29.9423,30.9877,23.788,-3.3224,-28.1607,-25.2305,23.6839,-4.83625,3.2112,22.563,34.3785,-11.727,-9.94746,-39.5302,-30.5413,-6.47849,-20.6477,17.0484,-29.9544,30.9877,23.788,-3.3224,-28.1727,-25.2305,23.6839,-4.83625,3.2112,22.5755,34.3909,-11.7146,-9.93502,-39.5302,-30.5413,-6.46605,-20.6477,17.0484,-29.9544,31.0001,23.788,-3.3224,-28.1727,-25.2305,23.6839,-4.83625,3.2112,22.5765,34.3909,-11.7146,-9.93502,-39.5302,-30.5413,-6.46506,-20.6467,17.0494,-29.9544,31.0001,23.789,-3.3224,-28.1727,-25.2305,23.6849,-4.83625,3.2112,22.5824,34.3969,-11.7087,-9.92907,-39.5302,-30.5354,-6.46506,-20.6467,17.0494,-29.9484,31.0061,23.7949,-3.3224,-28.1667,-25.2246,23.6909,-4.83625,3.2112,0.11656
74,22.5792,34.3969,-11.7119,-9.93229,-39.5334,-30.5354,-6.46828,-20.6467,17.0494,-29.9484,31.0028,23.7917,-3.32563,-28.1667,-25.2278,23.6877,-4.83947,3.2112,22.5758,34.3969,-11.7153,-9.93572,-39.5368,-30.5354,-6.4717,-20.6501,17.0494,-29.9484,30.9994,23.7917,-3.32563,-28.1667,-25.2312,23.6877,-4.83947,3.2112,22.5647,34.3858,-11.7264,-9.94679,-39.5368,-30.5465,-6.48278,-20.6501,17.0494,-29.9595,30.9994,23.7917,-3.32563,-28.1778,-25.2312,23.6877,-4.83947,3.2112,22.5761,34.3973,-11.7149,-9.93535,-39.5368,-30.5465,-6.47133,-20.6501,17.0494,-29.9595,31.0109,23.7917,-3.32563,-28.1778,-25.2312,23.6877,-4.83947,3.2112,22.577,34.3973,-11.7149,-9.93535,-39.5368,-30.5465,-6.47042,-20.6492,17.0503,-29.9595,31.0109,23.7926,-3.32563,-28.1778,-25.2312,23.6886,-4.83947,3.2112,22.5825,34.4028,-11.7094,-9.92985,-39.5368,-30.541,-6.47042,-20.6492,17.0503,-29.954,31.0163,23.7981,-3.32563,-28.1723,-25.2257,23.6941,-4.83947,3.2112,0.0989643
75,22.5796,34.4028,-11.7124,-9.93283,-39.5398,-30.541,-6.4734,-20.6492,17.0503,-29.954,31.0134,23.7951,-3.32861,-28.1723,-25.2287,23.6911,-4.84245,3.2112,22.5764,34.4028,-11.7156,-9.93597,-39.543,-30.541,-6.47654,-20.6523,17.0503,-29.954,31.0102,23.7951,-3.32861,-28.1723,-25.2319,23.6911,-4.84245,3.2112,22.5662,34.3926,-11.7258,-9.94619,-39.543,-30.5512,-6.48675,-20.6523,17.0503,-29.9642,31.0102,23.7951,-3.32861,-28.1825,-25.2319,23.6911,-4.84245,3.2112,22.5767,34.4031,-11.7152,-9.93565,-39.543,-30.5512,-6.47621,-20.6523,17.0503,-29.9642,31.0208,23.7951,-3.32861,-28.1825,-25.2319,23.6911,-4.84245,3.2112,22.5776,34.4031,-11.7152,-9.93565,-39.543,-30.5512,-6.47536,-20.6515,17.0512,-29.9642,31.0208,23.796,-3.32861,-28.1825,-25.2319,23.692,-4.84245,3.2112,22.5827,34.4082,-11.7102,-9.93057,-39.543,-30.5461,-6.47536,-20.6515,17.0512,-29.9591,31.0258,23.801,-3.32861,-28.1775,-25.2268,23.697,-4.84245,3.2112,0.0840232
76,22.5799,34.4082,-11.7129,-9.93333,-39.5457,-30.5461,-6.47812,-20.6515,17.0512,-29.9591,31.0231,23.7983,-3.33137,-28.1775,-25.2296,23.6943,-4.84521,3.2112,22.577,34.4082,-11.7158,-9.93621,-39.5486,-30.5461,-6.481,-20.6544,17.0512,-29.9591,31.0202,23.7983,-3.33137,-28.1775,-25.2324,23.6943,-4.84521,3.2112,22.5676,34.3987,-11.7252,-9.94563,-39.5486,-30.5555,-6.49042,-20.6544,17.0512,-29.9685,31.0202,23.7983,-3.33137,-28.1869,-25.2324,23.6943,-4.84521,3.2112,22.5773,34.4085,-11.7155,-9.93592,-39.5486,-30.5555,-6.48071,-20.6544,17.0512,-29.9685,31.0299,23.7983,-3.33137,-28.1869,-25.2324,23.6943,-4.84521,3.2112,22.5781,34.4085,-11.7155,-9.93592,-39.5486,-30.5555,-6.47993,-20.6536,17.052,-29.9685,31.0299,23.7991,-3.33137,-28.1869,-25.2324,23.695,-4.84521,3.2112,22.5828,34.4131,-11.7108,-9.93124,-39.5486,-30.5508,-6.47993,-20.6536,17.052,-29.9639,31.0346,23.8037,-3.33137,-28.1822,-25.2278,23.6997,-4.84521,3.2112,0.0713364
77,22.5802,34.4131,-11.7134,-9.93379,-39.5512,-30.5508,-6.48248,-20.6536,17.052,-29.9639,31.032,23.8012,-3.33392,-28.1822,-25.2303,23.6972,-4.84776,3.2112,22.5776,34.4131,-11.716,-9.93643,-39.5538,-30.5508,-6.48513,-20.6562,17.052,-29.9639,31.0294,23.8012,-3.33392,-28.1822,-25.2329,23.6972,-4.84776,3.2112,22.5689,34.4045,-11.7247,-9.94511,-39.5538,-30.5595,-6.49381,-20.6562,17.052,-29.9725,31.0294,23.8012,-3.33392,-28.1909,-25.2329,23.6972,-4.84776,3.2112,22.5778,34.4134,-11.7158,-9.93618,-39.5538,-30.5595,-6.48487,-20.6562,17.052,-29.9725,31.0383,23.8012,-3.33392,-28.1909,-25.2329,23.6972,-4.84776,3.2112,22.5786,34.4134,-11.7158,-9.93618,-39.5538,-30.5595,-6.48415,-20.6555,17.0527,-29.9725,31.0383,23.8019,-3.33392,-28.1909,-25.2329,23.6979,-4.84776,3.2112,22.5829,34.4177,-11.7114,-9.93186,-39.5538,-30.5552,-6.48415,-20.6555,17.0527,-29.9682,31.0426,23.8062,-3.33392,-28.1866,-25.2286,23.7022,-4.84776,3.2112,0.060564
78,22.5805,34.4177,-11.7138,-9.93421,-39.5562,-30.5552,-6.48651,-20.6555,17.0527,-29.9682,31.0403,23.8039,-3.33627,-28.1866,-25.231,23.6999,-4.85012,3.2112,22.5781,34.4177,-11.7162,-9.93664,-39.5586,-30.5552,-6.48893,-20.6579,17.0527,-29.9682,31.0379,23.8039,-3.33627,-28.1866,-25.2334,23.6999,-4.85012,3.2112,22.5701,34.4097,-11.7242,-9.94464,-39.5586,-30.5632,-6.49693,-20.6579,17.0527,-29.9762,31.0379,23.8039,-3.33627,-28.1946,-25.2334,23.6999,-4.85012,3.2112,22.5783,34.4179,-11.716,-9.93641,-39.5586,-30.5632,-6.4887,-20.6579,17.0527,-29.9762,31.0461,23.8039,-3.33627,-28.1946,-25.2334,23.6999,-4.85012,3.2112,22.579,34.4179,-11.716,-9.93641,-39.5586,-30.5632,-6.48804,-20.6573,17.0533,-29.9762,31.0461,23.8045,-3.33627,-28.1946,-25.2334,23.7005,-4.85012,3.2112,22.583,34.4219,-11.712,-9.93242,-39.5586,-30.5592,-6.48804,-20.6573,17.0533,-29.9722,31.0501,23.8085,-3.33627,-28.1906,-25.2294,23.7045,-4.85012,3.2112,0.0514173
79,22.5808,34.4219,-11.7142,-9.9346,-39.5608,-30.5592,-6.49022,-20.6573,17.0533,-29.9722,31.0479,23.8063,-3.33845,-28.1906,-25.2316,23.7023,-4.85229,3.2112,22.5786,34.4219,-11.7164,-9.93683,-39.563,-30.5592,-6.49245,-20.6595,17.0533,-29.9722,31.0457,23.8063,-3.33845,-28.1906,-25.2338,23.7023,-4.85229,3.2112,22.5712,34.4145,-11.7238,-9.9442,-39.563,-30.5666,-6.49982,-20.6595,17.0533,-29.9796,31.0457,23.8063,-3.33845,-28.1979,-25.2338,23.7023,-4.85229,3.2112,22.5788,34.4221,-11.7162,-9.93663,-39.563,-30.5666,-6.49224,-20.6595,17.0533,-29.9796,31.0533,23.8063,-3.33845,-28.1979,-25.2338,23.7023,-4.85229,3.2112,22.5794,34.4221,-11.7162,-9.93663,-39.563,-30.5666,-6.49164,-20.6589,17.054,-29.9796,31.0533,23.8069,-3.33845,-28.1979,-25.2338,23.7029,-4.85229,3.2112,22.5831,34.4258,-11.7125,-9.93295,-39.563,-30.5629,-6.49164,-20.6589,17.054,-29.9759,31.0569,23.8106,-3.33845,-28.1943,-25.2301,23.7066,-4.85229,3.2112,0.0436512
80,22.581,34.4258,-11.7146,-9.93496,-39.565,-30.5629,-6.49365,-20.6589,17.054,-29.9759,31.0549,23.8086,-3.34046,-28.1943,-25.2322,23.7046,-4.85431,3.2112,22.579,34.4258,-11.7166,-9.937,-39.567,-30.5629,-6.49569,-20.6609,17.054,-29.9759,31.0529,23.8086,-3.34046,-28.1943,-25.2342,23.7046,-4.85431,3.2112,22.5722,34.419,-11.7234,-9.9438,-39.567,-30.5697,-6.50249,-20.6609,17.054,-29.9827,31.0529,23.8086,-3.34046,-28.2011,-25.2342,23.7046,-4.85431,3.2112,22.5792,34.426,-11.7164,-9.93683,-39.567,-30.5697,-6.49551,-20.6609,17.054,-29.9827,31.0599,23.8086,-3.34046,-28.2011,-25.2342,23.7046,-4.85431,3.2112,22.5797,34.426,-11.7164,-9.93683,-39.567,-30.5697,-6.49495,-20.6604,17.0545,-29.9827,31.0599,23.8092,-3.34046,-28.2011,-25.2342,23.7052,-4.85431,3.2112,22.5831,34.4294,-11.713,-9.93343,-39.567,-30.5663,-6.49495,-20.6604,17.0545,-29.9794,31.0633,23.8126,-3.34046,-28.1977,-25.2308,23.7086,-4.85431,3.2112,0.0370574
81,22.5813,34.4294,-11.7149,-9.93529,-39.5689,-30.5663,-6.49681,-20.6604,17.0545,-29.9794,31.0614,23.8107,-3.34232,-28.1977,-25.2327,23.7067,-4.85616,3.2112,22.5794,34.4294,-11.7168,-9.93717,-39.5708,-30.5663,-6.49868,-20.6622,17.0545,-29.9794,31.0595,23.8107,-3.34232,-28.1977,-25.2345,23.7067,-4.85616,3.2112,22.5731,34.4231,-11.723,-9.94343,-39.5708,-30.5726,-6.50495,-20.6622,17.0545,-29.9856,31.0595,23.8107,-3.34232,-28.2039,-25.2345,23.7067,-4.85616,3.2112,22.5796,34.4295,-11.7166,-9.93701,-39.5708,-30.5726,-6.49853,-20.6622,17.0545,-29.9856,31.0659,23.8107,-3.34232,-28.2039,-25.2345,23.7067,-4.85616,3.2112,22.5801,34.4295,-11.7166,-9.93701,-39.5708,-30.5726,-6.49801,-20.6617,17.055,-29.9856,31.0659,23.8112,-3.34232,-28.2039,-25.2345,23.7072,-4.85616,3.2112,22.5832,34.4327,-11.7135,-9.93388,-39.5708,-30.5695,-6.49801,-20.6617,17.055,-29.9825,31.0691,23.8143,-3.34232,-28.2008,-25.2314,23.7103,-4.85616,3.2112,0.0314591
82,22.5815,34.4327,-11.7152,-9.9356,-39.5725,-30.5695,-6.49973,-20.6617,17.055,-29.9825,31.0674,23.8126,-3.34404,-28.2008,-25.2331,23.7086,-4.85788,3.2112,22.5798,34.4327,-11.7169,-9.93732,-39.5742,-30.5695,-6.50145,-20.6634,17.055,-29.9825,31.0656,23.8126,-3.34404,-28.2008,-25.2349,23.7086,-4.85788,3.2112,22.574,34.4269,-11.7227,-9.9431,-39.5742,-30.5752,-6.50723,-20.6634,17.055,-29.9883,31.0656,23.8126,-3.34404,-28.2066,-25.2349,23.7086,-4.85788,3.2112,22.5799,34.4328,-11.7168,-9.93718,-39.5742,-30.5752,-6.50131,-20.6634,17.055,-29.9883,31.0715,23.8126,-3.34404,-28.2066,-25.2349,23.7086,-4.85788,3.2112,22.5804,34.4328,-11.7168,-9.93718,-39.5742,-30.5752,-6.50083,-20.663,17.0555,-29.9883,31.0715,23.8131,-3.34404,-28.2066,-25.2349,23.7091,-4.85788,3.2112,22.5833,34.4357,-11.7139,-9.93429,-39.5742,-30.5723,-6.50083,-20.663,17.0555,-29.9854,31.0744,23.816,-3.34404,-28.2037,-25.232,23.712,-4.85788,3.2112,0.0267061
83,22.5817,34.4357,-11.7155,-9.93588,-39.5758,-30.5723,-6.50242,-20.663,17.0555,-29.9854,31.0728,23.8144,-3.34563,-28.2037,-25.2336,23.7104,-4.85947,3.2112,22.5801,34.4357,-11.7171,-9.93746,-39.5774,-30.5723,-6.504,-20.6645,17.0555,-29.9854,31.0713,23.8144,-3.34563,-28.2037,-25.2351,23.7104,-4.85947,3.2112,22.5748,34.4304,-11.7224,-9.94278,-39.5774,-30.5777,-6.50932,-20.6645,17.0555,-29.9907,31.0713,23.8144,-3.34563,-28.209,-25.2351,23.7104,-4.85947,3.2112,22.5802,34.4358,-11.7169,-9.93733,-39.5774,-30.5777,-6.50388,-20.6645,17.0555,-29.9907,31.0767,23.8144,-3.34563,-28.209,-25.2351,23.7104,-4.85947,3.2112,22.5807,34.4358,-11.7169,-9.93733,-39.5774,-30.5777,-6.50344,-20.6641,17.0559,-29.9907,31.0767,23.8148,-3.34563,-28.209,-25.2351,23.7108,-4.85947,3.2112,22.5833,34.4385,-11.7143,-9.93467,-39.5774,-30.575,-6.50344,-20.6641,17.0559,-29.988,31.0794,23.8175,-3.34563,-28.2064,-25.2325,23.7135,-4.85947,3.2112,0.0226708
84,22.5819,34.4385,-11.7157,-9.93614,-39.5788,-30.575,-6.5049,-20.6641,17.0559,-29.988,31.0779,23.816,-3.34709,-28.2064,-25.2339,23.712,-4.86094,3.2112,22.5804,34.4385,-11.7172,-9.93759,-39.5803,-30.575,-6.50635,-20.6656,17.0559,-29.988,31.0765,23.816,-3.34709,-28.2064,-25.2354,23.712,-4.86094,3.2112,22.5755,34.4336,-11.7221,-9.9425,-39.5803,-30.5799,-6.51126,-20.6656,17.0559,-29.993,31.0765,23.816,-3.34709,-28.2113,-25.2354,23.712,-4.86094,3.2112,22.5805,34.4386,-11.7171,-9.93748,-39.5803,-30.5799,-6.50624,-20.6656,17.0559,-29.993,31.0815,23.816,-3.34709,-28.2113,-25.2354,23.712,-4.86094,3.2112,22.5809,34.4386,-11.7171,-9.93748,-39.5803,-30.5799,-6.50584,-20.6652,17.0564,-29.993,31.0815,23.8164,-3.34709,-28.2113,-25.2354,23.7124,-4.86094,3.2112,22.5834,34.441,-11.7146,-9.93502,-39.5803,-30.5775,-6.50584,-20.6652,17.0564,-29.9905,31.0839,23.8189,-3.34709,-28.2088,-25.2329,23.7149,-4.86094,3.2112,0.0192449
85,22.582,34.441,-11.716,-9.93638,-39.5816,-30.5775,-6.50719,-20.6652,17.0564,-29.9905,31.0826,23.8175,-3.34845,-28.2088,-25.2343,23.7135,-4.86229,3.2112,22.5807,34.441,-11.7173,-9.93771,-39.583,-30.5775,-6.50853,-20.6665,17.0564,-29.9905,31.0813,23.8175,-3.34845,-28.2088,-25.2356,23.7135,-4.86229,3.2112,22.5762,34.4365,-11.7218,-9.94223,-39.583,-30.582,-6.51305,-20.6665,17.0564,-29.995,31.0813,23.8175,-3.34845,-28.2133,-25.2356,23.7135,-4.86229,3.2112,22.5808,34.4411,-11.7172,-9.93761,-39.583,-30.582,-6.50843,-20.6665,17.0564,-29.995,31.0859,23.8175,-3.34845,-28.2133,-25.2356,23.7135,-4.86229,3.2112,22.5812,34.4411,-11.7172,-9.93761,-39.583,-30.582,-6.50806,-20.6661,17.0567,-29.995,31.0859,23.8179,-3.34845,-28.2133,-25.2356,23.7139,-4.86229,3.2112,22.5834,34.4434,-11.7149,-9.93535,-39.583,-30.5797,-6.50806,-20.6661,17.0567,-29.9928,31.0881,23.8202,-3.34845,-28.2111,-25.2334,23.7162,-4.86229,3.2112,0.0163365
86,22.5822,34.4434,-11.7162,-9.9366,-39.5842,-30.5797,-6.50931,-20.6661,17.0567,-29.9928,31.0869,23.8189,-3.3497,-28.2111,-25.2346,23.7149,-4.86354,3.2112,22.581,34.4434,-11.7174,-9.93782,-39.5855,-30.5797,-6.51053,-20.6673,17.0567,-29.9928,31.0857,23.8189,-3.3497,-28.2111,-25.2358,23.7149,-4.86354,3.2112,22.5768,34.4392,-11.7216,-9.94199,-39.5855,-30.5839,-6.5147,-20.6673,17.0567,-29.9969,31.0857,23.8189,-3.3497,-28.2152,-25.2358,23.7149,-4.86354,3.2112,22.581,34.4435,-11.7173,-9.93773,-39.5855,-30.5839,-6.51045,-20.6673,17.0567,-29.9969,31.0899,23.8189,-3.3497,-28.2152,-25.2358,23.7149,-4.86354,3.2112,22.5814,34.4435,-11.7173,-9.93773,-39.5855,-30.5839,-6.5101,-20.667,17.0571,-29.9969,31.0899,23.8193,-3.3497,-28.2152,-25.2358,23.7153,-4.86354,3.2112,22.5835,34.4456,-11.7152,-9.93564,-39.5855,-30.5818,-6.5101,-20.667,17.0571,-29.9948,31.092,23.8214,-3.3497,-28.2132,-25.2337,23.7174,-4.86354,3.2112,0.0138673
87,22.5823,34.4456,-11.7164,-9.9368,-39.5866,-30.5818,-6.51126,-20.667,17.0571,-29.9948,31.0909,23.8202,-3.35085,-28.2132,-25.2349,23.7162,-4.8647,3.2112,22.5812,34.4456,-11.7175,-9.93792,-39.5877,-30.5818,-6.51238,-20.6681,17.0571,-29.9948,31.0897,23.8202,-3.35085,-28.2132,-25.236,23.7162,-4.8647,3.2112,22.5773,34.4417,-11.7214,-9.94177,-39.5877,-30.5856,-6.51622,-20.6681,17.0571,-29.9987,31.0897,23.8202,-3.35085,-28.217,-25.236,23.7162,-4.8647,3.2112,22.5813,34.4457,-11.7174,-9.93785,-39.5877,-30.5856,-6.51231,-20.6681,17.0571,-29.9987,31.0936,23.8202,-3.35085,-28.217,-25.236,23.7162,-4.8647,3.2112,22.5816,34.4457,-11.7174,-9.93785,-39.5877,-30.5856,-6.51199,-20.6678,17.0574,-29.9987,31.0936,23.8205,-3.35085,-28.217,-25.236,23.7165,-4.8647,3.2112,22.5835,34.4476,-11.7155,-9.93592,-39.5877,-30.5837,-6.51199,-20.6678,17.0574,-29.9967,31.0956,23.8225,-3.35085,-28.2151,-25.2341,23.7184,-4.8647,3.2112,0.0117712
88,22.5824,34.4476,-11.7166,-9.93699,-39.5888,-30.5837,-6.51306,-20.6678,17.0574,-29.9967,31.0945,23.8214,-3.35192,-28.2151,-25.2352,23.7174,-4.86576,3.2112,22.5814,34.4476,-11.7176,-9.93802,-39.5898,-30.5837,-6.51409,-20.6688,17.0574,-29.9967,31.0935,23.8214,-3.35192,-28.2151,-25.2362,23.7174,-4.86576,3.2112,22.5779,34.444,-11.7212,-9.94156,-39.5898,-30.5873,-6.51763,-20.6688,17.0574,-30.0003,31.0935,23.8214,-3.35192,-28.2186,-25.2362,23.7174,-4.86576,3.2112,22.5815,34.4476,-11.7175,-9.93795,-39.5898,-30.5873,-6.51402,-20.6688,17.0574,-30.0003,31.0971,23.8214,-3.35192,-28.2186,-25.2362,23.7174,-4.86576,3.2112,22.5818,34.4476,-11.7175,-9.93795,-39.5898,-30.5873,-6.51373,-20.6685,17.0577,-30.0003,31.0971,23.8217,-3.35192,-28.2186,-25.2362,23.7177,-4.86576,3.2112,22.5835,34.4494,-11.7158,-9.93617,-39.5898,-30.5855,-6.51373,-20.6685,17.0577,-29.9985,31.0989,23.8235,-3.35192,-28.2168,-25.2344,23.7194,-4.86576,3.2112,0.00999183
89,22.5826,34.4494,-11.7168,-9.93716,-39.5908,-30.5855,-6.51471,-20.6685,17.0577,-29.9985,31.0979,23.8225,-3.3529,-28.2168,-25.2354,23.7185,-4.86675,3.2112,22.5816,34.4494,-11.7177,-9.93811,-39.5918,-30.5855,-6.51566,-20.6695,17.0577,-29.9985,31.0969,23.8225,-3.3529,-28.2168,-25.2363,23.7185,-4.86675,3.2112,22.5784,34.4462,-11.721,-9.94137,-39.5918,-30.5887,-6.51893,-20.6695,17.0577,-30.0018,31.0969,23.8225,-3.3529,-28.2201,-25.2363,23.7185,-4.86675,3.2112,22.5817,34.4495,-11.7176,-9.93805,-39.5918,-30.5887,-6.5156,-20.6695,17.0577,-30.0018,31.1003,23.8225,-3.3529,-28.2201,-25.2363,23.7185,-4.86675,3.2112,22.5819,34.4495,-11.7176,-9.93805,-39.5918,-30.5887,-6.51534,-20.6692,17.0579,-30.0018,31.1003,23.8227,-3.3529,-28.2201,-25.2363,23.7187,-4.86675,3.2112,22.5836,34.4511,-11.716,-9.93641,-39.5918,-30.5871,-6.51534,-20.6692,17.0579,-30.0001,31.1019,23.8244,-3.3529,-28.2185,-25.2347,23.7204,-4.86675,3.2112,0.00848129
90,22.5827,34.4511,-11.7169,-9.93732,-39.5927,-30.5871,-6.51624,-20.6692,17.0579,-30.0001,31.101,23.8235,-3.35381,-28.2185,-25.2356,23.7195,-4.86766,3.2112,22.5818,34.4511,-11.7178,-9.93819,-39.5935,-30.5871,-6.51712,-20.6701,17.0579,-30.0001,31.1001,23.8235,-3.35381,-28.2185,-25.2365,23.7195,-4.86766,3.2112,22.5788,34.4481,-11.7208,-9.9412,-39.5935,-30.5901,-6.52012,-20.6701,17.0579,-30.0031,31.1001,23.8235,-3.35381,-28.2215,-25.2365,23.7195,-4.86766,3.2112,22.5819,34.4512,-11.7177,-9.93814,-39.5935,-30.5901,-6.51706,-20.6701,17.0579,-30.0031,31.1032,23.8235,-3.35381,-28.2215,-25.2365,23.7195,-4.86766,3.2112,22.5821,34.4512,-11.7177,-9.93814,-39.5935,-30.5901,-6.51682,-20.6699,17.0582,-30.0031,31.1032,23.8237,-3.35381,-28.2215,-25.2365,23.7197,-4.86766,3.2112,22.5836,34.4527,-11.7162,-9.93662,-39.5935,-30.5886,-6.51682,-20.6699,17.0582,-30.0016,31.1047,23.8252,-3.35381,-28.22,-25.235,23.7212,-4.86766,3.2112,0.007199
91,22.5828,34.4527,-11.7171,-9.93746,-39.5944,-30.5886,-6.51765,-20.6699,17.0582,-30.0016,31.1038,23.8244,-3.35465,-28.22,-25.2358,23.7204,-4.86849,3.2112,22.582,34.4527,-11.7179,-9.93826,-39.5952,-30.5886,-6.51845,-20.6707,17.0582,-30.0016,31.103,23.8244,-3.35465,-28.22,-25.2366,23.7204,-4.86849,3.2112,22.5792,34.4499,-11.7206,-9.94104,-39.5952,-30.5914,-6.52123,-20.6707,17.0582,-30.0044,31.103,23.8244,-3.35465,-28.2227,-25.2366,23.7204,-4.86849,3.2112,22.582,34.4527,-11.7178,-9.93822,-39.5952,-30.5914,-6.51841,-20.6707,17.0582,-30.0044,31.1059,23.8244,-3.35465,-28.2227,-25.2366,23.7204,-4.86849,3.2112,22.5822,34.4527,-11.7178,-9.93822,-39.5952,-30.5914,-6.51818,-20.6704,17.0584,-30.0044,31.1059,23.8246,-3.35465,-28.2227,-25.2366,23.7206,-4.86849,3.2112,22.5836,34.4541,-11.7164,-9.93682,-39.5952,-30.59,-6.51818,-20.6704,17.0584,-30.003,31.1073,23.826,-3.35465,-28.2213,-25.2352,23.722,-4.86849,3.2112,0.0061105
92,22.5829,34.4541,-11.7172,-9.9376,-39.596,-30.59,-6.51896,-20.6704,17.0584,-30.003,31.1065,23.8252,-3.35543,-28.2213,-25.236,23.7212,-4.86927,3.2112,22.5821,34.4541,-11.7179,-9.93833,-39.5967,-30.59,-6.51969,-20.6712,17.0584,-30.003,31.1057,23.8252,-3.35543,-28.2213,-25.2367,23.7212,-4.86927,3.2112,22.5796,34.4516,-11.7205,-9.94089,-39.5967,-30.5925,-6.52225,-20.6712,17.0584,-30.0056,31.1057,23.8252,-3.35543,-28.2239,-25.2367,23.7212,-4.86927,3.2112,22.5822,34.4542,-11.7179,-9.93829,-39.5967,-30.5925,-6.51965,-20.6712,17.0584,-30.0056,31.1083,23.8252,-3.35543,-28.2239,-25.2367,23.7212,-4.86927,3.2112,22.5824,34.4542,-11.7179,-9.93829,-39.5967,-30.5925,-6.51944,-20.6709,17.0586,-30.0056,31.1083,23.8254,-3.35543,-28.2239,-25.2367,23.7214,-4.86927,3.2112,22.5837,34.4555,-11.7166,-9.93701,-39.5967,-30.5912,-6.51944,-20.6709,17.0586,-30.0043,31.1096,23.8267,-3.35543,-28.2226,-25.2354,23.7227,-4.86927,3.2112,0.00518652
93,22.5829,34.4555,-11.7173,-9.93772,-39.5974,-30.5912,-6.52016,-20.6709,17.0586,-30.0043,31.1089,23.826,-3.35614,-28.2226,-25.2362,23.722,-4.86998,3.2112,22.5823,34.4555,-11.718,-9.9384,-39.5981,-30.5912,-6.52083,-20.6716,17.0586,-30.0043,31.1082,23.826,-3.35614,-28.2226,-25.2368,23.722,-4.86998,3.2112,22.5799,34.4531,-11.7203,-9.94075,-39.5981,-30.5936,-6.52318,-20.6716,17.0586,-30.0066,31.1082,23.826,-3.35614,-28.225,-25.2368,23.722,-4.86998,3.2112,22.5823,34.4555,-11.718,-9.93836,-39.5981,-30.5936,-6.52079,-20.6716,17.0586,-30.0066,31.1106,23.826,-3.35614,-28.225,-25.2368,23.722,-4.86998,3.2112,22.5825,34.4555,-11.718,-9.93836,-39.5981,-30.5936,-6.5206,-20.6714,17.0588,-30.0066,31.1106,23.8262,-3.35614,-28.225,-25.2368,23.7222,-4.86998,3.2112,22.5837,34.4567,-11.7168,-9.93718,-39.5981,-30.5924,-6.5206,-20.6714,17.0588,-30.0055,31.1118,23.8274,-3.35614,-28.2238,-25.2356,23.7234,-4.86998,3.2112,0.0044022
94,22.583,34.4567,-11.7174,-9.93784,-39.5987,-30.5924,-6.52126,-20.6714,17.0588,-30.0055,31.1112,23.8267,-3.3568,-28.2238,-25.2363,23.7227,-4.87064,3.2112,22.5824,34.4567,-11.7181,-9.93846,-39.5994,-30.5924,-6.52188,-20.6721,17.0588,-30.0055,31.1105,23.8267,-3.3568,-28.2238,-25.2369,23.7227,-4.87064,3.2112,22.5802,34.4545,-11.7202,-9.94063,-39.5994,-30.5946,-6.52405,-20.6721,17.0588,-30.0076,31.1105,23.8267,-3.3568,-28.2259,-25.2369,23.7227,-4.87064,3.2112,22.5824,34.4567,-11.718,-9.93843,-39.5994,-30.5946,-6.52185,-20.6721,17.0588,-30.0076,31.1127,23.8267,-3.3568,-28.2259,-25.2369,23.7227,-4.87064,3.2112,22.5826,34.4567,-11.718,-9.93843,-39.5994,-30.5946,-6.52167,-20.6719,17.059,-30.0076,31.1127,23.8269,-3.3568,-28.2259,-25.2369,23.7229,-4.87064,3.2112,22.5837,34.4578,-11.7169,-9.93733,-39.5994,-30.5935,-6.52167,-20.6719,17.059,-30.0065,31.1138,23.828,-3.3568,-28.2248,-25.2358,23.724,-4.87064,3.2112,0.00373644
95,22.5831,34.4578,-11.7175,-9.93794,-39.6,-30.5935,-6.52228,-20.6719,17.059,-30.0065,31.1132,23.8274,-3.35741,-28.2248,-25.2364,23.7234,-4.87125,3.2112,22.5825,34.4578,-11.7181,-9.93851,-39.6005,-30.5935,-6.52285,-20.6724,17.059,-30.0065,31.1126,23.8274,-3.35741,-28.2248,-25.237,23.7234,-4.87125,3.2112,22.5805,34.4558,-11.7201,-9.94051,-39.6005,-30.5955,-6.52485,-20.6724,17.059,-30.0085,31.1126,23.8274,-3.35741,-28.2268,-25.237,23.7234,-4.87125,3.2112,22.5826,34.4578,-11.7181,-9.93848,-39.6005,-30.5955,-6.52282,-20.6724,17.059,-30.0085,31.1147,23.8274,-3.35741,-28.2268,-25.237,23.7234,-4.87125,3.2112,22.5827,34.4578,-11.7181,-9.93848,-39.6005,-30.5955,-6.52266,-20.6723,17.0592,-30.0085,31.1147,23.8276,-3.35741,-28.2268,-25.237,23.7235,-4.87125,3.2112,22.5837,34.4588,-11.7171,-9.93748,-39.6005,-30.5945,-6.52266,-20.6723,17.0592,-30.0075,31.1157,23.8286,-3.35741,-28.2258,-25.236,23.7246,-4.87125,3.2112,0.00317133
96,22.5832,34.4588,-11.7176,-9.93804,-39.6011,-30.5945,-6.52322,-20.6723,17.0592,-30.0075,31.1151,23.828,-3.35797,-28.2258,-25.2366,23.724,-4.87181,3.2112,22.5826,34.4588,-11.7182,-9.93856,-39.6016,-30.5945,-6.52375,-20.6728,17.0592,-30.0075,31.1146,23.828,-3.35797,-28.2258,-25.2371,23.724,-4.87181,3.2112,22.5808,34.457,-11.72,-9.94041,-39.6016,-30.5963,-6.52559,-20.6728,17.0592,-30.0094,31.1146,23.828,-3.35797,-28.2277,-25.2371,23.724,-4.87181,3.2112,22.5827,34.4589,-11.7181,-9.93854,-39.6016,-30.5963,-6.52372,-20.6728,17.0592,-30.0094,31.1165,23.828,-3.35797,-28.2277,-25.2371,23.724,-4.87181,3.2112,22.5828,34.4589,-11.7181,-9.93854,-39.6016,-30.5963,-6.52357,-20.6727,17.0593,-30.0094,31.1165,23.8281,-3.35797,-28.2277,-25.2371,23.7241,-4.87181,3.2112,22.5837,34.4598,-11.7172,-9.93761,-39.6016,-30.5954,-6.52357,-20.6727,17.0593,-30.0084,31.1174,23.8291,-3.35797,-28.2268,-25.2362,23.7251,-4.87181,3.2112,0.00269166
97,22.5832,34.4598,-11.7177,-9.93813,-39.6021,-30.5954,-6.52409,-20.6727,17.0593,-30.0084,31.1169,23.8286,-3.35849,-28.2268,-25.2367,23.7246,-4.87233,3.2112,22.5827,34.4598,-11.7182,-9.93861,-39.6026,-30.5954,-6.52457,-20.6731,17.0593,-30.0084,31.1164,23.8286,-3.35849,-28.2268,-25.2372,23.7246,-4.87233,3.2112,22.581,34.4581,-11.7199,-9.94031,-39.6026,-30.5971,-6.52627,-20.6731,17.0593,-30.0101,31.1164,23.8286,-3.35849,-28.2285,-25.2372,23.7246,-4.87233,3.2112,22.5828,34.4598,-11.7182,-9.93859,-39.6026,-30.5971,-6.52455,-20.6731,17.0593,-30.0101,31.1181,23.8286,-3.35849,-28.2285,-25.2372,23.7246,-4.87233,3.2112,22.5829,34.4598,-11.7182,-9.93859,-39.6026,-30.5971,-6.52441,-20.673,17.0594,-30.0101,31.1181,23.8287,-3.35849,-28.2285,-25.2372,23.7247,-4.87233,3.2112,22.5838,34.4607,-11.7173,-9.93773,-39.6026,-30.5962,-6.52441,-20.673,17.0594,-30.0093,31.119,23.8296,-3.35849,-28.2276,-25.2363,23.7255,-4.87233,3.2112,0.00228451
98,22.5833,34.4607,-11.7178,-9.93821,-39.6031,-30.5962,-6.52489,-20.673,17.0594,-30.0093,31.1185,23.8291,-3.35897,-28.2276,-25.2368,23.7251,-4.87281,3.2112,22.5828,34.4607,-11.7182,-9.93865,-39.6035,-30.5962,-6.52533,-20.6734,17.0594,-30.0093,31.118,23.8291,-3.35897,-28.2276,-25.2372,23.7251,-4.87281,3.2112,22.5813,34.4591,-11.7198,-9.94022,-39.6035,-30.5978,-6.5269,-20.6734,17.0594,-30.0108,31.118,23.8291,-3.35897,-28.2292,-25.2372,23.7251,-4.87281,3.2112,22.5829,34.4607,-11.7182,-9.93863,-39.6035,-30.5978,-6.52531,-20.6734,17.0594,-30.0108,31.1196,23.8291,-3.35897,-28.2292,-25.2372,23.7251,-4.87281,3.2112,22.583,34.4607,-11.7182,-9.93863,-39.6035,-30.5978,-6.52518,-20.6733,17.0596,-30.0108,31.1196,23.8292,-3.35897,-28.2292,-25.2372,23.7252,-4.87281,3.2112,22.5838,34.4615,-11.7174,-9.93785,-39.6035,-30.597,-6.52518,-20.6733,17.0596,-30.0101,31.1204,23.83,-3.35897,-28.2284,-25.2364,23.726,-4.87281,3.2112,0.00193893
99,22.5833,34.4615,-11.7179,-9.93829,-39.604,-30.597,-6.52563,-20.6733,17.0596,-30.0101,31.12,23.8296,-3.35941,-28.2284,-25.2369,23.7255,-4.87325,3.2112,22.5829,34.4615,-11.7183,-9.93869,-39.6044,-30.597,-6.52603,-20.6737,17.0596,-30.0101,31.1196,23.8296,-3.35941,-28.2284,-25.2373,23.7255,-4.87325,3.2112,22.5815,34.46,-11.7197,-9.94014,-39.6044,-30.5985,-6.52747,-20.6737,17.0596,-30.0115,31.1196,23.8296,-3.35941,-28.2298,-25.2373,23.7255,-4.87325,3.2112,22.5829,34.4615,-11.7183,-9.93868,-39.6044,-30.5985,-6.52602,-20.6737,17.0596,-30.0115,31.121,23.8296,-3.35941,-28.2298,-25.2373,23.7255,-4.87325,3.2112,22.5831,34.4615,-11.7183,-9.93868,-39.6044,-30.5985,-6.5259,-20.6736,17.0597,-30.0115,31.121,23.8297,-3.35941,-28.2298,-25.2373,23.7257,-4.87325,3.2112,22.5838,34.4622,-11.7175,-9.93795,-39.6044,-30.5977,-6.5259,-20.6736,17.0597,-30.0108,31.1218,23.8304,-3.35941,-28.2291,-25.2366,23.7264,-4.87325,3.2112,0.00164561
